{"encoder.2.weight": [[0.07017290592193604, 0.05089788883924484, -0.0390133373439312, 0.031516000628471375, -0.013224104419350624, -0.06112418696284294, 0.0889524295926094, -0.022754406556487083, -0.013934154063463211, -0.04593522846698761, -0.08414491266012192, 0.04776107892394066, -0.05425570160150528, -0.017525868490338326, 0.040652669966220856, -0.08973469585180283, -0.011415603570640087, 0.00923872273415327, 0.06931129097938538, -0.019973892718553543, -0.05946873128414154, -0.04491704702377319, 0.08841277658939362, 0.03252365067601204, -0.048689235001802444, -0.042889732867479324, 0.03330332785844803, -0.10226671397686005, -0.08340895175933838, 0.07321280986070633, -0.059697698801755905, 0.030693240463733673, -0.03930776193737984, -0.016397319734096527, -0.05142864212393761, 0.006255029235035181, 0.06483914703130722, -0.009388372302055359, -0.037817832082509995, 0.03368314728140831, 0.06730038672685623, -0.10285989940166473, 0.033865056931972504, -0.05378856882452965, 0.06155097112059593, -0.012250930070877075, -0.05248328670859337, 0.03199058026075363, -0.017942314967513084, -0.017748920246958733, -0.08400028944015503, 0.0776374414563179, -0.08935907483100891, -0.06109725311398506, 0.03948472812771797, 0.07754816114902496, 0.0966811552643776, 0.08063119649887085, -0.036997392773628235, 0.05196148902177811, -0.05792144685983658, 0.030879445374011993, -0.026180285960435867, 0.05735810846090317, -0.013521512039005756, -0.06532957404851913, 0.02680635266005993, 0.053191930055618286, 0.06597870588302612, -0.06197602301836014, -0.1184874176979065, 0.011495052836835384, -0.02057459205389023, -0.07446768134832382, 0.03949011117219925, -0.0748291090130806, -0.0068705081939697266, 0.037535496056079865, -0.07360242307186127, 0.08232630044221878, -0.0711103305220604, -0.041529227048158646, 0.08460784703493118, 0.057142987847328186, 0.10053467750549316, 0.05047817528247833, -0.07765990495681763, -0.01593051850795746, 0.053578540682792664, 0.07017508149147034, 0.03598344698548317, -0.01099415123462677, -0.10798219591379166, -0.06833967566490173, 0.016449738293886185, 0.03177366405725479, -0.030769214034080505, 0.08464199304580688, 0.0643678829073906, 0.06279300153255463], [0.029433557763695717, 0.04128274321556091, -0.026947660371661186, -0.06095582991838455, -0.031699519604444504, -0.012810131534934044, 0.029269974678754807, -0.08943244069814682, -0.13110725581645966, 0.01778089813888073, 0.06106643006205559, -0.029650714248418808, 0.05618288367986679, 0.001469634473323822, 0.015437088906764984, -0.055821001529693604, 0.038354042917490005, -0.04415937885642052, -0.05464112386107445, 0.08868838101625443, 0.0027655388694256544, 0.08051740378141403, -0.03113465942442417, -0.05827917158603668, -0.06153346225619316, 0.0027992497198283672, -0.054484833031892776, 0.04546191915869713, -0.0947217270731926, 0.07148930430412292, -0.09820696711540222, -0.08510680496692657, -0.08922978490591049, 0.032155297696590424, -0.09523296356201172, -0.0667865127325058, 0.026667706668376923, 0.06430108100175858, -0.05397295579314232, 0.0393267422914505, 0.07795803993940353, -0.06007373332977295, -0.05223548412322998, 0.048163555562496185, 0.07721605896949768, 0.01593271642923355, -0.06475050747394562, 0.07915917783975601, -0.020065298303961754, 0.020251166075468063, -0.0838996171951294, 0.03342924639582634, -0.047812264412641525, 0.03906971216201782, -0.004666819237172604, -0.05261808633804321, -0.08381321281194687, -0.1242050752043724, 0.029276132583618164, -0.03884362801909447, 0.06860590726137161, 0.03349977731704712, 0.07463563978672028, -0.006303802132606506, -0.06098013371229172, 0.011059031821787357, -0.10468172281980515, -0.10324538499116898, -0.03448127582669258, 0.06656871736049652, -0.15368658304214478, -0.009526197798550129, 0.05683399736881256, 0.033071696758270264, 0.08401606231927872, -0.0911245122551918, -0.09061367809772491, -0.05018423870205879, 0.0682317465543747, -0.06917210668325424, -0.06605088710784912, 0.02195729687809944, 0.06844070553779602, -0.008967628702521324, 0.06533823907375336, 0.025529000908136368, -0.038324326276779175, 0.03810638189315796, 0.07476776838302612, 0.06487749516963959, 0.08767013251781464, 0.0008580237627029419, -0.06184164062142372, 0.0661666989326477, -0.05061432719230652, -0.05202488973736763, 0.04264792054891586, -0.05814161151647568, -0.03538971394300461, 0.00474909320473671], [-0.017625518143177032, -0.01688065193593502, 0.03680732846260071, -0.010714690200984478, 0.0828251838684082, 0.09764161705970764, -0.07927778363227844, 0.07846909016370773, 0.024465879425406456, 0.0394396148622036, 0.03033939003944397, -0.038466013967990875, -0.09908145666122437, -0.06464957445859909, 0.08306743949651718, -0.10279826074838638, 0.002533836057409644, 0.04401697963476181, 0.07904723286628723, 0.09999964386224747, -0.06287812441587448, -0.025885559618473053, -0.044490691274404526, 0.009126270189881325, -0.038719434291124344, 0.07302387803792953, -0.05577290058135986, -0.09230642765760422, -0.0004923107917420566, -0.05463394895195961, 0.08881277590990067, -0.06970041990280151, -0.0695720911026001, -0.052816715091466904, 0.08402889966964722, 0.0311720073223114, 0.026142410933971405, 0.00895712524652481, -0.09017937630414963, 0.012074755504727364, 0.05848940461874008, 0.08137156069278717, 0.028972161933779716, -0.01924399472773075, -0.06926557421684265, -0.06331723928451538, -0.0930505022406578, 0.0027375284116715193, 0.06829891353845596, 0.025348467752337456, -0.0637391060590744, -0.009876923635601997, -0.10558261722326279, 0.06501714885234833, 0.0033117192797362804, 0.06633076071739197, -0.012952309101819992, 0.024487720802426338, -0.0840686708688736, -0.09653609991073608, -0.06895880401134491, 0.08703634887933731, -0.015142031013965607, 0.07174841314554214, 0.0449032336473465, 0.031969066709280014, 0.07404118776321411, 0.04944411665201187, 0.08404427021741867, -0.023866504430770874, 0.0696999728679657, -0.019197814166545868, 0.0884334146976471, -0.07312779128551483, 0.08393833786249161, 0.02937072329223156, -0.09377014636993408, -0.07009508460760117, 0.04126817733049393, -0.000577046477701515, 0.09360595792531967, 0.004343428183346987, -0.08008583635091782, -0.0031021167524158955, -0.07753481715917587, 0.0050438204780220985, -0.07080719619989395, -0.03240695595741272, -0.08724340051412582, 0.003732062876224518, 0.0433112196624279, -0.07072333246469498, -0.09980304539203644, -0.08906519412994385, -0.10347168147563934, 0.08426938205957413, -0.0809500589966774, -0.04986028000712395, 0.06269054114818573, 0.056095778942108154], [0.07270179688930511, 0.004759834613651037, -0.36218273639678955, -0.0030617022421211004, 0.08264459669589996, 0.04025585949420929, 0.03997814655303955, -0.010402753949165344, -0.23464852571487427, -0.11472125351428986, 0.15396660566329956, -0.06507976353168488, 0.0262874998152256, -0.023723237216472626, -0.04107612371444702, -0.01713159680366516, -0.029204396530985832, 0.03432542458176613, -0.039023954421281815, 0.0011852113530039787, -0.04187585040926933, -0.09899351745843887, -0.030436255037784576, 0.023349104449152946, 0.10418900847434998, 0.029128937050700188, 0.07015088945627213, 0.10522904992103577, -0.08304407447576523, 0.018505970016121864, -0.06842135637998581, -0.037277624011039734, 0.07981913536787033, -0.09317189455032349, 0.013403425924479961, 0.027145864441990852, 0.07829930633306503, -0.022311165928840637, 0.03946319594979286, -0.03191704303026199, -0.0286339670419693, 0.04475298523902893, -0.05313875153660774, -0.02362106181681156, -0.12711097300052643, -0.05187537893652916, -0.05992303043603897, -0.11621145159006119, -0.07608191668987274, 0.22490078210830688, 0.01077059656381607, -0.06213163956999779, 0.004293628036975861, -0.01526795607060194, -0.011799683794379234, 0.1010114774107933, -0.009889553301036358, 0.03708893060684204, -0.002409335458651185, 0.05740593746304512, -0.013277484104037285, 0.03897930309176445, 0.027549132704734802, -0.08755233138799667, -0.05954595282673836, 0.11350463330745697, -0.08756300061941147, 0.00211007846519351, 0.024326259270310402, 0.11038273572921753, 0.08891654014587402, 0.12571747601032257, 0.12870152294635773, -0.02884940430521965, -0.01360541582107544, -0.011872668750584126, 0.030994005501270294, -0.014559462666511536, -0.04281538724899292, 0.06179472431540489, 0.013309992849826813, -0.13034871220588684, -0.0884375274181366, 0.02207891084253788, 0.08497754484415054, -0.024218572303652763, -0.07154018431901932, 0.12836655974388123, 0.03243063762784004, 0.058487482368946075, -0.038430195301771164, -0.0005834698677062988, 0.07072389125823975, 0.08271966874599457, 0.06194109842181206, -0.09247757494449615, -0.04637807607650757, 0.01522942166775465, 0.10018407553434372, -0.060502465814352036], [0.00995182991027832, -0.058426856994628906, 0.09398899227380753, -0.0957743301987648, 0.01010219007730484, 0.0861688032746315, -0.020968958735466003, -0.08898290246725082, -0.010902628302574158, 0.015516199171543121, -0.07285462319850922, -0.09668377786874771, 0.05414532870054245, -0.03717128932476044, 0.08517802506685257, 0.08163119107484818, 0.07508430629968643, -0.006774343550205231, 0.03320031613111496, -0.057542622089385986, -0.07951804250478745, 0.07510720938444138, 0.09283073991537094, -0.07062212377786636, 0.06958616524934769, 0.04385533183813095, 0.04869533330202103, -0.03712550550699234, -0.08001232147216797, 0.04000938683748245, -0.035562559962272644, 0.059879280626773834, 0.02859053760766983, 0.09405026584863663, 0.06321407109498978, 0.02187614142894745, -0.07331837713718414, -0.08684315532445908, 0.07159744948148727, -0.027751266956329346, -0.054943203926086426, -0.014145173132419586, 0.03446901589632034, -0.0921870619058609, 0.018877722322940826, -0.029138460755348206, 0.07005871087312698, -0.09371016174554825, -0.028758548200130463, 0.002595067024230957, -0.08582792431116104, -0.0069090574979782104, -0.08012799918651581, -0.04910799488425255, -0.0938684493303299, -0.06396448612213135, 0.045570097863674164, 0.05463346093893051, 0.07544953376054764, -0.07398056983947754, -0.027866825461387634, -0.027387067675590515, -0.00722096860408783, 0.03376365453004837, -0.04397192224860191, -0.03724771738052368, 0.07725097984075546, -0.07936141639947891, 0.013292714953422546, 0.03787798434495926, -0.03551008552312851, -0.01930149644613266, -0.04870748519897461, 0.03989671915769577, 0.03895694762468338, -0.04991459846496582, 0.0407346710562706, -0.09238588064908981, 0.09761340171098709, 0.07854454964399338, -0.011094912886619568, 0.04512912780046463, 0.06941083818674088, -0.06020345911383629, -0.027365289628505707, 0.050750233232975006, -0.05565304681658745, -0.016718782484531403, -0.0918879508972168, 0.07774420827627182, -0.0731826052069664, -0.01994553953409195, -0.06802741438150406, 0.007353231310844421, -0.0782412514090538, -0.04401422664523125, 0.08759851008653641, 0.067677341401577, -0.009708799421787262, 0.03671368211507797], [-0.04896602779626846, 0.1356888860464096, 0.19228392839431763, 0.07885098457336426, 0.20862534642219543, -0.0008061187691055238, 0.19548851251602173, -0.0208380576223135, 0.36051642894744873, -0.13010179996490479, 0.06349796056747437, -0.21447761356830597, 0.13756512105464935, -0.013471625745296478, 0.018268659710884094, -0.03991864249110222, -0.02180064655840397, -0.003453157376497984, -0.07951952517032623, -0.09985692799091339, -0.22576382756233215, -0.07265446335077286, 0.0842101201415062, 0.12812021374702454, 0.10297399759292603, 0.06063360720872879, -0.04152271896600723, 0.08202516287565231, 0.2652391195297241, 0.012784197926521301, 0.2423906922340393, -0.07421674579381943, -0.05608987808227539, -0.09636139124631882, 0.017637280747294426, 0.054452765733003616, 0.09362108260393143, 0.08500700443983078, -0.09844060242176056, -0.08344253152608871, -0.019226595759391785, -0.002034164732322097, 0.02449089288711548, -0.12755323946475983, -0.12174447625875473, -0.010323405265808105, -0.05477769300341606, -0.032579630613327026, 0.060946665704250336, -0.042120352387428284, 0.056058116257190704, -0.0015879831044003367, 0.0342295840382576, 0.0377470999956131, 0.020699210464954376, -0.05337972193956375, -0.09113156795501709, 0.14436931908130646, -0.011959425173699856, 0.12380484491586685, 0.03356856107711792, 0.10449574142694473, 0.04037148505449295, -0.0483592264354229, 0.07403647154569626, 0.1351899802684784, -0.07626647502183914, -0.1509387046098709, -0.0839795395731926, 0.06793063133955002, 0.12564446032047272, -0.07362809032201767, 0.04255765303969383, -0.022965410724282265, 0.06155795603990555, -0.0414586067199707, 0.08466621488332748, 0.015956297516822815, 0.01883804239332676, 0.03001800924539566, 0.015340112149715424, 0.12222357094287872, -0.024843961000442505, 0.05753006786108017, 0.08243066072463989, 0.012846127152442932, -0.044919125735759735, 0.06376753747463226, 0.06429003924131393, -0.06201595067977905, 0.1226806640625, -0.019983187317848206, 0.1457957625389099, -0.12454773485660553, -0.14687947928905487, 0.031719036400318146, 0.05364767462015152, 0.28793108463287354, -0.07762901484966278, 0.08061960339546204], [-0.07330634444952011, -0.12154920399188995, -0.09182269126176834, 0.02224176749587059, -0.11578062176704407, -0.16660372912883759, -0.1394374966621399, 0.036388322710990906, -0.2509666979312897, 0.016698475927114487, 0.06336706131696701, 0.13315683603286743, 0.0937490239739418, -0.04289477691054344, 0.011252142488956451, 0.13460594415664673, -0.024760235100984573, 0.040533196181058884, 0.0021870688069611788, -0.005617918912321329, -0.010084254667162895, -0.06280365586280823, -0.0690876692533493, 0.0709918811917305, 0.14968127012252808, 0.04480292275547981, -0.0694858655333519, 0.1552724838256836, -0.05430389195680618, 0.04762285575270653, 0.23700305819511414, 0.05417747050523758, -0.028634265065193176, -0.059302594512701035, 0.05734327435493469, 0.13252957165241241, 0.005875675939023495, 0.06243813782930374, 0.10333956778049469, -0.03732038289308548, 0.059734128415584564, 0.03988025709986687, -0.05405640974640846, 0.036102544516325, -0.10560622811317444, 0.061118919402360916, 0.044653721153736115, -0.0765431821346283, 0.04289606958627701, 0.16045351326465607, -0.06419120728969574, 0.04267362132668495, 0.14218831062316895, 0.00040896423161029816, -0.012671605683863163, -0.07922065258026123, -0.01488712802529335, -0.09581924974918365, -0.14469920098781586, 0.09165974706411362, -0.07974329590797424, 0.09732450544834137, -0.0006099487654864788, -0.06638853251934052, 0.024310743436217308, 0.059392500668764114, -0.07679691910743713, -0.0219058096408844, 0.08077067136764526, -0.060366250574588776, -0.010252602398395538, 0.12909141182899475, 0.045697975903749466, -0.008544816635549068, 0.04158348590135574, 0.216779425740242, 0.07525817304849625, -0.05444991588592529, -0.028656398877501488, -0.01836802437901497, -0.004504300653934479, -0.09584295004606247, -0.04130600392818451, 0.042718999087810516, -0.042274098843336105, -0.05067826434969902, -0.030607715249061584, -0.058926455676555634, 0.026294881477952003, -0.0007896845345385373, 0.26604536175727844, -0.03427743911743164, -0.028935106471180916, 0.22183839976787567, 0.07060777395963669, -0.06756845116615295, -0.08975958824157715, -0.27213236689567566, -0.008987470529973507, 0.08895979076623917], [0.048690419644117355, -0.057370591908693314, 0.06842853128910065, 0.026357376947999, -0.1094728484749794, -0.02067798189818859, -0.016299700364470482, -0.020297199487686157, 0.06893602013587952, -0.03458838537335396, 0.07904220372438431, -0.06031998246908188, 0.028402211144566536, 0.044733691960573196, -0.03832777962088585, 0.03633623197674751, -0.03531236574053764, -0.09480580687522888, -0.031245563179254532, 0.022841744124889374, -0.1012473925948143, 0.08832568675279617, -0.07255041599273682, -0.09439627826213837, -0.08589468896389008, -0.04019007459282875, -0.05494591221213341, -0.0332532599568367, -0.032106637954711914, -0.07248155772686005, 0.06679102778434753, -0.07083500921726227, 0.0069177523255348206, -0.03504912555217743, -0.027455328032374382, -0.02302572689950466, 0.03518415614962578, 0.08401855081319809, 0.0015094856498762965, -0.03872712329030037, -0.0709860697388649, 0.07409681379795074, -0.0821182131767273, -0.041959166526794434, 0.03629381209611893, -0.09684659540653229, 0.04303393512964249, 0.08663300424814224, 0.05984841287136078, -0.06924480199813843, -0.08126963675022125, 0.016680486500263214, -0.01824449747800827, 0.015835419297218323, 0.0023777049500495195, -0.05658910050988197, 0.05535886064171791, -0.09653754532337189, -0.13169026374816895, 0.04150303825736046, 0.00895480252802372, 0.05942419171333313, -0.08516481518745422, -0.0313401073217392, -0.005379919428378344, -0.10771746933460236, -0.06443959474563599, -0.03976571187376976, 0.07460081577301025, -0.07937639206647873, 0.01615910418331623, -0.003370176535099745, 0.08511379361152649, -0.04017869755625725, 0.03676683455705643, -0.10357280820608139, 0.0011982470750808716, -0.04262733459472656, 0.028981443494558334, -0.07372216880321503, -0.07245536148548126, -0.07802524417638779, 0.01236786786466837, 0.06691749393939972, -0.10242656618356705, 0.025918224826455116, 0.04186130315065384, -0.05188581719994545, -0.02517102286219597, -0.01540288794785738, 0.06346346437931061, 0.0778527781367302, -0.07176202535629272, 0.05980177968740463, 0.05056620389223099, -0.04050753265619278, 0.07515797764062881, -0.06677284836769104, -0.06105959415435791, 0.024425160139799118], [-0.07144996523857117, -0.07603976130485535, 0.008632362820208073, -0.028317827731370926, 0.059832628816366196, 0.029251303523778915, 0.004917217418551445, 0.07667990773916245, 0.03719178959727287, 0.014858771115541458, -0.007835080847144127, -0.1119394451379776, -0.10218781977891922, 0.09057357162237167, 0.051015324890613556, 0.0038438746705651283, 0.020535290241241455, 0.009316548705101013, -0.1002596765756607, -0.002704143524169922, -0.055606164038181305, -0.04247758537530899, -0.0931444838643074, 0.03657772019505501, 0.001207953435368836, -0.0032852888107299805, 0.06419979780912399, 0.04700718820095062, 0.019977452233433723, 0.05470835417509079, -0.10066910088062286, 0.08186542242765427, -0.04115648195147514, 0.08471205085515976, 0.05013290047645569, -0.018847275525331497, 0.06607652455568314, -0.06558528542518616, 0.08280418813228607, -0.056029271334409714, 0.07681428641080856, -0.07976538687944412, -0.06848805397748947, -0.0378856435418129, -0.09020578861236572, 0.02951214462518692, 0.0008597150444984436, -0.018384061753749847, -0.05425439029932022, -0.008429111912846565, 0.018455885350704193, -0.043228406459093094, 0.07628429681062698, -0.07911615818738937, -0.03498208522796631, -0.08315977454185486, 0.02913869172334671, -0.04936160519719124, 0.03385089710354805, -0.07283887267112732, 0.07470808178186417, -0.08375437557697296, -0.08198467642068863, 0.0033507198095321655, -0.04004968702793121, -0.11550544202327728, 0.061660997569561005, 0.07312717288732529, -0.07310238480567932, 0.009612033143639565, 0.050919901579618454, -0.008632511831820011, -0.044999461621046066, 0.06829133629798889, 0.014869287610054016, 0.0021229456178843975, -0.02389492094516754, 0.06199883669614792, 0.022633561864495277, -0.07479585707187653, -0.00221841037273407, 0.00033196891308762133, -0.08195465058088303, -0.0983893871307373, -0.09283997863531113, 0.04457693547010422, -0.07853087782859802, 0.059339508414268494, -0.0817628726363182, -0.016375325620174408, 0.009452571161091328, -0.058091677725315094, -0.10123513638973236, -0.10505283623933792, -0.02902117185294628, 0.01774696260690689, 0.021705999970436096, -0.08437418937683105, -0.06196480989456177, 0.030523357912898064], [-0.09193545579910278, -0.1464572697877884, -0.8863930702209473, -0.06496802717447281, -0.045738592743873596, 0.11877702921628952, 0.1197381541132927, -0.028132174164056778, -0.10466127097606659, 0.10554523766040802, 0.14218799769878387, -0.07593421638011932, 0.15203215181827545, -0.021557651460170746, 0.06769604235887527, 0.0028973084408789873, 0.08798492699861526, -0.09704070538282394, -0.01975773461163044, -0.07688220590353012, -0.1860049068927765, -0.031803905963897705, 0.09700576215982437, -0.059584736824035645, 0.11410442739725113, 0.01192791759967804, -0.07107241451740265, 0.08829925954341888, 0.11377113312482834, 0.07713288813829422, -1.351709008216858, -0.08771884441375732, 0.07488351315259933, -0.09863727539777756, 0.09103570133447647, -0.0793328583240509, -0.1002829447388649, 0.045320622622966766, 0.08793079107999802, -0.0726056918501854, -0.06978000700473785, -0.10649388283491135, 0.025563903152942657, -0.0994354709982872, -0.1428682804107666, 0.043714478611946106, -0.03772733360528946, 0.12908029556274414, 0.04518032819032669, -0.28421688079833984, -0.09780662506818771, -0.03926950693130493, -0.06127861887216568, -0.0736323893070221, -0.024230480194091797, -0.0005480257095769048, 0.01780492067337036, -0.24523310363292694, 0.011758183129131794, 0.08362974971532822, 0.09522464126348495, -0.03823139891028404, 0.016555074602365494, -0.018493972718715668, 0.06775619089603424, 0.011287759058177471, 0.03703399375081062, -0.22568607330322266, -0.0908885970711708, 0.023194365203380585, 0.22096294164657593, -0.15157347917556763, 0.35980024933815, 0.0942462682723999, -0.09347116947174072, -0.14044445753097534, 0.05246267467737198, 0.0686739906668663, -0.013312023133039474, 0.01321730762720108, 0.02154584228992462, -0.22472386062145233, 0.10185538232326508, 0.15472359955310822, 0.001474127173423767, 0.037284597754478455, -0.05261846259236336, 0.18207214772701263, 0.10025116056203842, -0.0640387311577797, 0.16423630714416504, 0.027507029473781586, -0.01234120037406683, -0.02233307994902134, 0.11438716948032379, 0.0457276776432991, -0.053887009620666504, -0.654928982257843, 0.01979793608188629, -0.04315754398703575], [-0.0979706272482872, 0.012603098526597023, -0.03027454949915409, -0.09429478645324707, 0.03103223256766796, 0.033338867127895355, 0.08237261325120926, 0.09098309278488159, 0.03547234088182449, -0.0430879220366478, -0.0015726600540801883, -0.11110959202051163, -0.06012975424528122, -0.05973706394433975, -0.03524986654520035, -0.10157936066389084, 0.056462276726961136, -0.04333346337080002, 0.058704495429992676, 0.04635504633188248, 0.03709261119365692, -0.01939360797405243, -0.01565372571349144, 0.062284618616104126, -0.06824399530887604, 0.047115981578826904, 0.08500737696886063, -0.005796089302748442, -0.03548223152756691, 0.03643742948770523, 0.005443934816867113, 0.062352605164051056, 0.026816733181476593, -0.018334761261940002, -0.046120092272758484, -0.026808850467205048, -0.025129754096269608, 0.0377127006649971, -0.08505763113498688, 0.09730591624975204, 0.0450863316655159, -0.060754645615816116, -0.040985554456710815, 0.03149998188018799, -0.0442020557820797, -0.08623777329921722, -0.07375003397464752, -0.07784727215766907, 0.08107142150402069, -0.0750313401222229, 0.05253865569829941, -0.019231252372264862, -0.023683801293373108, -0.012706173583865166, -0.09911784529685974, -0.02679610066115856, -0.021609576418995857, 0.08004088699817657, 0.045004524290561676, 0.055297791957855225, 0.049047403037548065, -0.0247025229036808, 0.052469585090875626, 0.09497234970331192, 0.06679055839776993, -0.11040831357240677, 0.07588842511177063, 0.03800714761018753, 0.09379582107067108, -0.017414456233382225, -0.026025881990790367, -0.002703024772927165, -0.07622026652097702, -0.11221647262573242, -0.09851988404989243, 0.03924313187599182, -0.011202536523342133, 0.0391702726483345, 0.05109136551618576, 0.08578118681907654, -0.050477948039770126, -0.06504291296005249, -0.10100750625133514, 0.05678300932049751, 0.03242255002260208, -0.01735326461493969, -0.07131479680538177, -0.041470006108284, -0.03385574743151665, -0.0953308567404747, 0.029249362647533417, -0.03873026371002197, -0.07744750380516052, 0.010500273667275906, 0.05993705242872238, 0.0181899294257164, 0.023902811110019684, 0.08560041338205338, 0.024544402956962585, -0.08415142446756363], [0.060985393822193146, -0.03870093822479248, 0.016822408884763718, -0.052681148052215576, -0.036470308899879456, 0.0718270018696785, -0.07003378123044968, 0.014067769050598145, 0.00831528939306736, 0.07706412672996521, -0.07240965962409973, 0.07486352324485779, 0.078497014939785, -0.012059725821018219, 0.008673273026943207, 0.005700333975255489, -0.08087150007486343, 0.08093384653329849, -0.014345087110996246, -0.03798336908221245, -0.08582665026187897, 0.04965958744287491, -0.02886897325515747, -0.029376840218901634, -0.06182878464460373, -0.06491057574748993, 0.031025342643260956, 0.06687261164188385, -0.06911476701498032, -0.001155458390712738, 0.006865911651402712, -0.09145855903625488, 0.0036919862031936646, 0.05927247554063797, -0.0328197181224823, -0.09312880039215088, -0.007028721272945404, -0.06781364977359772, -0.09088581800460815, 0.09858710318803787, -0.04246468469500542, 0.004626489710062742, 0.011153019964694977, 0.04357354715466499, -0.04131895303726196, -0.0032877475023269653, -0.07826398313045502, -0.046812210232019424, -0.0008015409111976624, -0.05463138595223427, -0.019987106323242188, -0.07004298269748688, -0.056604016572237015, -0.06167283281683922, -0.06807388365268707, 0.018665654584765434, 0.09676218777894974, -0.018295906484127045, 0.0016443596687167883, -0.08971913158893585, -0.09198551625013351, 0.04120805114507675, -0.07336413860321045, -0.09377846866846085, -0.10211674124002457, -0.08954553306102753, 0.024215221405029297, -0.04687199741601944, -0.0027480944991111755, 0.016192838549613953, -0.10653339326381683, -0.0384935699403286, 0.039771806448698044, 0.05826985090970993, -0.04979506880044937, 0.030352124944329262, 0.0651489868760109, 0.024349316954612732, 0.051601968705654144, 0.03800142556428909, 0.012617543339729309, -0.10587621480226517, 0.049946896731853485, -0.04754134267568588, -0.09805027395486832, -0.06412176787853241, -0.04009519889950752, -0.10494274646043777, 0.06042085215449333, 0.031111545860767365, -0.03766009211540222, -0.08335127681493759, -0.1078241840004921, 0.01600012741982937, 0.01087266206741333, 0.06775958091020584, -0.07155376672744751, -0.1038818284869194, -0.08936738967895508, 0.07475806027650833], [0.06660646200180054, 0.010238266550004482, 0.44945406913757324, 0.09003724902868271, 0.03729389235377312, -0.0686160996556282, 0.0019024709472432733, -0.07880452275276184, 0.28094741702079773, 0.10725300759077072, 0.16403718292713165, -0.08482212573289871, -0.004167228937149048, -0.034423600882291794, 0.057679273188114166, 0.09351853281259537, -0.041307538747787476, 0.049178190529346466, 0.07380088418722153, -0.041864167898893356, 0.0365162156522274, 0.04550463706254959, -0.055721595883369446, 0.02397223748266697, -0.022020386531949043, -0.013070506043732166, 0.09574044495820999, 0.051780473440885544, 0.14784662425518036, -0.040062837302684784, 0.0022071730345487595, 0.07674992829561234, 0.055240653455257416, -0.09278160333633423, -0.13088087737560272, 0.07618792355060577, 0.08877182751893997, -0.029896512627601624, -0.04887567088007927, 0.08631071448326111, 0.07286594063043594, 0.13797970116138458, -0.07631809264421463, -0.12069838494062424, 0.11782393604516983, -0.067472904920578, 0.09077916294336319, -0.022818660363554955, -0.05228863283991814, -0.1548229306936264, 0.09661161154508591, -0.06939885765314102, -0.03634026646614075, 0.06802680343389511, 0.27222245931625366, 0.08602416515350342, -0.04046490415930748, -0.14337573945522308, -0.06219741702079773, 0.08479456603527069, -0.006775349844247103, -0.04181243106722832, -0.047160014510154724, -0.0650208368897438, -0.02172964997589588, -0.022435080260038376, -0.01660347543656826, -0.06335964798927307, 0.07399813085794449, 0.06786126643419266, 0.03628554940223694, 0.07003462314605713, 0.06730620563030243, -0.051869649440050125, 0.0025594010949134827, 0.026986675336956978, 0.048576243221759796, -0.08988912403583527, -0.07920236885547638, 0.05975702032446861, 0.015916645526885986, -0.0220171045511961, 0.004958971869200468, 0.10245204716920853, 0.10855096578598022, 0.020804721862077713, 0.09173078089952469, -0.11942628026008606, 0.11825621128082275, 0.04582275450229645, 0.009047598578035831, -0.09864266216754913, 0.0513480007648468, 0.08035431802272797, 0.0875396728515625, 0.03493822365999222, -0.05708489567041397, 0.06757428497076035, 0.034910012036561966, -0.014944237656891346], [0.014773804694414139, 0.13128621876239777, 0.25979211926460266, 0.03944886475801468, 0.13371460139751434, -0.04566681385040283, 0.07583912461996078, 0.03413248062133789, 0.32231515645980835, -0.09796734154224396, 0.2711719572544098, 0.009215479716658592, 0.07809653133153915, -0.07383210211992264, 0.05704469233751297, 0.08309843391180038, -0.08106143027544022, 0.03199674189090729, 0.008950493298470974, -0.02784406580030918, 0.1252179592847824, -0.0035681873559951782, -0.01235211081802845, 0.09395218640565872, 0.16907534003257751, 0.07976382225751877, -0.04301980882883072, 0.17378461360931396, 0.11251022666692734, 0.02848629094660282, 0.13781887292861938, 0.06984882801771164, -0.055101264268159866, 0.09376808255910873, -0.14142823219299316, -0.030633827671408653, 0.06909384578466415, 0.09655702859163284, -0.05478449910879135, -0.026250798255205154, 0.07641232758760452, 0.1174388900399208, -0.06528685986995697, 0.0850970521569252, 0.13599228858947754, 0.013310701586306095, -0.04395068809390068, -0.005765652284026146, 0.028709376230835915, -0.057868488132953644, -0.07145331799983978, -0.06492439657449722, 0.16770000755786896, -0.003211582312360406, 0.23246662318706512, -0.014582627452909946, 0.03281770274043083, 0.19230137765407562, 0.008315485902130604, 0.11459111422300339, 0.0062410468235611916, -0.04730360582470894, -0.08148059248924255, 0.05194950848817825, 0.05834358558058739, -0.04945182427763939, 0.010953998193144798, 0.13688106834888458, 0.10501651465892792, -0.005745833273977041, 0.07109305262565613, 0.015579070895910263, 0.006419820245355368, -0.0011170506477355957, 0.005037441849708557, -0.1876404732465744, 0.09126173704862595, -0.08541989326477051, -0.01944483257830143, -0.014609524980187416, -0.03411732614040375, 0.10427717864513397, 0.04290006682276726, 0.007196060381829739, -0.08924474567174911, 0.07912252843379974, 0.050303615629673004, -0.08862961828708649, -0.09806020557880402, -0.03375381976366043, -0.09669359773397446, -0.04314626380801201, 0.12226582318544388, 0.10551957786083221, -0.19410157203674316, 0.032272838056087494, -0.0783846527338028, -0.07151193171739578, 0.0027606524527072906, 0.003062955802306533], [-0.06198718026280403, -0.015723157674074173, 0.07663176208734512, -0.03509867563843727, 0.1504926234483719, -0.024536028504371643, -0.07284489274024963, 0.10268186777830124, 0.18464568257331848, -0.05140949413180351, -0.3985374867916107, -0.17192256450653076, -0.08902303129434586, 0.0908198431134224, 0.06506245583295822, -0.02198510430753231, 0.05543283745646477, 0.04967068135738373, -0.046895503997802734, -0.014148149639368057, -0.08290564268827438, 0.05513071268796921, -0.04575881361961365, -0.018658431246876717, 0.03443680703639984, 0.047792043536901474, -0.08821344375610352, 0.039956096559762955, 0.0928160548210144, -0.07874513417482376, 0.11160451173782349, -0.02476205676794052, 0.08468156307935715, -0.027259454131126404, 0.000465213815914467, 0.022725149989128113, -0.0691075548529625, -0.08272310346364975, -0.058613747358322144, -0.04904484376311302, -0.0044931769371032715, 0.19378559291362762, 0.07915797084569931, 0.07013848423957825, -0.18795554339885712, -0.008350670337677002, -0.009002789855003357, -0.11614206433296204, 0.04695756733417511, 0.13959355652332306, 0.08199378103017807, 0.09855753928422928, -0.11374840885400772, -0.08427360653877258, 0.07915351539850235, -0.0926666110754013, 0.05722029507160187, 0.2011667937040329, -0.028850840404629707, 0.07908741384744644, -0.003256195457652211, 0.0739872008562088, -0.0800236165523529, -0.09221821278333664, 0.3106074333190918, 0.0859093889594078, -0.030776439234614372, 0.03148120641708374, -0.012349032796919346, 0.03750075399875641, -0.22445839643478394, 0.07948586344718933, -0.10966284573078156, 0.012884809635579586, 0.08404179662466049, 0.20673978328704834, 0.02540493756532669, -0.07112808525562286, 0.06445944309234619, 0.019126996397972107, 0.08698344975709915, 0.1908770352602005, -0.04512053728103638, 0.09599550068378448, -0.06970476359128952, -0.09210582822561264, 0.037569958716630936, 0.007997286505997181, -0.08620206266641617, -0.07276248931884766, 0.24829909205436707, -0.017758049070835114, 0.023627381771802902, -0.008381982333958149, -0.01425081491470337, -0.046185292303562164, 0.07890241593122482, 0.08686233311891556, 0.036624543368816376, -0.007270257920026779], [-0.030939839780330658, -0.07075223326683044, -0.05856776982545853, -0.08207342773675919, -0.11391600966453552, -0.070927694439888, 0.03316022828221321, 0.035888101905584335, 0.020305825397372246, -0.08643504232168198, -0.10274629294872284, 0.04421743378043175, -0.08072301000356674, 0.027134526520967484, -0.06715492904186249, 0.040612466633319855, 0.06399822980165482, 0.09269819408655167, 0.0384855754673481, -0.02676009200513363, -0.04490121826529503, -0.08583100140094757, -0.04134118929505348, -0.07238225638866425, 0.04812699556350708, -0.05284585431218147, -0.014955222606658936, -0.08663857728242874, -0.04462788999080658, 0.07314670085906982, 0.05259329825639725, -0.00039771944284439087, 0.0021284595131874084, 0.05570439249277115, 0.07868871837854385, -0.06993032991886139, -0.09947560727596283, 0.012253239750862122, -0.013086489401757717, -0.07444120943546295, -0.06485804915428162, -0.0876270979642868, -0.08622339367866516, 0.08159253001213074, -0.03839241340756416, -0.08441587537527084, -0.0164666548371315, -0.01317556668072939, 0.005868496838957071, -0.013605999760329723, 0.07374071329832077, -0.048176445066928864, -0.10697181522846222, 0.0467669740319252, -0.05796003341674805, 0.007320351433008909, 0.09108094871044159, 0.029975585639476776, -0.07177421450614929, 0.08393456041812897, 0.0008230062667280436, -0.05571405217051506, 0.0632239580154419, 0.09031323343515396, -0.10893756151199341, -0.050475817173719406, -0.056197792291641235, -0.008930518291890621, -0.05582038685679436, 0.03218642249703407, 0.04492773860692978, 0.06783407181501389, -0.07622488588094711, -0.06594981253147125, 0.08846133202314377, 0.07539070397615433, -0.05626770481467247, -0.06172829866409302, 0.07467878609895706, -0.050644513219594955, -0.0854501873254776, -0.10493848472833633, 0.07482000440359116, 0.07170221954584122, -0.01778429001569748, 0.04683926701545715, 0.038653336465358734, -0.00987617764621973, 0.06643126159906387, -0.09016264975070953, 0.08123227953910828, 0.0909513309597969, -0.02095812000334263, 0.026478737592697144, -0.013754086568951607, -0.09016292542219162, -0.04834864288568497, 0.059234846383333206, -0.08471088856458664, -0.06819913536310196], [-0.03650345280766487, -0.03668561205267906, 0.13981734216213226, -0.057552412152290344, -0.018469206988811493, -0.05857274308800697, -0.09711789339780807, -0.046281881630420685, 0.06314176321029663, 0.16368255019187927, -0.04244435951113701, 0.05800112709403038, 0.17692698538303375, 0.005587980151176453, 0.017217770218849182, 0.026720693334937096, 0.027494607493281364, -0.0416010282933712, -0.07946980744600296, -0.05536772310733795, 0.07523851096630096, 0.0878564789891243, 0.09027652442455292, 0.13826121389865875, 0.18808478116989136, 0.029123105108737946, 0.08777210861444473, -0.03754836320877075, -0.04123530164361, 0.05544457212090492, 0.038649823516607285, 0.09161225706338882, 0.09371984750032425, -0.013865292072296143, 0.046417828649282455, 0.1145363450050354, -0.0486576184630394, -0.03087540715932846, 0.012200169265270233, 0.005011764355003834, -0.09086229652166367, 0.021897610276937485, -0.002282405272126198, 0.018136652186512947, -0.06517843902111053, -0.005867922678589821, -0.04157225042581558, 0.16174684464931488, 0.041386574506759644, -0.10559890419244766, 0.06965192407369614, 0.02741958759725094, 0.11445146054029465, -0.044365376234054565, 0.16268989443778992, -0.12698963284492493, -0.026858804747462273, -0.08400469273328781, -0.0419757105410099, -0.05011528357863426, -0.026873044669628143, -0.07845743745565414, 0.02120388112962246, 0.0487808957695961, -0.03893743082880974, -0.002717912197113037, -0.09018325805664062, 0.06139833480119705, -0.00041901934309862554, -0.057832151651382446, 0.1562107354402542, 0.12128882110118866, 0.020609455183148384, 0.041433416306972504, 0.0418723002076149, -0.10848454385995865, 0.05587127059698105, -0.028801538050174713, 0.017296599224209785, 0.02070602960884571, -0.06494274735450745, 0.0673447996377945, 0.011101843789219856, -0.10352207720279694, 0.022299744188785553, 0.04249150678515434, 0.042917318642139435, -0.061084263026714325, -0.10487493127584457, -0.0625547394156456, 0.15607576072216034, 0.07988632470369339, 0.09974455088376999, -0.007093277759850025, -0.016947539523243904, -0.08639568090438843, -0.07561396062374115, 0.17417335510253906, -0.07324850559234619, -0.0020885963458567858], [0.08798743039369583, 0.08986891806125641, -0.6692217588424683, -0.0986853837966919, -0.04290997236967087, -0.012543204240500927, 0.06257238239049911, 0.004740871489048004, 0.011118884198367596, 0.11821713298559189, 0.10782872885465622, -0.011471142061054707, 0.03237461671233177, -0.016859591007232666, 0.08452101796865463, -0.044836945831775665, -0.010028100572526455, -0.09271534532308578, -0.020580969750881195, 0.01431196928024292, -0.12650048732757568, -0.0005720257759094238, -0.07331714779138565, -0.04641285911202431, -0.13058114051818848, -0.05659513548016548, -0.06687760353088379, -0.12195883691310883, 0.07969958335161209, 0.04729916900396347, -0.01037689857184887, -0.029697105288505554, 0.07951188832521439, -0.08121232688426971, 0.18631775677204132, -0.07397718727588654, 0.03818000108003616, -0.002785608172416687, 0.054240621626377106, 0.04738592356443405, -0.07620452344417572, -0.009657771326601505, 0.043138109147548676, 0.058496516197919846, 0.02518371492624283, -0.09388955682516098, -0.00011757761240005493, -0.06753181666135788, -0.06692466884851456, 0.08966922014951706, 0.02561820298433304, 0.06076660007238388, 0.05639484524726868, 0.0685800090432167, 0.04336424171924591, -0.02100655622780323, -0.09940465539693832, 0.19579029083251953, 0.03971448540687561, 0.032398074865341187, -0.016877830028533936, 0.02698410302400589, 0.045203328132629395, -0.04842027649283409, -0.2254500538110733, 0.0656130388379097, 0.05770213156938553, 0.17564545571804047, 0.08317665010690689, 0.0943126231431961, 0.17598897218704224, 0.14124806225299835, 0.01321049127727747, -0.04978282377123833, -0.06817176938056946, -0.0663049966096878, 0.0006841272115707397, 0.09455723315477371, -0.07363568246364594, -0.07646987587213516, 0.08285848051309586, 0.10528827458620071, 0.03348252922296524, 0.16153034567832947, -0.09566737711429596, -0.04195606708526611, -0.04566805437207222, 0.09582653641700745, 0.03977420553565025, 0.054431743919849396, -0.06980540603399277, 0.07842990010976791, 0.20401212573051453, -0.16659238934516907, 0.03690723702311516, 0.045253850519657135, -0.06497769057750702, 0.3320182263851166, -0.04294319078326225, 0.09124497324228287], [-0.09099645167589188, 0.16532346606254578, -0.07423913478851318, -0.045274198055267334, 0.05630035325884819, 0.014089991338551044, -0.058258507400751114, 0.08342263847589493, -0.0032683180179446936, 0.14042416214942932, 0.031430765986442566, 0.1894850730895996, -0.1971026510000229, 0.02430729568004608, -0.023289725184440613, 0.12750692665576935, 0.04987270385026932, 0.08487740159034729, -0.0558507964015007, 0.048108361661434174, -0.04846677556633949, 0.08895749598741531, -0.06471947580575943, -0.1096365824341774, -0.07889077067375183, 0.06521116942167282, -0.04075603559613228, -0.15633240342140198, 0.14952711760997772, 0.08894293755292892, 0.07168242335319519, -0.01196666806936264, -0.0474202036857605, 0.040634073317050934, 0.00515574449673295, -0.01998080685734749, 0.027607277035713196, -0.07552237808704376, -0.09584448486566544, -0.07112358510494232, -0.02962176501750946, 0.13112148642539978, 0.03980189934372902, -0.0960865393280983, -0.031459081918001175, 0.0301800724118948, -0.01805480569601059, 0.07325893640518188, 0.01936745084822178, 0.11446856707334518, 0.039015091955661774, 0.0017439138609915972, 0.1087367907166481, 0.021399470046162605, 0.005712149664759636, -0.0272245854139328, -0.06215526536107063, 0.23571528494358063, 0.1434727907180786, 0.025746149942278862, 0.0795469731092453, 0.06199921667575836, -0.043339140713214874, 0.009392306208610535, 0.05046328529715538, -0.16203415393829346, 0.04387316852807999, -0.019745077937841415, -0.10450132936239243, 0.004681943450123072, -0.04621804133057594, 0.07778975367546082, 0.055607493966817856, -0.006710454355925322, 0.06957841664552689, -0.052140604704618454, -0.01647906005382538, 0.07462481409311295, 0.026148024946451187, -0.04186185076832771, -0.04446655511856079, -0.0048575811088085175, 0.030647113919258118, 0.2876605987548828, -0.07832612097263336, -0.08674981445074081, -0.04751446843147278, 0.1631288379430771, 0.16340139508247375, 0.06713790446519852, -0.073849618434906, 0.05052686482667923, -0.051149532198905945, -0.07583917677402496, 0.02722022496163845, 0.0957523062825203, -0.04653916507959366, -0.37004080414772034, -0.09228342771530151, 0.025445925071835518], [0.07290061563253403, 0.01781304180622101, 0.05932676047086716, -0.09607156366109848, 0.026771776378154755, -0.053220558911561966, 0.08346795290708542, 0.028807230293750763, 0.08315861970186234, 0.05426646023988724, -0.09705065935850143, -0.08094670623540878, 0.03843667358160019, 0.07214374095201492, -0.06473622471094131, -0.07866957038640976, 0.027252666652202606, 7.124990224838257e-05, 0.0037506595253944397, 0.07192010432481766, -0.09049093723297119, -0.06377175450325012, 0.06821773201227188, -0.09526868909597397, 0.07017252594232559, -0.0002863556146621704, 0.047443874180316925, 0.032581351697444916, -0.039323221892118454, -0.0248626247048378, -0.06277988106012344, -0.01593552529811859, 0.09277040511369705, 0.07220955938100815, -0.029047921299934387, -0.010251723229885101, 0.052202023565769196, -0.043094124644994736, -0.05550156906247139, 0.044578976929187775, -0.023198522627353668, -0.022030577063560486, -0.04800396040081978, 0.048474960029125214, -0.06454500555992126, -0.0883888378739357, -0.0075181275606155396, -0.01370181143283844, -0.04611402750015259, -0.046286262571811676, -0.026797272264957428, -0.06256536394357681, -0.009403504431247711, -0.06138411909341812, -0.08453234285116196, 0.05921155959367752, -0.06348548829555511, -0.02389327436685562, -0.07283942401409149, -0.05936197191476822, -0.004710100591182709, -0.07395465672016144, 0.022128582000732422, -0.08622881025075912, 0.06601493805646896, -0.036111071705818176, 0.055160827934741974, 0.024248816072940826, 0.0402480885386467, 0.012533292174339294, 0.06491950899362564, 0.0030996203422546387, 0.06067825108766556, 0.08396843820810318, -0.043556105345487595, -0.03095468133687973, -0.08292989432811737, 0.03591866046190262, 0.029812105000019073, 0.09274781495332718, 0.012555144727230072, 0.0019068866968154907, 0.06472762674093246, -0.043554045259952545, 0.03643370419740677, -0.003393791615962982, -0.03771102428436279, 0.025035090744495392, -0.07842513173818588, 0.011017963290214539, -0.0218542218208313, 0.03992796689271927, -0.0813964232802391, 0.0791580006480217, -0.06054048612713814, -0.08346632868051529, 0.02875358611345291, -0.03805213049054146, -0.07775308936834335, 0.08082634955644608], [-0.05589357763528824, 0.07361508905887604, -0.41402319073677063, -0.05554145202040672, 0.10839638859033585, 0.04979296401143074, -0.1118137389421463, -0.03891020268201828, -0.11037502437829971, 0.0370762012898922, 0.08708535879850388, 0.08581648021936417, 0.01771095022559166, -0.02371595799922943, -0.07997912168502808, -0.004688670858740807, -0.00922084879130125, -0.013839825987815857, -0.003261044155806303, 0.05811057239770889, 0.18786318600177765, 0.02093414217233658, 0.03182840719819069, 0.0723637118935585, 0.18147899210453033, -0.06278355419635773, -0.051925670355558395, -0.0757187232375145, -0.10620858520269394, -0.006893455982208252, -0.08739963918924332, -0.040218330919742584, -0.04359530285000801, 0.09837115556001663, 0.03037235699594021, 0.011427250690758228, -0.028683125972747803, -0.02843334525823593, -0.026060227304697037, -0.006962761282920837, 0.0695011094212532, -0.047110144048929214, 0.022635791450738907, 0.1488558053970337, -0.14270994067192078, 0.03159834444522858, -0.06489458680152893, 0.2689281404018402, -0.05644409731030464, -0.14661423861980438, 0.06053373962640762, 0.0059649343602359295, 0.07282628118991852, -0.036468613892793655, -0.1615702360868454, -0.011726291850209236, -0.010214842855930328, 0.20040284097194672, 0.12054847925901413, 0.043199799954891205, -0.015978239476680756, -0.05322164297103882, 0.026647396385669708, -0.03453610837459564, -0.06352684646844864, -0.07134464383125305, 0.06434028595685959, 0.19787347316741943, -0.041993398219347, 0.05860695242881775, 0.029869599267840385, -0.14018774032592773, -0.30701178312301636, -0.017331713810563087, -0.0240020751953125, 0.11636818200349808, 0.01320406049489975, 0.08440204709768295, 0.010286251083016396, -0.0020164847373962402, 0.034874327480793, 0.01655426435172558, -0.06054558604955673, -0.03906390815973282, 0.0278027281165123, 0.027416832745075226, 0.04063891991972923, 0.11885127425193787, 0.11689992249011993, -0.09584794193506241, 0.23704946041107178, 0.04589488357305527, -0.043822672218084335, -0.07469476014375687, 0.028491832315921783, -0.020421162247657776, 0.04371974617242813, -0.14798499643802643, 0.07785721868276596, -0.10651274025440216], [-0.012807723134756088, -0.06420309096574783, 0.20052465796470642, 0.07534400373697281, 0.039092354476451874, 0.11001595109701157, 0.14651653170585632, -0.06976368278265, 0.14134475588798523, 0.06354991346597672, 0.08408838510513306, -0.3299427032470703, 0.03768563270568848, -0.06870733201503754, -0.022683165967464447, 0.030094554647803307, 0.07490647584199905, 0.06661207228899002, -0.038977377116680145, -0.06722201406955719, -0.14686651527881622, -0.025703884661197662, 0.08176703751087189, 0.00023939245147630572, -0.029485736042261124, 0.06838405877351761, 0.05327113717794418, -0.0423889197409153, -0.037416670471429825, -0.003967834636569023, -0.2442014217376709, -0.038656044751405716, -0.019566692411899567, 0.02614762634038925, -0.09671053290367126, -0.016208898276090622, 0.020894687622785568, -0.03153659403324127, -0.04498845711350441, 0.08401783555746078, 0.054790087044239044, 0.11458548158407211, -0.019994569942355156, 0.12411551177501678, 0.05465495586395264, 0.09117284417152405, -0.06766441464424133, 0.018574517220258713, 0.005116549786180258, -0.11297508329153061, 0.005538269877433777, 0.03995794430375099, 0.15733365714550018, -0.057197511196136475, -0.17662297189235687, 0.03531106933951378, -0.0007753922836855054, 0.05001929774880409, -0.0034880705643445253, -0.12824296951293945, -0.03819506615400314, -0.0387195460498333, -0.03602180629968643, 0.04154536873102188, 0.05562330782413483, 0.14174047112464905, 0.07879441976547241, -0.24462418258190155, 0.05273132771253586, 0.020048361271619797, 0.061503153294324875, 0.09452730417251587, 0.09751320630311966, -0.06565137207508087, 0.05137956887483597, 0.05553193762898445, -0.09324122965335846, -0.036704301834106445, -0.09599919617176056, -0.00622554449364543, -0.06546375155448914, -0.04805237799882889, -0.08667880296707153, -0.06636934727430344, 0.07174282521009445, -0.05682332441210747, -0.08173943310976028, 0.012083261273801327, -0.030550144612789154, -0.01671788841485977, -0.14752806723117828, -0.036320045590400696, 0.05605069920420647, 0.008646555244922638, -0.028604190796613693, -0.018394410610198975, 0.035592205822467804, 0.6074278950691223, -0.035211533308029175, -0.00947369821369648], [-0.073556087911129, 0.03159766271710396, 0.0030181542970240116, -0.058568406850099564, -0.06370194256305695, -0.08543859422206879, -0.11344881355762482, -0.00493555748835206, -0.1056223139166832, 0.024097871035337448, -0.04295584186911583, 0.014492185786366463, -0.13103988766670227, 0.04213594272732735, 0.04223274439573288, 0.06530281156301498, -0.0972287505865097, 0.020532291382551193, 0.021460434421896935, -0.032089684158563614, -0.10796961188316345, -0.09214230626821518, -0.005234169773757458, 0.02311868779361248, 0.04480879381299019, 0.08607575297355652, 0.05113982409238815, -0.04582126811146736, 0.03891681879758835, -0.006655917502939701, -0.008226251229643822, -0.04839282110333443, -0.057818423956632614, 0.051601700484752655, -0.08908899873495102, 0.02926376834511757, 0.06606908142566681, 0.07909882813692093, 0.06108138710260391, -0.09675528854131699, 0.07684577256441116, 0.014479001984000206, -0.10787208378314972, -0.08794400095939636, -0.024824144318699837, 0.034426312893629074, 0.058599598705768585, -0.05234989523887634, -0.0066490997560322285, -0.016981380060315132, -0.019615091383457184, -0.049047086387872696, 0.04050939530134201, -0.029365213587880135, -0.08628035336732864, -0.0007430238765664399, 0.05253959447145462, 0.016154346987605095, 0.025540350005030632, 0.013496965169906616, 0.07685354351997375, -0.0927630066871643, 0.03661532327532768, -0.03420247137546539, -0.0201736893504858, -0.034154262393713, 0.06516219675540924, -0.029098039492964745, 0.0842314064502716, -0.10389051586389542, -0.020648496225476265, -0.08594425022602081, -0.12428618967533112, -0.019199486821889877, -0.09264323860406876, -0.036997850984334946, -0.09116663783788681, -0.02408720552921295, -0.013836597092449665, 0.07371273636817932, 0.010356687009334564, 0.07208972424268723, -0.011236315593123436, -0.01340056024491787, -0.004822102375328541, -0.10546506196260452, 0.01338933315128088, -0.07312192767858505, -0.12022276967763901, -0.005354232620447874, 0.011283631436526775, 0.021893106400966644, -0.07706032693386078, -0.08983616530895233, 0.06495178490877151, -0.07186901569366455, -0.07577643543481827, -0.04021500423550606, 0.09141824394464493, 0.06436650454998016], [-0.0867486298084259, 0.03523632511496544, -0.056775495409965515, -0.02160049043595791, -0.06843692809343338, 0.058914706110954285, 0.07623172551393509, -0.01996627077460289, -0.07923083007335663, -0.024012502282857895, -0.012668742798268795, 0.06784477084875107, -0.03986506909132004, 0.05229858309030533, 0.07775380462408066, 0.025423116981983185, 0.07535658031702042, 0.08483368903398514, -0.07039733976125717, 0.09824507683515549, 0.0252575371414423, 0.02801937609910965, 0.024482473731040955, 0.05248188599944115, -0.0377475805580616, -0.055530887097120285, 0.07613451033830643, -0.09607246518135071, 0.010893619619309902, -0.08823517709970474, -0.0148823456838727, 0.017772555351257324, 0.08299895375967026, 0.09705101698637009, 0.07398895919322968, 0.017766324803233147, -0.0359509252011776, -0.024913489818572998, 0.026347581297159195, -0.02418658509850502, -0.027691759169101715, -0.014220518060028553, -0.07348122447729111, -0.03381814435124397, 0.08173098415136337, -0.05469318479299545, 0.08088938146829605, -0.1026553362607956, 0.05656978487968445, 0.02616220712661743, 0.030431531369686127, 0.018530912697315216, -0.08313069492578506, -0.03499406948685646, 0.07955386489629745, -0.07453850656747818, -0.08913379162549973, -0.0510108545422554, 0.021299347281455994, -0.0654832199215889, -0.08189135789871216, 0.07833627611398697, 0.007081521209329367, -0.04548976570367813, -0.08019929379224777, 0.04810024052858353, 0.019138602539896965, -0.11142750829458237, -0.03541833162307739, -0.08046810328960419, -0.03125307336449623, -0.10294745117425919, -0.047010526061058044, 0.02237340807914734, -0.05556396394968033, -0.09002828598022461, 0.05084485560655594, -0.09913467615842819, 0.09253787994384766, 0.05441413074731827, -0.028306886553764343, -0.031583014875650406, -0.0516807921230793, -0.007650737185031176, -0.09254927933216095, -0.07601045817136765, 0.010779550299048424, 0.04614538699388504, -0.04279368743300438, -0.03459367901086807, 0.02083183079957962, 0.04619324952363968, -0.04317246749997139, 0.07948894053697586, 0.04285334795713425, -0.04692775011062622, 0.06472928076982498, 0.08432931452989578, -0.013615095056593418, -0.00032516499049961567], [0.027844224125146866, -0.009588917717337608, -0.08444436639547348, -0.0717192068696022, -0.12624533474445343, -0.005751578602939844, 0.14250941574573517, -0.012416204437613487, -0.04558194428682327, 0.17373879253864288, 0.3519316017627716, -0.00871199369430542, -0.05172979459166527, 0.06057523936033249, -0.043547023087739944, -0.053195521235466, 0.09008647501468658, -0.038898661732673645, 0.0018468425842002034, 0.05289527773857117, -0.11726433783769608, 0.024419628083705902, -0.018443668261170387, 0.06993739306926727, 0.01914907619357109, 0.04976428300142288, 0.07226601988077164, -0.03417661041021347, 0.017063282430171967, -0.014115295372903347, 0.20728439092636108, 0.07265875488519669, -0.080203577876091, 0.04926604777574539, 0.024821514263749123, 0.08267434686422348, 0.0005789895658381283, 0.061607725918293, 0.008542792871594429, -0.09688938409090042, 0.08581814914941788, 0.08003834635019302, -0.020582010969519615, 0.1255418211221695, 0.08229248225688934, 0.04732849821448326, 0.002846263349056244, 0.1338866502046585, -0.08514899015426636, -0.0647304579615593, -0.08828859776258469, 0.04644718021154404, 0.025523005053400993, 0.03803982213139534, 0.02102026715874672, 0.09169671684503555, -0.0007161762332543731, 0.03875870630145073, -0.13585667312145233, 0.12509289383888245, 0.013872938230633736, -0.025300711393356323, 0.06874149292707443, 0.08029905706644058, -0.1264282613992691, -0.087978795170784, -0.0565093457698822, -0.025661740452051163, -0.03184690326452255, -0.035850390791893005, -0.028886836022138596, -0.00404386967420578, 0.1923549324274063, -0.030249709263443947, -0.08478260040283203, -0.010337922722101212, -0.0875004306435585, 0.052585892379283905, -0.0794188529253006, -0.03611224517226219, -0.002722010016441345, 0.031016472727060318, -0.05881097540259361, 0.2339150309562683, -0.02764587104320526, -0.10127661377191544, -0.06879080086946487, -0.02060040459036827, -0.10497185587882996, -0.056073397397994995, 0.20802220702171326, -0.007174670696258545, -0.0022305576130747795, 0.16841205954551697, 0.06574562937021255, -0.025971494615077972, 0.09505739063024521, 0.05289209261536598, -0.05942288786172867, -0.011758716776967049], [-0.06797192245721817, 0.06877201795578003, 0.0084203090518713, 0.08152532577514648, 0.1776716113090515, -0.0035045798867940903, 0.008563646115362644, -0.08475448191165924, -0.02598542906343937, 0.2016080766916275, 0.04394884407520294, -0.08135868608951569, 0.013981564901769161, -0.1000395119190216, 0.06059931963682175, -0.04167153313755989, -0.08998472988605499, 0.02419956773519516, 0.09456611424684525, 0.024958092719316483, 0.007890423759818077, 0.05233519524335861, 0.08354472368955612, 0.1055600568652153, 0.1348663717508316, -0.02931167371571064, 0.057687632739543915, -0.004522474482655525, -0.10008685290813446, 0.07175885140895844, 0.08131241798400879, 0.05981454998254776, -0.07364654541015625, -0.02829965204000473, 0.1880965679883957, 0.03862365335226059, -0.021134845912456512, 0.04271448403596878, -0.03274808079004288, 0.06272732466459274, 0.0072248950600624084, -0.016345305368304253, 0.012226981110870838, 0.20102763175964355, -0.06060699373483658, 0.040919557213783264, -0.09951286762952805, 0.10494125634431839, -0.05326613783836365, -0.11212198436260223, -0.0644514262676239, -0.06755243986845016, -0.09796344488859177, -0.023519104346632957, 0.004008694086223841, 0.1480800062417984, 0.031424857676029205, -0.10476365685462952, 0.03584899753332138, -0.07134872674942017, 0.05658417567610741, 0.08306979387998581, 0.029455678537487984, 0.009536288678646088, -0.003826876636594534, 0.07887474447488785, 0.017385074868798256, 0.19193029403686523, -0.07638097554445267, 0.05736050382256508, 0.15648332238197327, 0.023074304684996605, -0.17340664565563202, 0.045828357338905334, -0.048716139048337936, -0.1099068820476532, 0.08835107833147049, 0.023188628256320953, 0.04432915896177292, -0.06664487719535828, -0.07795220613479614, 0.010262882336974144, -0.07493248581886292, 0.1430772989988327, -0.08323156833648682, 0.035758063197135925, -0.041933003813028336, -0.13293710350990295, 0.13307173550128937, 0.0887022316455841, 0.1322891116142273, 0.012623682618141174, -0.1310490518808365, -0.06642735749483109, 0.04844871908426285, 0.09306449443101883, 0.06066877394914627, 0.061378613114356995, -0.04100634530186653, 0.007123876828700304], [0.036012399941682816, 0.03495527058839798, 0.015965016558766365, -0.035149965435266495, -0.043411146849393845, -0.04384510964155197, 0.035002823919057846, 0.05931637063622475, -0.05035931244492531, -0.03500150516629219, -0.10984797030687332, -0.014511355198919773, -0.04822356253862381, 0.05887997895479202, -0.07016359269618988, 0.054618239402770996, 0.05889562517404556, 0.026305951178073883, 0.003642385359853506, -0.02238468825817108, -0.005105073098093271, -0.014783278107643127, -0.01801072061061859, -0.09154471755027771, -0.09903563559055328, 0.03282291442155838, 0.04747817665338516, 0.0587313175201416, -0.03108348324894905, 0.058125756680965424, 0.006925373803824186, -0.0649108737707138, -0.08330295979976654, 0.0166119784116745, -0.07586956769227982, -0.0026970249600708485, -0.0348135381937027, 0.0055715590715408325, 0.02114558219909668, -0.04309655353426933, -0.019293829798698425, 0.012840937823057175, 0.01642991602420807, -0.07031936198472977, 0.016788281500339508, 0.0008485093712806702, 0.0654577687382698, -0.08395764231681824, -0.09548269957304001, 0.04177243635058403, -0.09491287916898727, 0.001840844750404358, -0.10930239409208298, 0.00877112615853548, -0.10866248607635498, -0.10391613841056824, 0.046743132174015045, 0.06375161558389664, 0.03530681133270264, -0.02922441065311432, 0.024493232369422913, 0.09029126912355423, -0.02761588990688324, -0.04029855877161026, -0.08642185479402542, -0.027159148827195168, 0.0973372533917427, -0.03214593976736069, -0.03894289955496788, -0.05185197666287422, -0.0033029543701559305, -0.11319269239902496, 0.021617937833070755, -0.02551654726266861, -0.08501005172729492, -0.013882308267056942, -0.08451570570468903, 0.09712865203619003, 0.07417808473110199, 0.025601454079151154, -0.07747980207204819, 0.045837562531232834, 0.04901759326457977, 0.0597832053899765, -0.09833689779043198, -0.05351315811276436, -0.04720905050635338, 0.0016381973400712013, -0.0013093897141516209, -0.027351059019565582, 0.05088198184967041, 0.0028006285429000854, -0.030288387089967728, 0.025854218751192093, -0.02107975259423256, -0.09888119995594025, -0.07125449180603027, -0.11327849328517914, 0.03793174773454666, -0.05104630067944527], [-0.037469442933797836, 0.07141272723674774, -0.08565481007099152, -0.011307230219244957, 0.033539991825819016, -0.08655162900686264, 0.0669744461774826, 0.06807702779769897, -0.0056478409096598625, 0.1031743735074997, 0.15331578254699707, 0.02895568311214447, -0.06689024716615677, -0.07132239639759064, -0.0021503418684005737, 0.052355505526065826, 0.037205200642347336, 0.020612196996808052, 0.007458131294697523, 0.045435257256031036, 0.13434311747550964, 0.026510216295719147, 0.043326471000909805, 0.10150866955518723, 0.14350295066833496, -0.013724137097597122, -0.08915193378925323, -0.05469673499464989, -0.10762754827737808, 0.003893483430147171, 0.22892965376377106, 0.00706096738576889, 0.09716872125864029, -0.07892556488513947, -0.19009603559970856, 0.02163293957710266, -0.0378837063908577, 0.08698488026857376, -0.05617281049489975, 0.0005711045232601464, -0.04831331968307495, 0.05761134624481201, 0.029018890112638474, -0.029519401490688324, -0.058074500411748886, -0.06960654258728027, 0.012836456298828125, 0.23907679319381714, 0.06471351534128189, 0.150022491812706, 0.03179038316011429, 0.03846995159983635, -0.04647170379757881, -0.01682472415268421, -0.08995085954666138, 0.13298745453357697, -0.03303160518407822, 0.3321273624897003, 0.05732244998216629, 0.05234352871775627, -0.08070427179336548, 0.03560694679617882, 0.07441005110740662, -0.07835370302200317, 0.2634476125240326, -0.08148160576820374, -0.05926131829619408, -0.03488379716873169, 0.014967766590416431, -0.03951489180326462, -0.07146631926298141, -0.007683686912059784, 0.14496885240077972, -0.0224525835365057, 0.0581694170832634, 0.07896889746189117, -0.03364340215921402, -0.08956386893987656, 0.08754626661539078, 0.09289688616991043, -0.0860227569937706, 0.04066789895296097, 0.00011551553325261921, -0.052298884838819504, -0.022548334673047066, 0.009552394971251488, 0.10083246231079102, -0.0195789597928524, 0.019355230033397675, -0.002532482147216797, -0.021680517122149467, -0.04568295553326607, -0.12544843554496765, 0.11420145630836487, -0.1255892515182495, -0.04454878717660904, -0.004777692258358002, -0.07674229890108109, -0.027618728578090668, 0.05173896253108978], [0.07102065533399582, -0.007088751997798681, 0.08866472542285919, -0.006342649459838867, -0.05533462390303612, -0.05512081831693649, 0.07824192941188812, 0.0638921782374382, 0.015141618438065052, 0.0006640024366788566, -0.09957455098628998, 0.017628025263547897, -0.08001802861690521, 0.05217815190553665, 0.05432399362325668, -0.07739045470952988, -0.05500739812850952, 0.033602677285671234, -0.03478517383337021, 0.059792034327983856, 0.08892595767974854, -0.0324389711022377, 0.01644911617040634, -0.0350351482629776, 0.08868283778429031, -0.0033785849809646606, 0.0876864418387413, 0.04347705468535423, 0.018652640283107758, 0.0329466238617897, 0.00914678629487753, 0.071511410176754, 0.03539327532052994, -0.0979422926902771, -0.007925082929432392, 0.00364322611130774, -0.04694334417581558, -0.052703607827425, -0.08770643919706345, 0.0700189396739006, 0.08197357505559921, -0.05017976462841034, 0.009882315993309021, -0.03239450603723526, 0.010955480858683586, 0.061786673963069916, 0.020741082727909088, 0.05774785950779915, -0.03568035364151001, -0.011423473246395588, -0.01145656406879425, 0.06272714585065842, -0.1047530397772789, -0.08219635486602783, -0.012425540015101433, -0.07607822865247726, -0.06773555278778076, 0.03680795803666115, -0.04573802649974823, -0.1012447252869606, 0.02464667707681656, -0.06169257313013077, -0.006846747361123562, -0.03129597008228302, -0.017606893554329872, 0.024487769231200218, 0.07926037162542343, -0.022661946713924408, -0.061576783657073975, -0.005397811532020569, 0.00024437266984023154, 0.07528465986251831, 0.02655678242444992, -0.07040175050497055, -0.02718660980463028, -0.028330225497484207, -0.05604386329650879, -0.08578181266784668, -0.0920005589723587, 0.06349951773881912, 0.006611190736293793, 0.07478015124797821, 0.07842762023210526, -0.02753313072025776, 0.052076734602451324, 0.06816791743040085, 0.07805653661489487, -0.06557795405387878, 0.020456019788980484, 0.08078712970018387, -0.09425162523984909, -0.003025829792022705, -0.029608353972434998, -0.0022564511746168137, -0.022312454879283905, -0.03558427095413208, 0.016868554055690765, -0.06509522348642349, 0.09242474287748337, -0.007598445285111666], [0.005772531498223543, 0.0514526441693306, 0.020134517922997475, -0.033685170114040375, -0.0953841581940651, 0.0378461629152298, -0.116522878408432, 0.05659419298171997, -0.12756264209747314, 0.07264314591884613, -0.20161469280719757, -0.19102990627288818, 0.07636357843875885, 0.022763649001717567, -0.02379131317138672, 0.07308530062437057, -0.03444787859916687, -0.05616717413067818, -0.03739951178431511, 0.030581049621105194, 0.13277168571949005, 0.046760283410549164, -0.005088338628411293, -0.027218764647841454, -0.019226502627134323, 0.022516712546348572, -0.09207844734191895, -0.054835014045238495, -0.13665172457695007, 0.08614010363817215, -0.1727822870016098, -0.010049089789390564, 0.04021308571100235, 0.027587048709392548, 0.17803455889225006, -0.0005126980831846595, 0.06150636821985245, -0.09906449168920517, 0.08876533061265945, 0.08163212984800339, -0.02682209014892578, -0.050469495356082916, 0.06978671997785568, 0.17139944434165955, -0.014674697071313858, 0.0009479652508161962, -0.006996408104896545, -0.05110325664281845, -0.059116117656230927, -0.022869231179356575, 0.034487612545490265, 0.04614821448922157, 0.1179877296090126, -0.08905993402004242, 0.06098766624927521, -0.005332649685442448, -0.04299105703830719, -0.01239408366382122, 0.0964943915605545, -0.0014075729995965958, -0.04877607151865959, -0.016545478254556656, -0.013827568851411343, 0.08995478600263596, -0.1425144225358963, 0.1499875783920288, 0.08790203183889389, 0.12393473833799362, -0.016775736585259438, -0.043206583708524704, 0.1521439105272293, 0.10416952520608902, -0.20389913022518158, 0.028283122926950455, -0.03643164783716202, 0.0051208483055233955, -0.05007249116897583, 0.09503107517957687, -0.019129037857055664, 0.033064842224121094, -0.09202571213245392, 0.14944979548454285, -0.03849286958575249, -0.07419589161872864, 0.07810364663600922, 0.08341158181428909, 0.07559329271316528, 0.09636493027210236, 0.011049056425690651, 0.0590682253241539, -0.09815775603055954, -0.09492231905460358, 0.12552690505981445, -0.0876634418964386, 0.003764405380934477, 0.06446807831525803, -0.09355124086141586, 0.2492666244506836, -0.10251200199127197, 0.0013457916211336851], [-0.031876206398010254, -0.04255801811814308, -0.025928080081939697, 0.08197485655546188, -0.0879703164100647, 0.08138643205165863, -0.05994251370429993, 0.08350903540849686, -0.054072055965662, 0.08525658398866653, 0.05912817269563675, -0.062320858240127563, -0.10603327304124832, 0.043140120804309845, 0.07427147775888443, -0.07606427371501923, -0.058092642575502396, 0.09443745762109756, -0.08075541257858276, -0.05609830841422081, -0.05676111951470375, -0.07140638679265976, 0.04545807093381882, 0.034808285534381866, -0.09897009283304214, -0.059981513768434525, -0.07696914672851562, 0.04590694233775139, -0.11054475605487823, 0.0035200566053390503, -0.08605007827281952, 0.0797976478934288, -0.08890130370855331, -0.016444429755210876, -0.04873402416706085, -0.10187840461730957, 0.04925578087568283, -0.06775575876235962, 0.04887213557958603, -0.04584987089037895, 0.03386566787958145, -0.023001542314887047, 0.026314161717891693, -0.02656785026192665, -0.026303067803382874, 0.018190458416938782, -0.07376472651958466, 0.04483482986688614, 0.06752639263868332, 0.01775224693119526, 0.08441034704446793, -0.09518065303564072, -0.11281672865152359, 0.05002707988023758, 0.04873204976320267, 0.08006193488836288, 0.040007539093494415, 0.022853493690490723, 0.037868354469537735, 0.0221385657787323, 0.09483189135789871, -0.07761076837778091, 0.006981097161769867, -0.006621360778808594, -0.08518163859844208, -0.047555726021528244, 0.03639589995145798, 0.009764065966010094, -0.04229060560464859, -0.06463603675365448, -0.03232254460453987, -0.09663978219032288, 0.05489969253540039, -0.020116671919822693, 0.062194742262363434, -0.11025137454271317, 0.014575183391571045, 0.008004948496818542, -0.05405478551983833, 0.027805902063846588, -0.08187387138605118, 0.07637935131788254, -0.09486909955739975, 0.0764000415802002, -0.02480349689722061, 0.03846224397420883, -0.0224616676568985, 0.013694284483790398, 0.006159552838653326, 0.050907574594020844, 0.0100785493850708, 0.026947595179080963, 0.044454362243413925, -0.040558669716119766, -0.09197814017534256, 0.08811069279909134, -0.023237906396389008, 0.051514528691768646, 0.05600272864103317, 0.09512711316347122], [-0.047564905136823654, 0.15197601914405823, -0.7513613700866699, -0.031521447002887726, 0.18896473944187164, -0.02905779890716076, -0.12896648049354553, -0.046955548226833344, -0.0837787315249443, -0.09805945307016373, -0.18922559916973114, 0.09310618788003922, 0.1671297401189804, 0.05973392724990845, 0.08910173922777176, -0.09492233395576477, -0.059309862554073334, 0.08746302872896194, 0.002736323745921254, -0.0006788149476051331, -0.03242044523358345, 0.09555860608816147, 0.039205342531204224, -0.1844254583120346, -0.0606657899916172, -0.03887523338198662, 0.06233612447977066, -0.05803763493895531, 0.22008980810642242, -0.016167575493454933, 0.07016918063163757, 0.056895025074481964, -0.02526058256626129, -0.06708323955535889, 0.06747355312108994, -0.052846502512693405, 0.016926808282732964, 0.07863547652959824, 0.002494409680366516, 0.02395740896463394, -0.049234189093112946, -0.14494501054286957, 0.012088743038475513, -0.03041224367916584, 0.15273360908031464, 0.09191110730171204, 0.0834587886929512, 0.1139315813779831, -0.07354016602039337, 0.17895568907260895, 0.07734297960996628, -0.061276715248823166, 0.0403527170419693, -0.041590478271245956, -0.01858511194586754, 0.0464470274746418, 0.017190009355545044, 0.00626091193407774, 0.1765059530735016, -0.07939097285270691, 0.012581110000610352, 0.031027235090732574, -0.08310510963201523, -0.022590115666389465, -0.06667877733707428, -0.026283415034413338, 0.10348258167505264, 0.09030919522047043, 0.032867513597011566, 0.07925643026828766, 0.09076885133981705, -0.18118628859519958, -0.20403899252414703, 0.04255266860127449, 0.0857616737484932, -0.017906008288264275, -0.024462521076202393, 0.009127102792263031, -0.0898408368229866, 0.05687367171049118, 0.02634540945291519, -0.07432176917791367, 0.040094926953315735, 0.06423710286617279, 0.09817895293235779, -0.06972473859786987, -0.03349851816892624, 0.11134800314903259, 0.0786629244685173, -0.04457739740610123, 0.06193946674466133, -0.03826582431793213, -0.021372919902205467, -0.004924227483570576, 0.17289941012859344, 0.044845469295978546, -0.025397099554538727, 0.20898926258087158, -0.07416349649429321, -0.09630441665649414], [0.09463534504175186, -0.01479137409478426, 0.13416360318660736, -0.06681805104017258, 0.053208526223897934, 0.10058199614286423, 0.14869068562984467, -0.02923300862312317, -0.04660014063119888, 0.05772510543465614, 0.11049040406942368, -0.0665222778916359, 0.047018032521009445, 0.04447498172521591, 0.08750665932893753, 0.04252889007329941, 6.847383338026702e-05, 0.016018405556678772, 0.07686731964349747, 0.061905328184366226, -0.15862594544887543, 0.044376082718372345, 0.08631090819835663, -0.04757504165172577, 0.108497753739357, -0.011944088153541088, -0.01130908727645874, -0.04117181897163391, 0.14178234338760376, 0.06983769685029984, 0.2826237976551056, 0.04262567311525345, 0.09161204844713211, -0.007023513317108154, 0.10979412496089935, 0.03523161634802818, 0.04118611663579941, -0.05702085420489311, -0.0715254694223404, 0.025922376662492752, -0.06986389309167862, 0.0009670217405073345, 0.0016601418610662222, -0.06625279039144516, 0.1042432188987732, -0.08992766588926315, -0.060212280601263046, 0.20058371126651764, -0.020696770399808884, -0.10207057744264603, -0.007437422871589661, -0.02375006303191185, -0.0413181409239769, -0.07473468035459518, -0.05419110506772995, 0.049590881913900375, -0.09190663695335388, -0.16212202608585358, -0.05768432840704918, -0.11589754372835159, 0.035302937030792236, 0.06168767437338829, 0.036253079771995544, -0.0922686979174614, 0.10447362065315247, 0.11927112191915512, 0.08508655428886414, -0.18877698481082916, 0.0009762983536347747, 0.027201706543564796, 0.13289159536361694, -0.11729380488395691, 0.02830042876303196, -0.0156038086861372, 0.06052566319704056, 0.009634052403271198, 0.07274728268384933, 0.05452281981706619, -0.016118552535772324, -0.016188619658350945, -0.07170282304286957, 0.05520970746874809, 0.01208261027932167, -0.09643004089593887, 0.08353132009506226, 0.06444056332111359, 0.08833801746368408, -0.08988860994577408, 0.16671644151210785, 0.02944916859269142, 0.009004567749798298, 0.0730842724442482, -0.07337481528520584, -0.023559847846627235, 0.14123038947582245, 0.06548679620027542, 0.07708118110895157, 0.351716011762619, -0.009213240817189217, 0.08334992080926895], [0.01055025402456522, -0.04645815119147301, -0.034909479320049286, 0.006111367139965296, -0.03396174684166908, -0.105692557990551, -0.08987292647361755, -0.08995980769395828, 0.08777926862239838, -0.015977125614881516, -0.07567925751209259, -0.07268518954515457, -0.09621818363666534, 0.04840988293290138, 0.0032234638929367065, -0.062921904027462, -0.08364414423704147, -0.05898570269346237, -0.0623106025159359, 0.08257844299077988, -0.040776327252388, 0.0071310847997665405, 0.08692635595798492, 0.008787838742136955, 0.014319339767098427, -0.004829647485166788, 0.08191864937543869, 0.06392905116081238, 0.08363517373800278, 0.03985883295536041, -0.10618520528078079, -0.053986646234989166, -0.04396304115653038, -0.02929989993572235, 0.07089415192604065, -0.09354259818792343, -0.05783231183886528, 0.008839704096317291, -0.03270070254802704, 0.01690770499408245, 0.09340833872556686, -0.007230816408991814, 0.028556667268276215, -0.05742323398590088, -0.05200507119297981, 0.012727699242532253, -0.017422258853912354, -0.02872808277606964, 0.052876971662044525, -0.13329452276229858, 0.03412986546754837, 0.09198397397994995, 0.05562245100736618, -0.02859424240887165, 0.011262495070695877, 0.010305458679795265, -0.04970933496952057, -0.01192568987607956, -0.05843542888760567, 0.02167975902557373, 0.01353084109723568, -0.0038555082865059376, 0.08835984021425247, -0.07157349586486816, -0.08980752527713776, -0.10088557749986649, 0.0052449703216552734, -0.10568132996559143, 0.007701809983700514, 0.07700396329164505, -0.008504659868776798, 0.0222593005746603, 0.06776650249958038, -0.06609577685594559, 0.02826181799173355, 0.08816564828157425, 0.07588530331850052, -0.027733981609344482, 0.014138055965304375, -0.08318352699279785, 0.06378497928380966, -0.014475717209279537, -0.005736478138715029, -0.0800296738743782, 0.07606461644172668, 0.03754996880888939, 0.08535271883010864, 0.002292867051437497, 0.02465866319835186, -0.053874630481004715, 0.007755178026854992, 0.0762791857123375, -0.0307058896869421, -0.007552026771008968, -0.00795846339315176, -0.03753333166241646, -0.021771825850009918, -0.020398486405611038, 0.020709944888949394, 0.01404527761042118], [0.05953362211585045, -0.024922657757997513, -0.07136773318052292, -0.019202107563614845, 0.030731698498129845, 0.04576365277171135, -0.031804196536540985, 0.002802323317155242, -0.02111669071018696, 0.0738668143749237, 0.04832000285387039, -0.03256738930940628, -0.048084791749715805, 0.0923963263630867, 0.06846306473016739, -0.04129939153790474, 0.08739201724529266, -0.01704297959804535, -0.03605329245328903, -0.0029929056763648987, -0.11029328405857086, 0.04061678797006607, 0.029346726834774017, -0.04593845456838608, -0.01510968990623951, 0.0012286081910133362, -0.09453679621219635, -0.06278420984745026, -0.07442336529493332, -0.043954696506261826, 0.07127107679843903, -0.09107102453708649, -0.046783771365880966, 0.07073182612657547, -0.016567638143897057, 0.07865158468484879, -0.01587618887424469, 0.0901825949549675, -0.08403555303812027, 0.09598245471715927, -0.009178794920444489, 0.049030691385269165, -0.026568736881017685, 0.01907677762210369, 0.07096204906702042, 0.02461221069097519, -0.05199326202273369, -0.04509364068508148, -0.030966438353061676, 0.01632307469844818, 0.08957494050264359, 0.0973740890622139, -0.10664229840040207, 0.07604561001062393, 0.07549021393060684, -0.09882012009620667, 0.09238187223672867, 0.011357849463820457, -0.04747011885046959, -0.09313776344060898, 0.03334648162126541, -0.02817312628030777, 0.036190323531627655, -0.022728942334651947, -0.04364263266324997, 0.025087321177124977, -0.07437507063150406, 0.0742635726928711, -0.0494346097111702, 0.016982821747660637, -0.01292441040277481, -0.011742206290364265, -0.011905968189239502, -0.053675487637519836, 0.09705156832933426, -0.0024568375665694475, -0.0993759036064148, 0.003564797341823578, -0.07606331259012222, -0.04537271335721016, 0.07870259135961533, 0.03459253907203674, -0.07118401676416397, 0.030742870643734932, -0.0856471136212349, 0.043886132538318634, 0.0408497080206871, -0.0030421188566833735, 0.01110684685409069, 0.0011007562279701233, 0.023546146228909492, 0.08740592747926712, -0.02691624127328396, 0.04923183098435402, -0.08737138658761978, 0.04259055107831955, 0.017501868307590485, 0.06113847345113754, -0.04010181501507759, 0.044319506734609604], [-0.029917774721980095, 0.11534442007541656, -0.7032169699668884, -0.06662619858980179, -0.0009217339684255421, -0.05573355033993721, -0.10472393035888672, -0.051555369049310684, -0.018478896468877792, 0.08642639964818954, 0.0406896136701107, 0.23286643624305725, 0.24376267194747925, 0.10517291724681854, -0.0026087164878845215, 0.11288671940565109, 0.10521776974201202, 0.018687495961785316, 0.0052353255450725555, 0.09101304411888123, -0.03199254721403122, 0.08809568732976913, -0.05207667499780655, 0.12974587082862854, 0.011296920478343964, -0.0015817953972145915, 0.01902230829000473, 0.1119210496544838, 0.16388630867004395, -0.06784878671169281, -0.08975216001272202, 0.027462519705295563, -0.012400195002555847, 0.014418229460716248, 0.044806670397520065, 0.011530180461704731, 0.01818937622010708, -0.09341629594564438, 0.030526308342814445, 0.060550760477781296, -0.050894834101200104, -0.08685903251171112, 0.07181519269943237, 0.09495119750499725, 0.07458694279193878, -0.023249594494700432, -0.040372658520936966, 0.020461808890104294, 0.07154663652181625, 0.07709953933954239, -0.023841097950935364, 0.056464556604623795, 9.302112448494881e-05, 0.05421612784266472, 0.2616470456123352, 0.012988846749067307, 0.08169198781251907, -0.16670089960098267, 0.17437361180782318, -0.0033933469094336033, -0.00150110328104347, -0.022568970918655396, 0.02802242897450924, -0.03211034834384918, -0.30806276202201843, -0.06898882985115051, -0.05961150303483009, 0.10283751040697098, 0.03081333078444004, 0.05287709832191467, 0.07270543277263641, 0.13749992847442627, 0.015318607911467552, -0.06601099669933319, -0.013119935989379883, -0.1882285326719284, -0.08808628469705582, -0.005233451724052429, 0.03631226718425751, 0.05624888464808464, 0.007448352873325348, -0.10897748172283173, -0.01569543592631817, 0.23199807107448578, 0.0037440031301230192, -0.09969113767147064, 0.006318478379398584, -0.03149951994419098, -0.021450258791446686, -0.08573147654533386, -0.03418828919529915, 0.076873280107975, 0.03358505666255951, -0.07056061923503876, 0.14369967579841614, 0.08523257821798325, -0.030196532607078552, -0.045530181378126144, -0.013095395639538765, -0.017253058031201363], [-0.08771374076604843, -0.015585680492222309, -0.09304095804691315, -0.0054877870716154575, -0.06681942939758301, 0.03239002451300621, -0.11084063351154327, -0.017005030065774918, 0.059033073484897614, 0.05839274451136589, 0.05692953243851662, 0.10348136723041534, 0.0024373847991228104, -0.08635987341403961, -0.018153250217437744, -0.12329080700874329, 0.044596441090106964, 0.07569914311170578, 0.08577974140644073, -0.05801481008529663, -0.09433986991643906, -0.035209521651268005, 0.01857415772974491, -0.11257316172122955, -0.07424742728471756, -0.07859808206558228, -0.05760251358151436, -0.0922711193561554, 0.01635122299194336, -0.0013548473361879587, 0.05742326378822327, -0.07927866280078888, 0.057891108095645905, -0.09027159214019775, -0.08040984719991684, -0.007375556044280529, 0.04488928243517876, 0.027721397578716278, 0.01245812140405178, -0.009258340112864971, 0.06114689260721207, -0.095661960542202, -0.07294498383998871, -0.09985629469156265, -0.08034422993659973, 0.019060911610722542, 0.03631960600614548, 0.03998299315571785, -0.04015607014298439, 0.04738413915038109, 0.026620395481586456, -0.06357742100954056, -0.07599883526563644, -0.05529245734214783, 0.06284898519515991, -0.019610919058322906, -0.07735072821378708, 0.02707921713590622, -0.08792846649885178, -0.03502112999558449, 0.06883049756288528, 0.08554393798112869, -0.10528972744941711, -0.08105824887752533, 0.020807305350899696, -0.07204373925924301, -0.05529873073101044, 0.03472250699996948, 0.06829178333282471, 0.04180559888482094, 0.06060684472322464, -0.11370344460010529, -0.03255409374833107, -0.06742138415575027, 0.08724787086248398, 0.021240711212158203, -0.007115960121154785, -0.010595060884952545, 0.046733710914850235, 0.0524776466190815, -0.08448610454797745, -0.06853292137384415, -0.06842932105064392, -0.03619226813316345, -0.03796551376581192, 0.08272848278284073, -0.08289021253585815, -0.017503954470157623, -0.037624623626470566, 0.02356315776705742, 0.012344266287982464, -0.03892797231674194, 0.01530279777944088, 0.027585042640566826, -0.05844444781541824, -0.07921196520328522, -0.04667321592569351, 0.05684513971209526, 0.06479597836732864, -0.020395953208208084], [0.06577436625957489, 0.0030944738537073135, 0.05844249576330185, 0.059841979295015335, 0.05590907111763954, -0.03365933150053024, -0.09938524663448334, 0.04683534801006317, -0.009968318045139313, 0.06127268448472023, -0.1088925376534462, -0.09705488383769989, -0.016243018209934235, 0.05466436594724655, -0.05957435443997383, -0.017632758244872093, 0.07708001881837845, -0.04536032676696777, -0.07032142579555511, -0.09830790758132935, 0.010151916183531284, -0.027320899069309235, -0.0054330844432115555, -0.09811852872371674, -0.040210481733083725, -0.019444594159722328, 0.004945814609527588, -0.10160935670137405, -0.10175628215074539, 0.047819506376981735, 0.020538056269288063, -0.018368080258369446, 0.07530292123556137, -0.035094715654850006, -0.10045387595891953, -0.11163673549890518, -0.08284416794776917, -0.07543458789587021, 0.026128683239221573, 0.06658514589071274, -0.08845148235559464, -0.04059485346078873, -0.06707826256752014, 0.06642459332942963, -0.0028481585904955864, 0.06663302332162857, -0.04242990165948868, 0.04184049367904663, 0.06398091465234756, -0.06252457201480865, -0.07881687581539154, 0.047699399292469025, 0.0008431635214947164, -0.04420926794409752, -0.027954695746302605, 0.03159536048769951, 0.021397709846496582, 0.03544282540678978, -0.09706640243530273, -0.10726720839738846, 0.022973403334617615, -0.0935496836900711, -0.014900194481015205, -0.05512505769729614, 0.004164522048085928, -0.04781842231750488, 0.03558342531323433, -0.02232474274933338, -0.029080674052238464, 0.015180500224232674, -0.008357686921954155, -0.014879725873470306, 0.0185332540422678, 0.08514795452356339, -0.046644389629364014, 0.00461213244125247, 0.032090894877910614, 0.0363902673125267, 0.019570201635360718, -0.06228451430797577, 0.05194740742444992, 0.05709850788116455, -0.044301826506853104, -0.0296908188611269, -0.027897963300347328, -0.0940442681312561, -0.04326523840427399, 0.029537439346313477, -0.009698989801108837, 0.0854124203324318, -0.09626151621341705, -0.05128774791955948, 0.06578417867422104, -0.04076181352138519, -0.06445378810167313, 0.0965844914317131, -0.09296486526727676, -0.029713738709688187, -0.039145346730947495, -0.060433339327573776], [-0.0747193843126297, -0.005219676531851292, -0.0005305064842104912, 0.09142357856035233, -0.10387971997261047, -0.08861423283815384, -0.07892691344022751, -0.018057823181152344, 0.031589265912771225, -0.034476835280656815, -0.0008027491276152432, -0.09709445387125015, 0.03734627738595009, 0.05260960012674332, -0.020309731364250183, 0.008105386048555374, -0.021932683885097504, 0.02469446510076523, -0.0806560069322586, 0.08832422643899918, -0.09326863288879395, -0.05424384027719498, 0.022866085171699524, -0.06236931309103966, 0.07204589247703552, -0.06828425079584122, 0.09230177849531174, -0.04871267452836037, -0.0872066468000412, -0.04915416240692139, -0.09344222396612167, 0.08107549697160721, -0.061794307082891464, -0.007713578641414642, 0.0016180456150323153, -0.014344420284032822, 0.03988083451986313, 0.0699017122387886, -0.0840960294008255, -0.029624126851558685, -0.062495388090610504, -0.06456293910741806, 0.0017589181661605835, 0.010259953327476978, -0.035935577005147934, -0.09013351052999496, -0.006752833724021912, 0.008050751872360706, -0.05682706832885742, 0.021724417805671692, 0.06302347034215927, -0.02954200655221939, -0.06869113445281982, -0.09942847490310669, -0.07343568652868271, 0.044089123606681824, 0.06842949241399765, 0.048491865396499634, -0.07345570623874664, -0.04837457835674286, -0.06602482497692108, -0.07987266778945923, 0.08604265004396439, -0.040654506534338, -0.07301203161478043, 0.05258743837475777, -0.057611871510744095, -0.03283894807100296, -0.06016651540994644, 0.021795310080051422, 0.028535597026348114, 0.04031497985124588, 0.015181696973741055, 0.04971163719892502, -0.039250995963811874, 0.04506025090813637, 0.0027367621660232544, 0.020267747342586517, 0.06930200010538101, 0.0435064360499382, -0.002255186438560486, -0.05851560831069946, 0.0032420307397842407, -0.09969553351402283, -0.0910232812166214, -0.07199325412511826, -0.04333465173840523, 0.07771594822406769, 0.013599967584013939, 0.04622728377580643, -0.0772194117307663, -0.010718896985054016, -0.011104785837233067, -0.09234021604061127, -0.022996559739112854, -0.043572116643190384, -0.031173601746559143, 0.046746499836444855, -0.04394378885626793, 0.03413594514131546], [-0.06620991230010986, 0.05167131870985031, 0.32133588194847107, -0.05380045250058174, -0.028208915144205093, -0.10352650284767151, -0.014523052610456944, -0.030997104942798615, 0.04353431612253189, 0.0523427352309227, -0.10211270302534103, 0.15318399667739868, -0.0057767764665186405, -0.07395987957715988, 0.09036020189523697, 0.1280810534954071, -0.009624158032238483, -0.08740366995334625, -0.016795804724097252, 0.08141355961561203, 0.08201958984136581, 0.07447054237127304, 0.03589990735054016, 0.10837491601705551, 0.016526630148291588, -0.06855528801679611, 0.027425043284893036, 0.20940549671649933, 0.05687481164932251, 0.07628818601369858, 0.2177889049053192, -0.06267855316400528, 0.01199120283126831, -0.023638270795345306, 0.1261344701051712, -0.08302201330661774, 0.08793798834085464, 0.0824236199259758, -0.05153830349445343, -0.046058863401412964, -0.09115194529294968, 0.0020430609583854675, 0.11011512577533722, -0.03705838695168495, -0.004044245928525925, 0.002341911196708679, -0.04620231315493584, 0.02191382460296154, -0.06844388693571091, -0.026463503018021584, 0.05625929683446884, -0.07927261292934418, 0.0486796535551548, -0.08180437982082367, 0.22999662160873413, 0.02978108823299408, -0.03469216451048851, 0.2168406993150711, -0.11045179516077042, -0.018206123262643814, 0.08108292520046234, -0.0633964091539383, 0.07591257989406586, -0.0991707369685173, 0.01562180370092392, -0.029459120705723763, -0.08183697611093521, 0.1886192113161087, -0.011214256286621094, -0.07280607521533966, 0.0367223396897316, 0.0710051879286766, -0.031201284378767014, 0.04835234954953194, -0.009225606918334961, 0.11322472989559174, 0.007820144295692444, -0.0934407040476799, 0.0035731408279389143, -0.04642019793391228, 0.012167409062385559, -0.02568531408905983, -0.09073428809642792, -0.08109904825687408, -0.02020598202943802, 0.03506164625287056, -0.045122697949409485, 0.0025722263380885124, -0.04797770828008652, 0.01653968170285225, 0.12124092131853104, 0.026670746505260468, -0.005155772436410189, 0.06809231638908386, -0.05798785760998726, 0.0026033148169517517, 0.017329320311546326, -0.06529010087251663, -0.0462748222053051, 0.06306793540716171], [0.030054863542318344, -0.03718642145395279, -0.6560088396072388, 0.06928694993257523, 0.11713811010122299, 0.041803475469350815, 0.14359235763549805, 0.06467440724372864, -0.0512908473610878, -0.09416903555393219, 0.07906390726566315, -0.07616740465164185, 0.07366639375686646, 0.015184156596660614, 0.07483857125043869, -0.05037799850106239, 0.051153119653463364, -0.061982039362192154, 0.0671471655368805, -0.06674732267856598, -0.10014932602643967, -0.08286960422992706, 0.03678275644779205, 0.06769201159477234, -0.06322968006134033, -0.016532987356185913, -0.07754423469305038, 0.06821900606155396, 0.03511600196361542, 0.08378136903047562, 0.2135433554649353, 0.016047216951847076, 0.022372469305992126, 0.03244233876466751, 0.13296015560626984, -0.04949947074055672, -0.03348606079816818, 0.0086311474442482, 0.0416901558637619, -0.011074248701334, 0.07207825034856796, 0.07856067270040512, -0.012175275012850761, -0.10457248240709305, -0.08418145775794983, -0.08554337918758392, 0.029989905655384064, -0.09799998998641968, 0.02707899548113346, 0.031794529408216476, 0.01595471054315567, 0.018873941153287888, -0.012123697437345982, 0.0796223133802414, -0.1235516220331192, -0.004498139955103397, 0.07721634209156036, 0.0957682803273201, 0.09317899495363235, 0.07746966928243637, -0.005792263429611921, 0.0026277401484549046, -0.02225722000002861, -0.04098440334200859, -0.00015465402975678444, 0.0219623651355505, 0.02650519832968712, -0.1500907689332962, 0.07067511230707169, 0.08508100360631943, 0.1465238332748413, 0.10509191453456879, 0.2935410439968109, 0.09328191727399826, 0.08637020736932755, -0.03997410833835602, -0.05672544240951538, 0.06804019957780838, -0.08942178636789322, 0.08716386556625366, 0.062445707619190216, -0.006197276525199413, 0.08303356915712357, 0.04270050302147865, -0.03839506581425667, 0.09289459139108658, 0.03249746188521385, 0.07589288055896759, 0.06309986859560013, -0.005866362247616053, -0.04606953635811806, 0.09063338488340378, 0.13509725034236908, -0.1781092882156372, 0.12033456563949585, -0.08013226836919785, 0.06073964387178421, -0.02150627225637436, -0.039392244070768356, 0.03833231329917908], [0.0498700849711895, 0.12179014086723328, -0.2635538876056671, -0.03546517342329025, 0.013952801004052162, -0.05700467899441719, -0.10627999156713486, -0.01061277650296688, -0.04287497326731682, -0.21683001518249512, -0.17510302364826202, 0.059497371315956116, 0.10442323982715607, -0.04350662603974342, -0.0002183094620704651, 0.09389719367027283, -0.09588821232318878, -0.0007885602535679936, 0.08892303705215454, -0.009238694794476032, -0.01497252844274044, 0.038779981434345245, 0.009856975637376308, -0.1297319382429123, 0.05888805538415909, 0.07837080955505371, 0.08512669056653976, -0.033047955483198166, 0.1825084686279297, 0.03774169459939003, 0.005709011573344469, 0.05382750183343887, 0.01252458244562149, -0.0701410323381424, -0.1169448122382164, -0.056697215884923935, -0.08384739607572556, 0.0761454626917839, 0.01262124627828598, -0.031087230890989304, -0.0759342759847641, 0.06351888924837112, -0.07900480180978775, 0.04486054182052612, 0.15736603736877441, 0.08329924196004868, 0.05593296140432358, 0.08554665744304657, 0.026562243700027466, 0.09230346232652664, 0.021474018692970276, -0.04373603314161301, 0.04275154694914818, -0.0401187427341938, -0.06776636838912964, 0.11262564361095428, -0.06787750124931335, 0.20631079375743866, 0.037909820675849915, 0.029525289312005043, 0.021998556330800056, -0.08296887576580048, 0.03683637082576752, -0.09249966591596603, 0.11311222612857819, 0.06356870383024216, 0.015510095283389091, 0.0837327241897583, -0.060532357543706894, -0.004237358924001455, 0.09463520348072052, 0.129423126578331, -0.09438613802194595, 0.07346370816230774, -0.0339040607213974, 0.18861931562423706, -0.08234689384698868, 0.011242888867855072, -0.055384743958711624, 0.048650626093149185, 0.012631677091121674, -0.20043784379959106, -0.04716998711228371, 0.02865510620176792, -0.09149594604969025, 0.03359366953372955, -0.08579043298959732, -0.01517090667039156, 0.20579186081886292, -0.07410569489002228, -0.2873784899711609, -0.013877853751182556, 0.10522492229938507, 0.08174332231283188, -0.21585503220558167, -0.050670552998781204, -0.0041760653257369995, 0.3513578176498413, -0.0002703526697587222, 0.04881663993000984], [-0.024391256272792816, 0.01274128258228302, -0.07289639860391617, 0.01240319013595581, -0.07213817536830902, -0.07042131572961807, 0.07146135717630386, -0.0525047667324543, 0.06194307655096054, 0.01623225212097168, 0.08962953835725784, 0.03847148269414902, 0.0653190091252327, 0.023446395993232727, -0.008716307580471039, -0.005620777606964111, 0.06949789077043533, 0.018839024007320404, 0.06474218517541885, 0.06225290149450302, -0.07696281373500824, -0.02355135977268219, 0.009869709610939026, 0.08663704246282578, -0.09690012782812119, 0.03386273235082626, 0.06299092620611191, -0.01951707899570465, 0.06967347115278244, -0.08065219223499298, 0.03390873223543167, -0.07392144203186035, 0.08261945098638535, -0.0020920783281326294, 0.0140012726187706, 0.0798853412270546, -0.08238128572702408, 0.0993696078658104, 0.078858382999897, 0.018995918333530426, 0.08250904828310013, -0.0407903790473938, 0.010933652520179749, 0.0027189478278160095, -0.016114965081214905, 0.052199773490428925, 0.053328461945056915, -0.034828320145606995, -0.013331636786460876, -0.0021577849984169006, -0.023729220032691956, -0.06787532567977905, -0.0032652169466018677, 0.0027945786714553833, 0.024304673075675964, -0.08856368064880371, 0.08665252476930618, -0.03575829416513443, -0.023924529552459717, -0.07160081714391708, -0.08071830123662949, -0.034528329968452454, -0.09562026709318161, -0.023144923150539398, -0.06303855776786804, -0.07235612720251083, -0.040896475315093994, 0.04571307450532913, 0.08498335629701614, 0.07861451059579849, 0.029586859047412872, -0.09593349695205688, -0.03418012708425522, -0.028536811470985413, 0.061047784984111786, -0.05583900213241577, -0.018905065953731537, 0.05150025337934494, -0.0840168222784996, -0.0024799108505249023, 0.02908288687467575, 0.0029731765389442444, -0.0662102997303009, -0.04177575185894966, 0.08865679055452347, 0.006640926003456116, 0.030530251562595367, 0.0871778354048729, -0.09203994274139404, 0.0470227375626564, 0.020999863743782043, 0.08888094872236252, 0.01501765102148056, 0.010646864771842957, 0.09142465144395828, 0.019624769687652588, 0.056899942457675934, -0.08258263021707535, 0.05109035223722458, 0.09457584470510483], [-0.058530669659376144, 0.016780627891421318, -0.08058454841375351, -0.05080138146877289, 0.0571533739566803, -0.07309927046298981, -0.06113402545452118, 0.03818649798631668, 0.05747472867369652, -0.06513817608356476, 0.0009248934220522642, 0.054690416902303696, 0.05210430547595024, -0.0771850124001503, -0.02117544412612915, -0.09247742593288422, -0.0050371610559523106, 0.058600492775440216, -0.0037047869991511106, 0.030172400176525116, -0.04987156391143799, 0.012426041066646576, 0.04976028576493263, -0.04074275866150856, -0.07430081814527512, -0.026345252990722656, -0.09329161792993546, 0.07730815559625626, -0.023419659584760666, -0.011130474507808685, -0.03948168084025383, 0.03935486823320389, -0.05915436893701553, 0.02104906737804413, -0.06524646282196045, -0.08182110637426376, -0.07221243530511856, -0.07535567134618759, 0.08237870782613754, -0.02936023846268654, 0.05253148823976517, -0.001774882199242711, 0.04945584759116173, 0.015099289827048779, -0.10261019319295883, -0.09100077301263809, -0.012089453637599945, -0.07575368881225586, 0.03944549709558487, -0.014998623169958591, -0.08995228260755539, -0.059797514230012894, -0.04688828065991402, -0.018363717943429947, -0.07474929094314575, 0.04980937018990517, -0.046316660940647125, 0.045040830969810486, -0.04845898970961571, 0.08015170693397522, -0.027502432465553284, -0.0597415454685688, -0.05388094484806061, 0.09793312102556229, 0.06988067924976349, 0.0567767433822155, 0.029272623360157013, -0.07327935844659805, 0.06896606087684631, -0.07616983354091644, -0.056384604424238205, -0.0018734743352979422, -0.11562374234199524, 0.04752611368894577, -0.0585668571293354, 0.043712880462408066, 0.06186271458864212, -0.04758033901453018, 0.05829495191574097, 0.09777197986841202, -0.002868868410587311, -0.0016366834752261639, -0.09838082641363144, -0.06503408402204514, -0.01439953874796629, 0.0038630813360214233, -0.017623042687773705, -0.0850503221154213, 0.04338137432932854, -0.028185345232486725, 0.01094814483076334, -0.03633447736501694, 0.07860147207975388, -0.09713124483823776, -0.008081138134002686, 0.015293434262275696, -0.002378225326538086, 0.0813136100769043, -0.09252180904150009, -0.09494870901107788], [-0.0315462090075016, -0.011932007037103176, -0.05226116254925728, 0.05307123064994812, 0.03191911801695824, -0.06368561834096909, -0.030445747077465057, 0.020740492269396782, -0.0540616549551487, -0.013748168013989925, -0.02196192927658558, -0.09106332063674927, 0.034717220813035965, 0.003527524881064892, -0.0012876391410827637, -0.09234625846147537, 0.05862884595990181, -0.04695896804332733, -0.10064858198165894, 0.09815970808267593, -0.09541748464107513, -0.07281845808029175, 0.059114228934049606, 0.06808603554964066, 0.04058341309428215, -0.018123092129826546, -0.010465919971466064, -0.0829622894525528, -0.03196653351187706, -0.06621330976486206, -0.02274337224662304, -0.0029371529817581177, 0.001058734953403473, 0.004811905324459076, 0.07734054327011108, -0.05267646163702011, -0.04573675990104675, 0.08744754642248154, -0.09821620583534241, 0.07992317527532578, 0.05418118089437485, -0.06937414407730103, -0.07877737283706665, -0.05413484573364258, 0.08979861438274384, 0.029338091611862183, 0.01649961620569229, -0.10023985058069229, 0.053437892347574234, -0.0599311962723732, -0.008532442152500153, -0.04913339763879776, 0.0518813282251358, -0.08088939636945724, 0.008186567574739456, 0.01701688952744007, -0.013935999944806099, -0.08966521173715591, 0.08237825334072113, 0.04586377367377281, 0.06707032769918442, -0.029987752437591553, 0.02137371525168419, 0.08730798214673996, 0.03546282649040222, -0.07155878096818924, 0.017227916046977043, -0.09828218072652817, -0.06483995169401169, -0.04696032777428627, 0.008768267929553986, -0.05694932863116264, -0.009442023001611233, 0.026173708960413933, -0.06709110736846924, -0.01611488312482834, -0.059181202203035355, -0.08595108240842819, -0.04438982158899307, 0.05544807016849518, -0.06507960706949234, -0.07727726548910141, -0.0398530550301075, 0.013640148565173149, -0.002602788619697094, -0.031133566051721573, 0.08272726088762283, -0.02330080419778824, -0.08795223385095596, -0.04594069719314575, 0.04306214302778244, 0.08948304504156113, -0.015302984043955803, 0.0457167848944664, 0.07059673219919205, 0.0679900124669075, 0.006523251533508301, 0.08565941452980042, -0.05958520248532295, -0.0697198361158371], [-0.09716236591339111, -0.03733889386057854, -0.28027617931365967, 0.037472616881132126, 0.0652673989534378, 0.019419729709625244, -0.012716023251414299, -0.0804762989282608, 0.02904720976948738, 0.09317129105329514, -0.047414712607860565, -0.1437891721725464, 0.11936848610639572, -0.044887565076351166, 0.04684530943632126, 0.0903877541422844, -0.028976107016205788, -0.10418717563152313, -0.009158135391771793, 0.04883617162704468, -0.3500531017780304, 0.05075431615114212, 0.05132909491658211, -0.009392092935740948, 0.15850132703781128, -0.08832108974456787, -0.05269990116357803, -0.21517512202262878, 0.06387608498334885, 0.004919376224279404, -0.0007614704081788659, -0.010545328259468079, -0.0030446499586105347, -0.05198679119348526, 0.06854455173015594, -0.13670432567596436, 0.05222143232822418, 0.034992851316928864, -0.08613698929548264, -0.09228405356407166, 0.03249054402112961, 0.13204927742481232, 0.019882120192050934, 0.2834222614765167, -0.06374184042215347, -0.006313696503639221, -0.014320231974124908, 0.1631021648645401, -0.02120116353034973, 0.18285433948040009, -0.01996763050556183, -0.016994629055261612, 0.09936399012804031, 0.06413459777832031, 0.048611562699079514, -0.03150632977485657, 0.03775998577475548, 0.015013987198472023, 0.12696591019630432, -0.007966783829033375, -0.04947160184383392, -0.06616942584514618, 0.07527893036603928, 0.06505347043275833, 0.11607547104358673, -0.02313373051583767, 0.09359854459762573, -0.06255706399679184, 0.017025496810674667, 0.0564318485558033, 0.013161344453692436, 0.09293022006750107, 0.11123377084732056, -0.03247356787323952, -0.06700904667377472, 0.13154923915863037, 0.09564404934644699, 0.00048160552978515625, 0.03849199786782265, -0.04560457170009613, -0.0848909392952919, 0.0871928483247757, 0.021726587787270546, 0.1526496708393097, -0.01438620314002037, 0.03133920207619667, -0.017208119854331017, 0.05801498517394066, -0.013401738367974758, 0.08898577094078064, 0.18630534410476685, -0.09070294350385666, -0.05751984193921089, -0.07202426344156265, 