{"decoder.2.bias": [0.01022352371364832, -0.10412466526031494, -0.18753524124622345, -0.0668082907795906, -0.00975960772484541, 0.13570758700370789, -0.030488528311252594, 0.1838543713092804, 0.04912438616156578, -0.027019325643777847, -0.05051379278302193, 0.004556168802082539, 0.09562176465988159, -0.05555805563926697, -0.18231692910194397, 0.0473848432302475, -0.070670947432518, -0.16360382735729218, -0.1212085410952568, -0.10612991452217102, 0.10226258635520935, 0.005731395445764065, -0.014704057015478611, 0.1826833188533783, -0.13623440265655518, 0.042161114513874054, 0.12620054185390472, 0.12172584235668182, 0.16708597540855408, 0.03824895620346069, -0.14808599650859833, -0.17332977056503296, -0.009952336549758911, 0.021525703370571136, -0.09978961199522018, -0.005948349367827177, 0.1733962893486023, -0.20745863020420074, -0.10746403783559799, 0.2968248426914215, 0.025953587144613266, 0.03358428552746773, -0.08570390194654465, -0.10864508897066116, -0.07956807315349579, -0.0958455502986908, -0.00044800981413573027, 0.017178446054458618, -0.14254377782344818, -0.02548142895102501, -0.11247403919696808, 0.16236208379268646, -0.08911096304655075, 0.12305217236280441, -0.06430047750473022, -0.15166431665420532, 0.047249313443899155, -0.06989841163158417, -0.07807488739490509, 0.11528796702623367, -0.021839726716279984, 0.061238404363393784, -0.07911518961191177, 0.16531693935394287, -0.0621810257434845, 0.009300628677010536, 0.2077656239271164, -0.07662276923656464, -0.0841657817363739, -0.13305449485778809, 0.1392156183719635, 0.004323939327150583, 0.2138836532831192, -0.022040177136659622, 0.0908440425992012, -0.21368327736854553, -0.10800929367542267, -0.13725216686725616, 0.06875479221343994, 0.046266887336969376, -0.15832780301570892, -0.24974657595157623, -0.02790781855583191, -0.08077511936426163, -0.09934750199317932, 0.0576816126704216, -0.15607662498950958, -0.09070494025945663, 0.011254957877099514, -0.11496063321828842, -0.02343294769525528, -0.05931452661752701, 0.1374679058790207, -0.16486792266368866, 0.1014971137046814, -0.09162796288728714, -0.07160555571317673, -0.04607926681637764, -0.049482524394989014, -0.14677895605564117], "encoder.0.weight": [[0.033972933888435364, -0.04876314103603363, 0.008935867808759212, 0.08315307646989822, -0.0771651417016983, -0.07981468737125397, 0.06402256339788437, -0.056399814784526825, -0.04603548347949982, -0.08157924562692642, 0.0014563382137566805, 0.045990969985723495, -0.0407935306429863, 0.046384237706661224, 0.020458484068512917, -0.06632079929113388, 0.013594554737210274, -0.02033242955803871, 0.05923103913664818, -0.08605466783046722, -0.0874621644616127, 0.07574691623449326, -0.042827047407627106, -0.029768671840429306, -0.07406765222549438, -0.08228699862957001, 0.053418319672346115, 0.008946557529270649, -0.027648454532027245, -0.06455597281455994, -0.08553693443536758, -0.026619425043463707, 0.008517719805240631, -0.08413156867027283, -0.04382888600230217, -0.06525634229183197, 0.04179208353161812, -0.04674100503325462, -0.04798475652933121, -0.040357671678066254, -0.04789012670516968, 0.034304939210414886, -0.08908084034919739, -0.08448204398155212, -0.09631000459194183, -0.06502839922904968, -0.06661635637283325, 0.07314977794885635, 0.04227261617779732, 0.020871873944997787, -0.044963687658309937, -0.04874220862984657, -0.04271605610847473, 0.011334840208292007, 0.002175816334784031, 0.06998208165168762, -0.015789778903126717, 0.016905557364225388, 0.03349323943257332, -0.04564424231648445, 0.006734328344464302, 0.04862356558442116, 0.00044477652409113944, -0.026724504306912422, 0.028995202854275703, -0.02760922536253929, 0.027415437623858452, 0.013377362862229347, 0.00176275335252285, 0.017805855721235275, -0.07343007624149323, -0.004259068053215742, 0.07752840965986252, 0.014150000177323818, 0.04169684648513794, 0.046693261712789536, -0.012569357641041279, 0.0010150822345167398, -0.0993664413690567, -0.08788526058197021, -0.024435434490442276, 0.034144263714551926, 0.010373939760029316, 0.06181202456355095, -0.0007282344740815461, 0.05106537416577339, -0.0880543440580368, -0.04327106848359108, 0.04825465753674507, -0.07639950513839722, -0.023886850103735924, -0.06390675157308578, 0.03311716020107269, 0.06391766667366028, 0.04494534060359001, 0.028510600328445435, 0.011333789676427841, -0.049069177359342575, -0.07880773395299911, -0.03909064084291458, -0.09671914577484131, 0.01496832724660635, 0.056193772703409195, 0.08225094527006149, 0.07522881031036377, 0.07005050778388977, 0.005627655889838934, -0.02221238799393177, 0.03778454288840294, -0.028017526492476463, 0.04131466522812843, -0.053709350526332855, 0.030828634276986122, -0.00036344159161671996, 0.026756828650832176, 0.029440775513648987, 0.002072978997603059, -0.005598008632659912, -0.0009774361969903111, 0.0154610900208354, 0.0198634322732687, -0.0036154398694634438, 0.012115448713302612, -0.013885077089071274, 0.06185563653707504, -0.027334706857800484, -0.056069277226924896, 0.035810548812150955], [-0.019795572385191917, 0.025722108781337738, 0.04950118809938431, 0.06775498390197754, 0.009241456165909767, -0.04874013736844063, 0.018184807151556015, 0.06134749576449394, 0.009163704700767994, 0.03495927155017853, 0.05963665619492531, -0.02160787582397461, 0.033247847110033035, -0.07874798029661179, 0.04222472757101059, -0.018390148878097534, 0.004545874893665314, 0.02420974336564541, -0.01618657447397709, 0.074003204703331, 0.0465175099670887, -0.06259091943502426, 0.04712528735399246, 0.02242407016456127, 0.07669754326343536, -0.025015337392687798, -0.09586013853549957, -0.025972997769713402, 0.0328146256506443, 0.062030501663684845, -0.0888567790389061, -0.08905823528766632, -0.008259633556008339, 0.053147364407777786, 0.04182729125022888, -0.006066393107175827, -0.07397539913654327, -0.09645786136388779, -0.011316214688122272, -0.085702084004879, -0.004693401977419853, -0.049396634101867676, 0.03907400742173195, -0.03402990102767944, 0.0025983804371207952, 0.00626981258392334, 0.0006673727766610682, -0.054767362773418427, 0.025737199932336807, -0.0019102575024589896, -0.037094175815582275, -0.051678966730833054, -0.05599473789334297, -0.08404524624347687, -0.011426535435020924, -0.034093569964170456, -0.08557646721601486, 0.041139718145132065, 0.03695293143391609, 0.07568763941526413, -0.08874502778053284, -0.057388585060834885, 0.039723996073007584, 0.05988476052880287, -0.004202180076390505, -0.036187272518873215, -0.027836043387651443, 0.0542665496468544, -0.007369633764028549, -0.07638930529356003, 0.005229981150478125, 0.02862863801419735, -0.023990672081708908, 0.030435290187597275, -0.054264314472675323, -0.002218010136857629, 0.0449497364461422, -0.026874184608459473, -0.023140884935855865, 0.033937305212020874, -0.014480022713541985, -0.0871448963880539, -0.0835576131939888, 0.06510540097951889, 0.04913836717605591, 0.00396078173071146, -0.06884642690420151, -0.08276528865098953, -0.026236966252326965, 0.02916906215250492, 0.06667008996009827, -0.0545932836830616, 0.07469236105680466, -0.09642304480075836, 0.028556033968925476, 0.03221011161804199, 0.03656376525759697, -0.09286455810070038, -0.015121513977646828, 0.02097296342253685, 0.07792958617210388, -0.0454167015850544, 0.04011409357190132, 0.06995078176259995, -0.013365126214921474, 0.07668005675077438, 0.05124416947364807, -0.025713028386235237, -0.06503317505121231, 0.00516017759218812, -0.06160619482398033, 0.05414951592683792, -0.012315872125327587, -0.0550110824406147, -0.08065249770879745, 0.005757602863013744, 0.02337416261434555, -0.08414499461650848, -0.022378522902727127, 0.0681941956281662, -0.07043168693780899, 0.037261348217725754, -0.008055910468101501, -0.028790460899472237, -9.801515261642635e-05, 0.020260943099856377, 0.018139654770493507, -0.05971188470721245], [-0.05472293123602867, -0.07832496613264084, -0.02607274428009987, 0.011614404618740082, -0.0415118932723999, -0.07293913513422012, 0.06405805796384811, -0.059362657368183136, -0.00938018411397934, -0.008437491953372955, -0.018536396324634552, -0.04432028532028198, 0.0705275759100914, 0.036606885492801666, -0.02550777792930603, -0.048028744757175446, -0.02631285786628723, 0.01724390685558319, 0.0008432120084762573, -0.003102041780948639, 0.046275295317173004, -0.02660529315471649, -0.0409003347158432, 0.03983994573354721, 0.058104194700717926, -0.044644299894571304, 0.04313831776380539, 0.02913474291563034, -0.04200531914830208, -0.0869099497795105, -0.04825538024306297, -0.025788821280002594, 0.046226151287555695, 0.0474739596247673, -0.06756646931171417, -0.04046065732836723, 0.03364746272563934, 0.08320122212171555, -0.004148229956626892, 0.08712736517190933, 0.05048485845327377, 0.03511647880077362, 0.05763658136129379, -0.021921411156654358, 0.025783084332942963, 0.01181185245513916, -0.060531798750162125, -0.08813590556383133, 0.016477666795253754, 0.06326539069414139, 0.04606541246175766, -0.012397117912769318, -0.05793542414903641, -0.033513497561216354, -0.021328821778297424, 0.0025711581110954285, 0.07112597674131393, 0.0726948007941246, 0.06832375377416611, 0.03639157861471176, -0.07760406285524368, 0.0656210407614708, 0.024299561977386475, -0.0011913254857063293, -0.045314110815525055, -0.018343359231948853, -0.014708049595355988, -0.04374128580093384, -0.05602569878101349, 0.03447593003511429, -0.037317726761102676, 0.02593320608139038, 0.007070168852806091, -0.07416145503520966, -0.065439872443676, 0.048283107578754425, 0.06080462783575058, -0.018299467861652374, 0.0849296972155571, -0.019944429397583008, -0.03538588061928749, -0.07147416472434998, 0.030286744236946106, 0.0055268630385398865, -0.06862538307905197, -0.05362686887383461, 0.030604153871536255, 0.017138466238975525, 0.05352773517370224, 0.05016697198152542, -0.0761805847287178, 0.06599772721529007, 0.04330214112997055, -0.029646135866642, -0.028994828462600708, 0.07549230009317398, -0.004142940044403076, -0.028846293687820435, 0.0071243345737457275, -0.02504834532737732, 0.0018367692828178406, -0.056773047894239426, -0.06820695102214813, 0.08025936037302017, 0.06811537593603134, -0.0032263919711112976, -0.07764148712158203, -0.0475609265267849, 0.006373360753059387, -0.057018499821424484, -0.03545960783958435, -0.02510293573141098, 0.08685458451509476, 0.03058050572872162, -0.030226822942495346, 0.019846484065055847, -0.012158460915088654, 0.04441336542367935, -0.08422989398241043, 0.06385187059640884, -0.040823690593242645, 0.00530117005109787, -0.07604802399873734, -0.024373434484004974, -0.07827235758304596, -0.07411513477563858, 0.03052719682455063, -0.05376249924302101], [0.044934287667274475, -0.008085704408586025, 0.06232833117246628, -0.04937402531504631, 0.014870003797113895, -0.08171951770782471, 0.012679768726229668, 0.014873482286930084, 0.03627369552850723, 0.039521217346191406, -0.020952599123120308, 0.09051721543073654, 0.06049390137195587, -0.02629547193646431, 0.12812010943889618, 0.04906006529927254, 0.06328217685222626, -0.12667900323867798, -0.007371900603175163, -0.1652991771697998, -0.10046595335006714, -0.02507879212498665, -0.045287154614925385, -0.09008032828569412, 0.014433073811233044, -0.12267754226922989, 0.004061352927237749, 0.0994105413556099, 0.19420243799686432, 0.2510925233364105, -0.021880367770791054, -0.1610647737979889, -0.04295814037322998, 0.022934382781386375, -0.031434446573257446, -0.13435056805610657, -0.029828157275915146, 0.08599952608346939, 0.07082107663154602, -0.024649063125252724, 0.15764199197292328, 0.06057014688849449, -0.003570831147953868, -0.19752880930900574, 0.06490498036146164, -0.02400309219956398, -0.08421385288238525, 0.019986215978860855, 0.014606242068111897, 0.13077831268310547, 0.04831533879041672, -0.09409919381141663, -0.12614358961582184, -0.021650590002536774, -0.09455670416355133, -0.020663436502218246, -0.032541949301958084, -0.028341758996248245, 0.15969747304916382, -0.03643754869699478, -0.13537313044071198, 0.050937145948410034, -0.036574169993400574, 0.197299987077713, -0.20946019887924194, -0.02436227723956108, 0.016915002837777138, 0.04544227942824364, -0.043371763080358505, -0.1033671572804451, -0.23651611804962158, -0.13942454755306244, 0.10733750462532043, -0.043221767991781235, 0.03843053802847862, 0.06095147132873535, 0.06464643776416779, 0.2711194157600403, -0.0028192801401019096, -0.09762804955244064, 0.04599461331963539, -0.016749953851103783, 0.059506870806217194, -0.07130308449268341, 0.13493773341178894, 0.005356290843337774, 0.0048004454001784325, 0.016769835725426674, -0.036541398614645004, 0.04761838540434837, -0.06511344760656357, 0.05539897084236145, -0.019742095842957497, 0.005493783392012119, -0.040020957589149475, -0.043003298342227936, -0.12314194440841675, 0.11991696059703827, 0.026998037472367287, -0.1215471625328064, -0.09035978466272354, 0.03978729993104935, 0.16038626432418823, 0.14127777516841888, -0.22629092633724213, 0.11306566745042801, 0.14180324971675873, 0.006085092201828957, 0.02224157191812992, 0.13856463134288788, -0.08350800722837448, 0.21092413365840912, -0.0224023275077343, 0.0716855525970459, 0.007695007603615522, 0.06376811861991882, -0.0020377966575324535, 0.051342956721782684, 0.04219687357544899, 0.0741431936621666, -0.05940663814544678, -0.058133531361818314, -0.14814960956573486, 0.14903365075588226, 0.11267109215259552, 0.11204441636800766, 0.06510693579912186, -0.09489431977272034], [0.029455706477165222, -0.10555793344974518, 0.1798982173204422, 0.17988787591457367, 0.02180136740207672, 0.057016801089048386, 0.01869462989270687, -0.09959063678979874, -0.025542879477143288, 0.24830202758312225, -0.004244315437972546, 0.0009398549445904791, 0.06946603208780289, -0.04703696072101593, -0.13916383683681488, 0.015956632792949677, 0.1968890130519867, -0.018499640747904778, 0.04563579708337784, 0.1295243203639984, 0.026821047067642212, 0.038207922130823135, 0.18322549760341644, 0.10840073972940445, -0.027821103110909462, -0.142510324716568, 0.014180615544319153, 0.2305019646883011, 0.034101858735084534, -0.08925597369670868, 0.13659481704235077, 0.1875377893447876, -0.0954240933060646, 0.18617728352546692, -0.18645299971103668, 0.028147559612989426, 0.14147183299064636, 0.05423362925648689, -0.02830355614423752, 0.10071344673633575, -0.0957154631614685, -0.08938727527856827, 0.013199122622609138, 0.06660772114992142, -0.012601657770574093, 0.1945328265428543, 0.08028243482112885, -0.07414434850215912, -0.02404634654521942, -0.036480050534009933, 0.17595183849334717, -0.10826332122087479, -0.1963183581829071, -0.17687028646469116, -0.019851742312312126, 0.15779052674770355, 0.046827495098114014, -0.031184088438749313, 0.0235824566334486, -0.10715100169181824, 0.04774986580014229, 0.12918555736541748, -0.0357467420399189, -0.06750430911779404, -0.047047268599271774, 0.09486216306686401, 0.025594443082809448, 0.07346098870038986, -0.1646815687417984, 0.1098296046257019, -0.1716369241476059, 0.07118044048547745, -0.12140537053346634, -0.09978591650724411, 0.07975062727928162, -0.029584765434265137, -0.0892113447189331, -0.010709952563047409, 0.048915110528469086, -0.052397266030311584, -0.028275875374674797, 0.05345243960618973, -0.09426350891590118, 0.17284426093101501, 0.12184717506170273, 0.12690746784210205, -0.07762255519628525, -0.17195245623588562, 0.06166590377688408, -0.09216124564409256, -0.21383948624134064, 0.20439954102039337, -0.05143631622195244, 0.052766840904951096, -0.03281843662261963, 0.04908108711242676, 0.11707445979118347, 0.07837477326393127, -0.09990675002336502, 0.01170783769339323, -0.06331314146518707, -0.0926395133137703, 0.24164989590644836, 0.0735914334654808, -0.05460158735513687, -0.07105927169322968, 0.030142273753881454, 0.004816095344722271, -0.07887589186429977, -0.16091236472129822, 0.09056655317544937, 0.10068999975919724, -0.041330307722091675, 0.019755087792873383, 0.0890473872423172, -0.15696804225444794, -0.021860195323824883, 0.06919260323047638, 0.11387191712856293, -0.10840070992708206, 0.021921519190073013, -0.05180767923593521, 0.01624293439090252, -0.13754916191101074, 0.07263226807117462, 0.005737001076340675, 0.07348360121250153, -0.005092195700854063], [-0.06116757541894913, -0.05866966396570206, 0.027175210416316986, -0.004153743386268616, 0.04306391626596451, 0.002893485128879547, 0.07754246145486832, -0.013225197792053223, 0.03381337970495224, -0.07409416884183884, 0.0665878877043724, -0.007012426853179932, -0.016974307596683502, -0.0014621913433074951, -0.040045373141765594, 0.03508131951093674, -0.0061580464243888855, -0.08198825269937515, 0.0407862588763237, -0.07574808597564697, -0.028371214866638184, 0.0494837686419487, -0.08399740606546402, -0.03706894442439079, -0.08573385328054428, 0.08091378957033157, -0.011751003563404083, -0.038583215326070786, -0.025734104216098785, 0.034894153475761414, 0.06275219470262527, 0.038120023906230927, -0.039066944271326065, -0.01639173924922943, -0.03383950516581535, -0.05010509118437767, -0.07516380399465561, -0.01611819863319397, -0.0027883127331733704, 0.08319976180791855, 0.07943462580442429, -0.08675909787416458, 0.05656210333108902, -0.021775156259536743, 0.042924992740154266, -0.07372784614562988, 0.008351221680641174, 0.02186453342437744, -0.03798476234078407, 0.04455973953008652, -0.06273478269577026, 0.0544644370675087, -0.07123427093029022, -0.04068536311388016, 0.051452748477458954, 0.046635232865810394, 0.05505504459142685, 0.034997180104255676, -0.04951511695981026, 0.07186821848154068, -0.08552905917167664, -0.010842710733413696, -0.0332031175494194, -0.07889033108949661, 0.04356696456670761, 0.04591720551252365, -0.07867135107517242, 0.013694941997528076, -0.053352274000644684, -0.01949380338191986, 0.032001107931137085, -0.026851344853639603, 0.021028734743595123, -0.028632555156946182, 0.04606802016496658, 0.008966624736785889, 0.059796012938022614, 0.02319665253162384, -0.07157483696937561, -0.056227847933769226, 0.08482352644205093, -0.042384736239910126, 0.07733386009931564, 0.07573676854372025, -0.01675538718700409, 0.002505883574485779, 0.03534354269504547, -0.05012759566307068, 0.08538446575403214, 0.06166435033082962, 0.055726416409015656, 0.06374268978834152, -0.04228832572698593, -0.010340623557567596, 0.05902443081140518, 0.026759430766105652, -0.07522376626729965, -0.07491518557071686, -0.05435279756784439, -0.0748361349105835, -0.05818047747015953, -0.013489760458469391, 0.013732068240642548, -0.011339053511619568, -0.03034009411931038, 0.010762222111225128, -0.03514400124549866, -0.0703171044588089, 0.04904889315366745, -0.04936922714114189, 0.07286151498556137, -0.0761856883764267, -0.054399989545345306, -0.0627162754535675, -0.08283723890781403, -0.049532175064086914, 0.08494371920824051, -0.08656969666481018, -0.005537018179893494, -0.0095805823802948, -0.07443656772375107, -0.055543623864650726, 0.03575687110424042, 0.04213915020227432, -0.03234091028571129, 0.05032976716756821, 0.07133661955595016, -0.004507102072238922], [0.04364172741770744, 0.019704852253198624, 0.07204066962003708, -0.0744279995560646, 0.007473883684724569, -0.08593539893627167, -0.005252873059362173, 0.033287134021520615, -0.028840534389019012, -0.039782747626304626, -0.006661590654402971, -0.05376821011304855, -0.07755587995052338, -0.039206307381391525, 0.04955202341079712, 0.026180503889918327, -0.08265876024961472, 0.03013557381927967, -0.06496865302324295, -0.06503264605998993, 0.06850258260965347, -0.035540275275707245, 0.06698334962129593, -0.021759770810604095, -0.08302956074476242, -0.042840585112571716, -0.00794505886733532, -0.010400302708148956, -0.05610087886452675, -0.041995953768491745, -0.003104830626398325, -0.05528212711215019, -0.044909678399562836, 0.07000820338726044, 0.015150646679103374, -0.03978400304913521, 0.05464828386902809, 0.06248088926076889, -0.0515027716755867, 0.040655456483364105, -0.034184738993644714, 0.02892029657959938, 0.06093506142497063, -0.01600559800863266, -0.09228760749101639, -0.034663133323192596, 0.06005994230508804, -0.059745121747255325, -0.052104558795690536, -0.07754631340503693, -0.053697191178798676, -0.06451047211885452, -0.04241859167814255, -0.08244851231575012, 0.05133480206131935, -0.08966021984815598, 0.014970534481108189, -0.02842741087079048, 0.007411814294755459, 0.03909821808338165, -0.07496780157089233, -0.04142235592007637, 0.04289921373128891, -0.04303381219506264, 0.012711661867797375, -0.010670376941561699, 0.02165176160633564, 0.02369517832994461, 0.07332877069711685, 0.07572953402996063, -0.0890558511018753, 0.008132646791636944, -0.03721388429403305, -0.03684378042817116, 0.07158901542425156, -0.06807588040828705, -0.016667582094669342, 0.07455980777740479, -0.042410772293806076, -0.05809229984879494, 0.04863491281867027, 0.013213371858000755, -0.06724719703197479, -0.07507023215293884, 0.01662886142730713, 0.05528216063976288, -0.03232103958725929, 0.06970266997814178, -0.05131538584828377, -0.09353861212730408, 0.05096101015806198, -0.0077978274784982204, -0.05072956904768944, -0.06432938575744629, 0.015296242199838161, -0.06242213398218155, 0.06285111606121063, -0.0923517569899559, 0.07347334921360016, -0.021959271281957626, 0.03293668106198311, -0.06431576609611511, -0.04013751074671745, 0.06512526422739029, 0.05443740263581276, -0.09577707946300507, -0.06733733415603638, 0.046593766659498215, -0.022035473957657814, -0.01606765389442444, -0.003030993277207017, -0.08316253870725632, -0.05521014705300331, -0.09918446838855743, -0.022106319665908813, -0.04932181164622307, -0.05398894101381302, 0.03834041208028793, 0.054838042706251144, -0.09291838109493256, -0.035223547369241714, -0.06437771767377853, 0.06100727990269661, 0.04169496148824692, 0.059811629354953766, -0.06618402153253555, -0.016298772767186165, -0.07397730648517609], [0.04152660071849823, 0.05029389634728432, 0.03245272859930992, 0.0021805178839713335, -0.041900523006916046, -0.09761529415845871, -0.009806526824831963, -0.039032235741615295, -0.09248802810907364, -0.03632030636072159, -0.015728149563074112, -0.04487192630767822, -0.09005586802959442, 0.04393010959029198, 0.037863340228796005, 0.052287451922893524, -0.022865762934088707, -0.094550222158432, -0.032167382538318634, -0.050045426934957504, -0.050980474799871445, -1.2602829883689992e-05, 0.037404876202344894, 0.004842896480113268, -0.06041973829269409, -0.007468855939805508, -0.043533459305763245, 0.020574264228343964, -0.06788112223148346, 0.04437017813324928, 0.025267791002988815, -0.06927292793989182, 0.024532141163945198, -0.10278484225273132, -0.035047393292188644, 0.041435252875089645, 0.029156005010008812, -0.010417422279715538, 0.007374167442321777, -0.052988048642873764, 0.04908532649278641, 0.031357623636722565, 0.009234101511538029, 0.05105147138237953, 0.05965292081236839, -0.07237421721220016, 0.06653884053230286, -0.03694390505552292, -0.06983090937137604, -0.10656680911779404, 0.06209863722324371, -0.046729929745197296, -0.02410709671676159, 0.07077109813690186, 0.010814355686306953, 0.0067877136170864105, 0.020551418885588646, -0.051079921424388885, -0.01404389925301075, 0.025272442027926445, -0.0028837944846600294, -0.05162825062870979, -0.036003228276968, -0.05937777832150459, -0.03577360138297081, -0.06818851828575134, -0.04080745205283165, 0.06506600230932236, 0.05644170567393303, -0.038381800055503845, -0.005879909731447697, -0.04970346763730049, -0.03099573589861393, -0.004208511672914028, 0.005821544677019119, 0.0640624538064003, 0.0031303230207413435, 0.04838516563177109, -0.0850367546081543, -0.07416517287492752, -0.04901968687772751, -0.023890318349003792, -0.010034211911261082, -0.0440962053835392, -0.07679535448551178, 0.06350229680538177, 0.03833794593811035, 0.007880248129367828, -0.10631946474313736, -0.08991257846355438, 0.06337235122919083, -0.019556833431124687, -0.09336524456739426, 0.0353287048637867, -0.08205518871545792, 0.06293174624443054, -0.06682508438825607, -0.04913197085261345, 0.034862227737903595, 0.06265392154455185, -0.016215451061725616, -0.07141827791929245, -0.017895182594656944, -0.006238303612917662, 0.007191595621407032, -0.02011994644999504, -0.01391957513988018, -0.04673655703663826, 0.06527531892061234, -0.04634963348507881, 0.025180695578455925, -0.07563834637403488, -0.018838703632354736, -0.053472887724637985, -0.020916569977998734, -0.02068016678094864, -0.07298800349235535, -0.0831957757472992, 0.025717390701174736, 0.010999671183526516, -0.05213737115263939, -0.010278177447617054, 0.0037100580520927906, -0.10042866319417953, -0.07628634572029114, -0.026149174198508263, -0.10006089508533478, -0.008395057171583176], [0.048225365579128265, -0.0590229332447052, -0.019521566107869148, 0.0030245925299823284, -0.022547263652086258, -0.025525208562612534, 0.018084395676851273, -0.07823481410741806, -0.05669231340289116, 0.009001917205750942, 0.042081672698259354, 0.0025977587793022394, -0.03955395519733429, -0.09399226307868958, -0.1041441261768341, -0.09392932057380676, -0.013277226127684116, -0.08936289697885513, -0.05455998331308365, 0.018774257972836494, -0.006003109738230705, -0.023204009979963303, -0.029952766373753548, -0.0746028795838356, -0.0960577130317688, 0.04777231439948082, 0.0023692080285400152, -0.05388501286506653, -0.027380067855119705, 0.03228960558772087, -0.012790260836482048, 0.03832350671291351, 0.058861665427684784, 0.023988846689462662, -0.08639200031757355, -0.007829802110791206, 0.051720816642045975, -0.02654724009335041, -0.07728654146194458, 0.053698427975177765, -0.10026205331087112, 0.0031725724693387747, 0.045894209295511246, -0.037177830934524536, -0.08018416166305542, 0.06521732360124588, -0.05452621728181839, -0.06734131276607513, 0.03363330662250519, 0.04799601435661316, -0.013150038197636604, -0.04906778037548065, -0.049603816121816635, -0.03833747282624245, -0.031811513006687164, -0.06266914308071136, -0.01949862390756607, 0.025547156110405922, -0.014943712390959263, -0.003954526036977768, 0.05868376046419144, 0.0037987593095749617, 0.017269566655158997, 0.0646735206246376, -0.014325925149023533, -0.07265160232782364, -0.04337826743721962, -0.039018869400024414, 0.049981821328401566, -0.07292653620243073, -0.03235338628292084, -0.07439760118722916, -0.021120605990290642, -0.037441179156303406, 0.036318518221378326, -0.049308065325021744, 0.0035100060049444437, 0.044603876769542694, 0.012207494117319584, 0.03177919238805771, -0.007425472140312195, 0.03306988254189491, -0.05584206432104111, -0.023614615201950073, 0.022291777655482292, -0.09594883769750595, 0.023662306368350983, 0.03080528788268566, -0.1015513688325882, 0.003184226807206869, -0.01544375903904438, -0.007915511727333069, 0.040201585739851, 0.040610507130622864, 0.019697707146406174, -0.06502746045589447, 0.006237287539988756, -0.006614130921661854, 0.03915710747241974, -0.012864346615970135, -0.04460301995277405, -0.022582367062568665, 0.03083321452140808, 0.04948657751083374, -0.09516526013612747, -0.04957827925682068, 0.054618269205093384, -0.10065747052431107, 0.02733553946018219, 0.03478241711854935, -0.07835203409194946, -0.06444457918405533, -0.04281250759959221, -0.07577098906040192, 0.007253962103277445, -0.00035076242056675255, -0.05665617808699608, 0.04214667156338692, 0.06957942247390747, -0.014277596026659012, 0.018754251301288605, 0.010394122451543808, 0.011434635147452354, 0.03263964131474495, 0.014520942233502865, -0.09822102636098862, 0.05921599268913269, -0.09029970318078995], [0.03045719489455223, 0.05471678078174591, 0.06729446351528168, 0.0391165055334568, 0.015141506679356098, -0.06520123779773712, -0.11040280759334564, -0.04434998333454132, -0.033838674426078796, 0.08964090794324875, 0.025358475744724274, -0.009386676363646984, -0.008528994396328926, 0.05334414541721344, 0.005048098508268595, -0.04762451723217964, 0.05999718979001045, 0.011958766728639603, -0.00526533043012023, 0.05427366867661476, -0.09646939486265182, -0.04802246391773224, -0.09622514992952347, -0.09838609397411346, -0.0072287204675376415, -0.003081428585574031, -0.0329667292535305, -0.06835542619228363, -0.10028525441884995, 0.06808055937290192, 0.01529217604547739, -0.07246331870555878, -0.03561849892139435, -0.01853369176387787, -0.11780600994825363, 0.011665787547826767, -0.04312705621123314, -0.017498379573225975, 0.0007628663443028927, -0.06822033226490021, 0.01974903978407383, -0.04734953120350838, -0.10239490121603012, -0.008622128516435623, 0.02460090070962906, -0.03850243613123894, -0.021100632846355438, 0.04319747909903526, -0.09630347043275833, -0.09377346932888031, 0.06930555403232574, -0.04924287647008896, -0.06470290571451187, -0.026528574526309967, 0.031854018568992615, -0.02677745185792446, -0.012988240458071232, 0.05907545983791351, -0.05783320963382721, -0.03293804079294205, -0.023903153836727142, -0.017192499712109566, 0.05586972460150719, 0.029122402891516685, -0.08611252903938293, 0.015677442774176598, -0.019098134711384773, 0.07086896896362305, -0.00491363275796175, -0.11670131236314774, -0.02742673084139824, -0.00041473915916867554, -0.09765078127384186, 0.00873515848070383, 0.03006145916879177, 0.052687421441078186, 0.0004850679251831025, -0.016708120703697205, -0.007684909272938967, -0.07515152543783188, -0.06677034497261047, 0.037753935903310776, 0.048279520124197006, 0.05186125636100769, -0.006629529874771833, -0.008293482474982738, -0.03024725429713726, -0.07033585011959076, -0.058979347348213196, 0.019242437556385994, 0.056171733886003494, 0.06118805706501007, 0.012536748312413692, 0.03595514968037605, 0.04787025973200798, -0.061080724000930786, -0.06121544539928436, -0.09035515785217285, -0.08906880766153336, 0.015052367933094501, -0.04614188149571419, 0.01836923509836197, -0.10743813961744308, -0.01134238950908184, -0.10165730863809586, 0.04925481975078583, 0.07674339413642883, 0.03227299451828003, 0.038510072976350784, 0.004653384443372488, 0.06523057073354721, 0.009723667986690998, 0.06264624744653702, 0.008547334931790829, -0.030392145738005638, -0.006530333310365677, -0.09887654334306717, 0.05102929472923279, -0.019428541883826256, 0.006685283500701189, -0.08572968095541, 0.006312977056950331, -0.01334137562662363, -0.07893133908510208, -0.0817335993051529, 0.03395203500986099, 0.005524635314941406, 0.018849261105060577], [-0.05429358780384064, -0.07251296192407608, -0.012618567794561386, -0.0066752382554113865, 0.08998094499111176, 0.02602684125304222, 0.029574096202850342, 0.08199199289083481, 0.04640951007604599, 0.038501396775245667, -0.06032274290919304, 0.04089198634028435, 0.018056832253932953, -0.05231807008385658, 0.02557935193181038, 0.06093403324484825, -0.04308684915304184, 0.027296273037791252, 0.022777896374464035, -0.009679821319878101, -0.02688511274755001, 0.07242196053266525, -0.06729722023010254, -0.08542446047067642, 0.03947791829705238, 0.07366771996021271, 0.045729462057352066, 0.025756200775504112, -0.08122681826353073, -0.028505738824605942, -0.1074042096734047, 0.013501890003681183, 0.029775457456707954, -0.025216180831193924, -0.05789110064506531, -0.022522220388054848, -0.0654396191239357, 0.048248931765556335, -0.06586898118257523, -0.05442437529563904, 0.05585768446326256, -0.07739473134279251, 0.015641044825315475, 0.031607139855623245, -0.05918629840016365, -0.02287910133600235, 0.028965886682271957, 0.06515871733427048, -0.03163343667984009, -0.024052947759628296, 0.057002726942300797, -0.06057985499501228, 0.07445313036441803, -0.06761530786752701, 0.05732131376862526, 0.03813635930418968, -0.023549115285277367, 0.04954953119158745, -0.003673246828839183, 0.053002722561359406, -0.03238951042294502, -0.07952218502759933, 0.07308575510978699, 0.044251687824726105, 0.020364709198474884, -0.043313123285770416, -0.03434818983078003, -0.0033050430938601494, -0.049568209797143936, -0.005980231333523989, -0.10005932301282883, -0.01700175553560257, -0.04800077900290489, 0.07118594646453857, -0.05213389918208122, -0.06867073476314545, -0.08073670417070389, 0.026920968666672707, -0.07228627055883408, -0.08962506800889969, 0.015682829543948174, 0.041757188737392426, -0.0029938381630927324, -0.10245358943939209, -0.026268085464835167, -0.07296242564916611, 0.07353747636079788, -0.005414860788732767, -0.012861683033406734, 0.0691244900226593, -0.07698555290699005, -0.013408289290964603, -0.0952061116695404, -0.03937395662069321, 0.05402086675167084, -0.11370642483234406, -0.09987552464008331, 0.020226921886205673, -0.09856074303388596, 0.01338629238307476, 0.08222148567438126, -0.014129946008324623, -0.0626538023352623, -0.04754054173827171, -0.08695424348115921, -0.07359258085489273, 0.0722082108259201, -0.06141318380832672, -0.055328015238046646, -0.08973429352045059, -0.03154836222529411, -0.07100056856870651, 0.02276703715324402, -0.05469221994280815, 0.034249771386384964, 0.008096146397292614, 0.052211303263902664, 0.02549395151436329, 0.0009825025917962193, -0.04513324797153473, -0.030301878228783607, -0.0615752711892128, -0.08031341433525085, -0.025658003985881805, 0.026044968515634537, 0.025084713473916054, -0.03280467912554741, 0.07852267473936081], [-0.030643124133348465, 0.017093630507588387, 0.04024765267968178, 0.08508970588445663, -0.07852663844823837, -0.09217339754104614, -0.0361473523080349, 0.0207226425409317, 0.016426697373390198, 0.005816174671053886, -0.022914336994290352, -0.028519298881292343, -0.054782476276159286, 0.034181877970695496, 0.009019705466926098, 0.08852315694093704, 0.0653979554772377, -0.08882872760295868, 0.0672617256641388, 0.02796906605362892, 0.06954961270093918, 0.018992222845554352, -0.08571300655603409, 0.021054908633232117, -0.07535620778799057, 0.067054383456707, -0.01832459308207035, -0.011349430307745934, 0.027083465829491615, -0.06902863085269928, 0.06495056301355362, -0.08070887625217438, 0.027366146445274353, -0.08612175285816193, -0.005708673968911171, -0.019813770428299904, 0.016615521162748337, 0.03404518961906433, -0.0903664082288742, 0.03682255372405052, 0.00519147701561451, 0.026432955637574196, -0.032359663397073746, -0.0989755168557167, -0.04023510962724686, -0.053455278277397156, 0.002525999443605542, -0.020492620766162872, -0.09118807315826416, -0.08696732670068741, 0.019521526992321014, -0.10363928228616714, 0.036385901272296906, 0.0668647438287735, -0.004513166844844818, -0.04692763090133667, 0.0394907146692276, 0.044087428599596024, -0.016253696754574776, 0.008863227441906929, 0.06910613924264908, -0.048299964517354965, 0.03189719840884209, 0.031828802078962326, -0.10163488984107971, -0.05987241491675377, -0.028257932513952255, 0.03954203426837921, -0.051818691194057465, -0.0007031364366412163, -0.07093168795108795, -0.04259758070111275, 0.04940357059240341, 0.03025032952427864, -0.03530080243945122, -0.019879670813679695, -0.027343377470970154, 0.060476597398519516, -0.009563153609633446, 0.01242321077734232, -0.03406204655766487, -0.07921779155731201, -0.06791616976261139, 0.017853306606411934, 0.005964783485978842, -0.0341329425573349, -0.028183089569211006, 0.020764920860528946, -0.049495987594127655, 0.0020330077968537807, -0.06130266562104225, -0.0935841053724289, 0.08057347685098648, -0.056956205517053604, -0.024096036329865456, -0.0775492712855339, -0.0706893652677536, -0.026747724041342735, 0.015316139906644821, -0.004223756492137909, -0.03856347128748894, 0.02668602764606476, -0.08310690522193909, -0.016649415716528893, 0.03746819496154785, 0.0679418221116066, 0.06325164437294006, 0.0530242957174778, -0.015796728432178497, -0.06918758153915405, -0.033086247742176056, -0.03834150359034538, -0.02132156305015087, 0.04963551461696625, 0.032306134700775146, -0.038885895162820816, -0.08493416756391525, 0.04090319201350212, -0.0015844403533264995, 0.0306576918810606, 0.03887532278895378, -0.06693685054779053, -0.0018328443402424455, 0.026813562959432602, -0.011637261137366295, -0.011130422353744507, 0.058194950222969055, -0.08526339381933212], [0.037203628569841385, -0.0904272049665451, 0.007819285616278648, 0.03751932829618454, -0.012685011141002178, -0.032992057502269745, 0.023196473717689514, -0.09885164350271225, 0.006125274114310741, -0.011828970164060593, 0.05268914997577667, 0.0074518825858831406, -0.01443781889975071, -0.04456833750009537, 0.02647804655134678, 0.06836961954832077, 0.0616786889731884, 0.02153720334172249, -0.029385004192590714, -0.06848875433206558, -0.024792436510324478, -0.007231160532683134, 0.031591348350048065, -0.08206986635923386, 0.07007893919944763, -0.08693715184926987, -0.0018634269945323467, 5.668163066729903e-05, -0.07363983988761902, -0.048029158264398575, 0.028857853263616562, -0.0170525424182415, -0.0620405450463295, 0.02244076319038868, -0.01344429049640894, 0.05431525036692619, 0.022580374032258987, 0.022616669535636902, -0.04039677977561951, -0.001409452874213457, 0.013256696052849293, -0.05365368723869324, -0.032901979982852936, -0.054428137838840485, 0.047081004828214645, -0.026814302429556847, 0.014809120446443558, 0.04505709931254387, -0.06552739441394806, -0.08758386969566345, 0.04783748462796211, 0.04047996923327446, 0.060118548572063446, -0.03494684398174286, 0.006173685193061829, 0.014076310209929943, -0.05647101625800133, -0.02459236979484558, -0.0694902315735817, -0.035001590847969055, 0.06877489387989044, 0.0320899523794651, -0.07126281410455704, 0.039534665644168854, -0.024585068225860596, -0.009231721982359886, -0.0004906531539745629, -0.08574535697698593, -0.10557016730308533, -0.025030003860592842, -0.02019263617694378, -0.06437908858060837, 0.06850163638591766, 0.03239894285798073, 0.06962398439645767, -0.08301670104265213, 0.06778540462255478, -0.07847622036933899, -0.01824004575610161, 0.01260534767061472, -0.008022770285606384, -0.022739088162779808, 0.048763614147901535, -0.027696950361132622, -0.003710215911269188, -0.05825163796544075, -0.019887248054146767, -0.06358180195093155, -0.02971765398979187, -0.06498133391141891, -0.0543854758143425, 0.038282956928014755, -0.005362213123589754, -0.00979499239474535, 0.005342360120266676, -0.07978463172912598, 0.0707712173461914, 0.058263812214136124, 0.0662200078368187, -0.07299761474132538, -0.00024215049052145332, -0.021978994831442833, -0.10144238919019699, -0.02750558592379093, -0.02712836302816868, -0.08112522214651108, -0.040705498307943344, -0.034407686442136765, 0.0657033771276474, -0.0986759290099144, -0.0009078559232875705, -0.003015169408172369, 0.004516339860856533, -0.01200259942561388, -0.021086063235998154, -0.06368008255958557, -0.025422751903533936, -0.1080840602517128, -0.045298755168914795, -0.07047982513904572, 0.014176532626152039, -0.012324945069849491, 0.056198328733444214, -0.013747368939220905, -0.09726496040821075, -0.021020404994487762, -0.015686096623539925, -0.07809172570705414], [0.033242568373680115, -0.050863269716501236, 0.07217331975698471, 0.02412319928407669, 0.07699500769376755, -0.08103202283382416, -0.06486554443836212, -0.06631725281476974, 0.007914163172245026, 0.005829043686389923, 0.016188643872737885, 0.008656084537506104, -0.023317329585552216, -0.020262084901332855, -0.08613496273756027, 0.0015680640935897827, -0.04314455762505531, -0.043883562088012695, -0.07465599477291107, 0.03515690565109253, 0.0313345342874527, 0.030496396124362946, 0.029893018305301666, -0.012559652328491211, 0.03341669589281082, -0.0790024995803833, -0.03373453766107559, -0.06889601796865463, -0.08389458805322647, -0.045591942965984344, -0.026977237313985825, -0.03191842883825302, -0.04814322665333748, -0.08120344579219818, 0.05332537740468979, -0.07429925352334976, -0.06527701020240784, 0.05061469227075577, -0.06024833023548126, 0.04626942425966263, 0.06594764441251755, 0.0743618980050087, 0.03322070091962814, -0.05309677869081497, 0.06334690004587173, -0.07637060433626175, 0.04046746343374252, 0.06389249116182327, -0.07268683612346649, 0.03878428786993027, -0.06784794479608536, -0.03801729902625084, -0.02827392891049385, -0.015570573508739471, 0.07662559300661087, 0.041425593197345734, -0.03662199527025223, 0.06260793656110764, -0.026462193578481674, -0.02814488485455513, -0.04076280817389488, 0.07212547212839127, -0.07366164773702621, -0.056738000363111496, -0.03314083442091942, -0.08808911591768265, 0.07901545614004135, -0.008823119103908539, 0.009327888488769531, -9.161978960037231e-05, -0.0529932864010334, -0.007823653519153595, 0.0878407284617424, -0.0010278970003128052, 0.01799141615629196, 0.08213257044553757, -0.005171731114387512, 0.06485199183225632, -0.021354392170906067, 0.0044832006096839905, 0.065610371530056, 0.04281578212976456, -0.08599853515625, 0.0619756355881691, 0.03836061805486679, -0.010379806160926819, 0.03189210593700409, -0.08511929214000702, -0.015412196516990662, 0.01142331212759018, -0.05366463214159012, -0.07850771397352219, 0.04203132539987564, 0.08439410477876663, 0.07010025531053543, 0.08219649642705917, 0.07741191238164902, -0.02269744873046875, -0.04235165938735008, -0.06663619726896286, -0.03772631660103798, -0.060697078704833984, 0.06346070021390915, 0.07626945525407791, -0.039516136050224304, 0.009777486324310303, 0.012487858533859253, -0.08068324625492096, -0.07561535388231277, 0.04585739225149155, -0.08597633242607117, -0.08691918104887009, -0.03288158029317856, -0.04948651045560837, 0.05710583180189133, 0.03001304715871811, -0.043213583528995514, 0.010343782603740692, 0.041192881762981415, 0.014785781502723694, -0.0731196179986, -0.08249019086360931, -0.08662241697311401, -0.04511726275086403, -0.04086478427052498, -0.016435004770755768, -0.0819450318813324, 0.048498399555683136], [0.04496593028306961, 0.05720667913556099, 0.07801707834005356, -0.02568195015192032, -0.031147262081503868, 0.029840102419257164, -0.0434618704020977, -0.055771276354789734, 0.03126288205385208, 0.03987666964530945, 0.03573046624660492, -0.08462252467870712, 0.02349516935646534, -0.07947056740522385, -0.05651269480586052, 0.053393397480249405, 0.02172655425965786, -0.0757676512002945, -0.00544441444799304, 0.018973011523485184, 0.018500840291380882, -0.004709892440587282, 0.01926174946129322, 0.04553429037332535, -0.016680128872394562, -0.07951421290636063, -0.08901374787092209, -0.02994954213500023, 0.04872971028089523, -0.036776334047317505, -0.06449475884437561, 0.020300036296248436, 0.04888952523469925, -0.00696175592020154, 0.06884514540433884, 0.021691756322979927, -0.04361448064446449, 0.030196836218237877, -0.015392347238957882, 0.03997024521231651, -0.02111857384443283, -0.08659565448760986, -0.07767105847597122, 0.05877047777175903, 0.005499633029103279, -0.04531946778297424, 0.0012516245478764176, 0.029235325753688812, 0.05897676944732666, 0.04195601865649223, -0.002210271777585149, 0.00320925354026258, 0.03254614770412445, -0.043623797595500946, -0.05622106045484543, -0.07859326153993607, -0.07539601624011993, -0.06457401067018509, 0.06085857376456261, 0.07536737620830536, 0.03352461755275726, -0.07128577679395676, 0.012570682913064957, 0.047941774129867554, 0.037483710795640945, -0.004507079254835844, -0.023562796413898468, -0.08651135116815567, 0.07518672198057175, -0.0796833261847496, -0.0834922045469284, 0.012453019618988037, 0.009594496339559555, 0.02793571911752224, -0.029818249866366386, 0.004311506170779467, -0.055439043790102005, -0.05534635856747627, 0.012350323610007763, 0.014888041652739048, -0.01631881855428219, -0.04406997188925743, -0.0071214912459254265, 0.016297999769449234, -0.05256892740726471, -0.02024519443511963, 0.03866373002529144, 0.013784127309918404, -0.05914101004600525, 0.07722554355859756, -0.06463972479104996, -0.09153155982494354, -0.038906507194042206, -0.06012266129255295, -0.06408427655696869, -0.08246318995952606, 0.030400551855564117, -0.07527238130569458, 0.006583963520824909, 0.04166235402226448, 0.035455066710710526, 0.03674823045730591, -0.05318979173898697, -0.056388773024082184, 0.060272637754678726, -0.08372776210308075, -0.007980361580848694, 0.06391283869743347, -0.08596565574407578, 0.05527679622173309, -0.08225040137767792, -0.009936029091477394, 0.08109696954488754, 0.012517993338406086, -0.049141742289066315, -0.08305112272500992, 0.036942802369594574, 0.03428016975522041, 0.021154072135686874, 0.016971614211797714, 0.024917153641581535, 0.08273271471261978, 0.004842288326472044, -0.06959222257137299, 0.004926692694425583, 0.04019996151328087, -0.03621814772486687, 0.006775651592761278], [-0.0006122247432358563, 0.013575918972492218, 0.00320169678889215, 0.0534617118537426, -0.0529511496424675, -0.020653042942285538, 0.00295856106095016, -0.034544963389635086, 0.03772920370101929, 0.054261624813079834, 0.050739970058202744, 0.07777076214551926, -0.008082058280706406, -0.05650791898369789, 0.03334860876202583, -0.028686847537755966, -0.09856022149324417, 0.03271494433283806, -0.11078625172376633, -0.042407527565956116, 0.006718585267663002, 0.012325547635555267, 0.049181628972291946, -0.019230160862207413, -0.05510693043470383, -0.026179034262895584, 0.002141146454960108, 0.014532256871461868, 0.05185789614915848, -0.017878472805023193, 0.035402171313762665, -0.1093517318367958, -0.05782802775502205, -0.044664476066827774, 0.005771119613200426, 0.011363844387233257, -0.06200796365737915, -0.04293465614318848, -0.06990192830562592, -0.034006644040346146, 0.016223449259996414, 0.046566713601350784, 0.03788677603006363, -0.023661935701966286, -0.10934276133775711, 0.05713612213730812, 0.060465190559625626, -0.0907597467303276, -0.03752707317471504, -0.0011046510189771652, 0.03695482015609741, 0.04833873733878136, -0.027556274086236954, 0.017975911498069763, -0.008838405832648277, 0.043364182114601135, 0.017458269372582436, 0.021594246849417686, -0.06730866432189941, -0.0930657610297203, 0.02942057140171528, -0.027682501822710037, 0.05251157283782959, -0.10200940817594528, -0.07184424996376038, -0.07697916030883789, -0.012242189608514309, 0.030642656609416008, 0.0289080161601305, -0.0220237635076046, -0.0612899549305439, 0.008888917975127697, 0.042832519859075546, -0.046896301209926605, -0.027558017522096634, -0.08763570338487625, 0.012587425298988819, -0.09228626638650894, -0.05523614212870598, -0.09278054535388947, -0.017290223389863968, -0.09135051816701889, -0.04820260778069496, -0.04075295850634575, -0.016961775720119476, 0.0017434625187888741, 0.001747306203469634, 0.00455136876553297, 0.030201802030205727, 0.079251229763031, 0.053107958287000656, 0.06104408949613571, 0.06027086079120636, -0.1109100729227066, -0.048507627099752426, 0.034279461950063705, 0.02446199394762516, -0.05540892109274864, 0.02320394292473793, 0.03760508820414543, 0.005540657322853804, -0.06701084226369858, -0.05629875510931015, -0.028002621605992317, 0.041044238954782486, 0.03736564517021179, -0.11208432167768478, 0.06969562917947769, 0.03444550931453705, -0.022432133555412292, -0.04677470773458481, -0.07380453497171402, -0.0840180292725563, -0.05345538631081581, -0.0996289998292923, 0.04102277383208275, -0.0555887371301651, -0.1020081490278244, -0.09909780323505402, 0.02796882577240467, -0.09374035894870758, 0.019346799701452255, -0.024846157059073448, 0.050620682537555695, 0.06650511175394058, -0.04350752383470535, 0.07011958211660385, 0.05149560794234276], [-0.029169518500566483, 0.00815398246049881, -0.08072084188461304, -0.060581743717193604, 0.02361427992582321, -0.08380161225795746, -0.025949623435735703, -0.022909015417099, 0.08465079218149185, -0.038419369608163834, 0.03873973339796066, 0.008552640676498413, 0.06725818663835526, 0.04657445102930069, -0.07462088763713837, 0.022364996373653412, 0.06616624444723129, 0.0284884050488472, 0.08819309622049332, -0.03694330155849457, 0.05484757572412491, -0.07334967702627182, -0.03741877153515816, 0.05573827773332596, -0.05578181520104408, -0.014466740190982819, -0.08027313649654388, 0.04243730753660202, 0.021871350705623627, -0.012797310948371887, -0.007694989442825317, 0.05176415294408798, -0.015580981969833374, -0.07128484547138214, -0.0027151182293891907, -0.03650539740920067, 0.03561995178461075, -0.014456614851951599, 0.054388828575611115, 0.07917862385511398, 0.041496641933918, -0.08717953413724899, -0.08609471470117569, -0.033829979598522186, -0.08491525799036026, 0.019563637673854828, 0.0702149048447609, 0.017008095979690552, -0.07852791994810104, -0.06317326426506042, 0.038168199360370636, -0.05631732568144798, 0.08831284195184708, -0.06043127924203873, -0.009733200073242188, 0.03593948483467102, -0.03185933828353882, -0.056107666343450546, 0.0235297828912735, 0.03983248025178909, -0.02766309306025505, 0.002494335174560547, -0.06614355742931366, -0.05448833107948303, -0.04433223605155945, -0.04768162593245506, 0.032151736319065094, -0.06713299453258514, -0.0033653005957603455, -0.04153311625123024, -0.012763634324073792, -0.07905597239732742, -0.03870498761534691, -0.06343722343444824, -0.033694423735141754, -0.04377331584692001, -0.07704085111618042, -0.030269265174865723, 0.015279695391654968, -0.07919397205114365, 0.04032241553068161, 0.06899232417345047, -0.06914074718952179, 0.06944949179887772, 0.08592716604471207, 0.045460768043994904, -0.0816509947180748, 0.044727422297000885, -0.013751260936260223, -0.015918225049972534, -0.040937960147857666, -0.05965422838926315, -0.07184049487113953, -0.0648697018623352, 0.07328274101018906, -0.053346581757068634, 0.06555105000734329, -0.06954148411750793, -0.038393184542655945, -0.08146186172962189, -0.0380268357694149, -0.021861061453819275, 0.017432622611522675, -0.016597062349319458, 0.01173139363527298, 0.009540736675262451, 0.011313818395137787, 0.011313922703266144, 0.025371409952640533, 0.005801431834697723, -0.05232871323823929, -0.07990501075983047, 0.034777894616127014, 0.03138987720012665, -0.044347185641527176, 0.03548843413591385, 0.07040121406316757, -0.03477293998003006, 0.05578116327524185, -0.04958079382777214, -0.054524365812540054, 0.03377440571784973, 0.015922941267490387, -0.07035882771015167, -0.04851032793521881, 0.03421567380428314, 0.07384186238050461, 0.023402877151966095], [0.03247924521565437, -0.04441490396857262, -0.045886121690273285, 0.02842438593506813, 0.07082387059926987, 0.060237087309360504, -0.05085447058081627, -0.0945044457912445, -0.0850180983543396, 0.01843373477458954, -0.11377917975187302, 0.0368807427585125, -0.0937616229057312, 0.013470110483467579, 0.04892154783010483, 0.05087345466017723, -0.07411469519138336, 0.022242067381739616, -0.06402108818292618, -0.09060826152563095, -0.028119150549173355, -0.0163249634206295, 0.05794927105307579, 0.01785893738269806, 0.042709097266197205, 0.0029990077018737793, -0.010832720436155796, -0.08955186605453491, -0.09273584187030792, -0.054949674755334854, -0.023504270240664482, 0.017784683033823967, 0.06469137966632843, 0.05982288345694542, -0.006467905826866627, -0.02674119919538498, 0.03981589525938034, -0.07762055844068527, 0.030346199870109558, -0.02320600487291813, 0.021868055686354637, 0.04612983018159866, -0.05930190160870552, 0.041934285312891006, 0.005790608003735542, 0.047384217381477356, -0.10016649961471558, -0.08725599944591522, 0.024607399478554726, 0.040718838572502136, -0.0011098319664597511, -0.0832194834947586, 0.025434818118810654, -0.05851645767688751, 0.05737358704209328, -0.05603952705860138, -0.013821619562804699, -0.029427915811538696, 0.019421851262450218, 0.030239325016736984, 0.013831510208547115, 0.010059071704745293, -0.032122574746608734, -0.0925745815038681, 0.03836682811379433, -0.009190551936626434, -0.03465402498841286, -0.02728329785168171, -0.07141120731830597, -0.06914758682250977, 0.039535634219646454, 0.049286436289548874, 0.042002465575933456, -0.00027551728999242187, -0.12311601638793945, -0.04350462183356285, -0.11790154129266739, -0.014420640654861927, -0.04700656235218048, -0.08556026965379715, 0.03152019903063774, 0.01782974787056446, -0.08289588987827301, -0.01192242931574583, 0.07472976297140121, -0.0867416188120842, 0.043756019324064255, -0.08273688703775406, 0.05290421470999718, 0.004306220915168524, 0.03649274632334709, -0.03648526594042778, -0.050589367747306824, -0.0018845883896574378, -0.087229423224926, 0.04580027610063553, 0.047714702785015106, -0.09275511652231216, -0.10155974328517914, 0.046787962317466736, -0.0326710008084774, -0.0573493055999279, -0.09759899973869324, -0.08762702345848083, 0.026036318391561508, -0.0334044024348259, 0.004919562954455614, -0.11996041983366013, -0.09825754165649414, -0.1009407788515091, -0.019120872020721436, -0.0787544697523117, -0.08211929351091385, -0.10602444410324097, 0.01680886186659336, -0.045513927936553955, 0.06329416483640671, -0.04971993342041969, -0.021972261369228363, 0.04939468950033188, -0.08643782138824463, -0.10174529999494553, 0.026704488322138786, -0.02577221393585205, -0.062168288975954056, 0.0032700733281672, -0.07868154346942902, 0.0519787073135376], [-0.1009577214717865, -0.0740944966673851, 0.06486689299345016, -0.03623040392994881, 0.053557153791189194, -0.05535411834716797, 0.03630771487951279, -0.00827441643923521, -0.06420882791280746, -0.06523820757865906, -0.10200809687376022, 0.049335628747940063, 0.0019557748455554247, -0.07191304117441177, -0.03482456132769585, -0.09493158757686615, 0.0662946105003357, -0.018328562378883362, 0.0540626160800457, -0.04138180613517761, -0.019745880737900734, -0.04962131381034851, -0.0950542464852333, 0.06669853627681732, -0.026572369039058685, 0.0005389408906921744, 0.07051056623458862, -0.09817751497030258, 0.04765617102384567, -0.09884925931692123, -0.023441573604941368, 0.06361229717731476, -0.008549803867936134, -0.037444788962602615, -0.047802072018384933, 0.054184336215257645, -0.01561781857162714, -0.09805073589086533, -0.07512112706899643, 0.04990691319108009, 0.02118559367954731, -0.06821125745773315, -0.054644882678985596, -0.060009609907865524, -0.0054120770655572414, -0.027867628261446953, -0.07565772533416748, -0.04232022538781166, -0.06498991698026657, 0.032335299998521805, 0.036520447582006454, -0.04162898659706116, -0.10118488222360611, 0.0030168239027261734, 0.012578679248690605, 0.03536802530288696, 0.06459105759859085, 0.04604290798306465, -0.08371372520923615, -0.040236979722976685, -0.04670285806059837, 0.020114678889513016, -0.025021495297551155, -0.08631817251443863, 0.028956159949302673, -0.017831245437264442, 0.012095967307686806, 0.06732845306396484, 0.058633968234062195, 0.0807473361492157, -0.01389513909816742, 0.059113409370183945, 0.011714223772287369, -0.02426958456635475, -0.030734969303011894, 0.005031462758779526, -0.033464763313531876, 0.01841849274933338, 0.015044146217405796, -0.052568469196558, -0.06542244553565979, -0.02304401993751526, -0.07369658350944519, -0.029924165457487106, 0.025146981701254845, -0.0303181279450655, 0.02848941832780838, -0.07558941841125488, -0.025932081043720245, -0.08608072251081467, 0.005001257639378309, -0.004164972808212042, -0.07209296524524689, 0.06267104297876358, -0.001726904301904142, 0.01699964702129364, 0.04777255281805992, 0.05136919766664505, 0.056619301438331604, 0.007734088692814112, 0.013303459621965885, -0.005003667436540127, -0.021192047744989395, 0.0031767014879733324, -0.06751716881990433, -0.00878979917615652, 0.02933596447110176, -0.09201044589281082, 0.01687048189342022, 0.004287757445126772, 0.05361326038837433, 0.03126078471541405, 0.03107500821352005, -0.08421939611434937, -0.08465257287025452, -0.08502081781625748, -0.017149418592453003, -0.009621910750865936, -0.025593822821974754, 0.05210598558187485, -0.010178507305681705, -0.02403758279979229, 0.0028353435918688774, -0.09244213253259659, 0.01126305852085352, -0.002303486689925194, -0.026975112035870552, -0.02155434899032116], [0.13090038299560547, -0.014126284047961235, -0.09621122479438782, -0.10502886027097702, 0.15859836339950562, 0.13857963681221008, -0.08930664509534836, 0.04282129555940628, -0.025485217571258545, 0.02163289301097393, 0.00011100841948064044, -0.062054600566625595, 0.1267915666103363, -0.043284010142087936, -0.0709652230143547, -0.13094907999038696, 0.0246789138764143, -0.18637195229530334, 0.06857263296842575, -0.023724470287561417, -0.007633295375853777, 0.10437822341918945, 0.07375665009021759, -0.15763628482818604, 0.12629666924476624, -0.06141709163784981, 0.10108940303325653, 0.07318217307329178, 0.0498008131980896, 0.1659761369228363, -0.13148647546768188, -0.059630751609802246, 0.02179723046720028, -0.04775889590382576, -0.09233396500349045, -0.062029674649238586, 0.1444198042154312, -0.13035552203655243, -0.02251235581934452, -0.0767354816198349, 0.27904799580574036, -0.11624258756637573, 0.05579478293657303, -0.05080670490860939, 0.1600993424654007, -0.08170390874147415, -0.12529738247394562, -0.14188145101070404, 0.06415439397096634, 0.16628046333789825, -0.0360991545021534, 0.021750880405306816, -0.15298499166965485, -0.20589865744113922, -0.02521912381052971, -0.17553938925266266, 0.012869218364357948, 0.056992799043655396, -0.06735224276781082, 0.024867165833711624, -0.19965282082557678, 0.014791058376431465, 0.19783398509025574, 0.19350549578666687, 0.03586703538894653, 0.1700950562953949, 0.005672237370163202, -0.0028756349347531796, -0.020014528185129166, -0.013064700178802013, -0.01260209921747446, -0.1160062924027443, -0.16156798601150513, -0.039676204323768616, -0.12391550838947296, 0.1321878731250763, 0.05522983893752098, 0.05993829295039177, 0.048245470970869064, 0.035714082419872284, 0.1684381514787674, 0.06726488471031189, 0.17065632343292236, 0.05279775708913803, 0.00643932493403554, 0.06879856437444687, -0.16033479571342468, -0.014640492387115955, -0.01852910779416561, 0.0261760912835598, -0.08787032961845398, -0.052158940583467484, -0.056721851229667664, 0.09659530222415924, 0.08327733725309372, -0.13794352114200592, -0.01706351712346077, -0.09072379767894745, 0.105549156665802, -0.1043732762336731, 0.14004218578338623, -0.029445510357618332, -0.008238895796239376, 0.07989449054002762, -0.07237686961889267, -0.13860629498958588, -0.08935673534870148, -0.08367859572172165, -0.049567002803087234, -0.01902974210679531, 0.021196648478507996, 0.06661547720432281, 0.09740938246250153, -0.17578430473804474, 0.07164140790700912, 0.0019027976086363196, 0.18337544798851013, -0.049178142100572586, -0.15964187681674957, 0.0854499340057373, 0.07596118003129959, -0.04606189951300621, 0.05036304518580437, 0.058550700545310974, -0.07984891533851624, 0.061404332518577576, 0.1923619955778122, 0.004448321647942066], [0.003448985517024994, -0.08036457747220993, -0.06694629788398743, 0.022025592625141144, -0.06679724156856537, 0.020881138741970062, -0.020534135401248932, -0.0031579285860061646, -0.01786760985851288, -0.06805311143398285, 0.0610804483294487, 0.03313272446393967, -0.07866433262825012, 0.05728314071893692, -0.041042864322662354, 0.0013001635670661926, 0.06354884058237076, 0.07085723429918289, -0.05103343725204468, 0.02896750718355179, -0.036094360053539276, 0.014913566410541534, -0.018567338585853577, -0.028552211821079254, -0.07222104072570801, -0.06339047849178314, 0.07970524579286575, -0.04388311877846718, 0.04401461035013199, -0.06281483173370361, -0.04944039136171341, 0.04987070709466934, 0.020629629492759705, -0.010371297597885132, -0.05788755789399147, 0.01467345654964447, -0.07155343145132065, 0.0037658661603927612, 0.021561644971370697, 0.015886463224887848, 0.03640920668840408, -0.06291484832763672, -0.0510055236518383, -0.03355531767010689, -0.060383956879377365, 0.036874957382678986, -0.08110181987285614, 0.018990688025951385, -0.02536313235759735, 0.06181531399488449, -0.05970817431807518, -0.0711875706911087, -0.08618160337209702, 0.0601281002163887, -0.053216855973005295, -0.03118935227394104, -0.0251983180642128, -0.041846711188554764, -0.08186172693967819, -0.002416640520095825, 0.05479375272989273, -0.030144374817609787, -0.00805540382862091, 0.031460367143154144, 0.04930911213159561, 0.01917453110218048, -0.06491264700889587, -0.0667976438999176, -0.07566504180431366, 0.0726160928606987, 0.06037396937608719, 0.08613667637109756, 0.0671745166182518, 0.01378002017736435, 0.004753731191158295, 0.008989982306957245, -0.030831895768642426, -0.06358608603477478, 0.04622485488653183, 0.017200730741024017, -0.017584972083568573, 0.024129368364810944, 0.07711149007081985, -0.020888395607471466, 0.042608924210071564, 0.005629152059555054, -0.05514410510659218, -0.008518435060977936, -0.07065644860267639, -0.026246327906847, 0.01686907559633255, 0.03787446767091751, -0.014488734304904938, 0.05818647891283035, 0.006777659058570862, 0.07183373719453812, -0.041240859776735306, -0.06946269422769547, 0.08798787742853165, -0.026936408132314682, 0.0814933255314827, 0.0823787972331047, 0.08139241486787796, -0.08533952385187149, -0.0692891925573349, 0.01685456931591034, -0.054596319794654846, 0.010958567261695862, -0.0114230215549469, 0.03701784461736679, 0.06039100140333176, -0.07962336391210556, -0.03829469904303551, -0.0020123422145843506, -0.008743152022361755, 0.0738958790898323, -0.07066158205270767, 0.08819810301065445, 0.08522623032331467, -0.0650019645690918, 0.06200876086950302, -0.015011124312877655, -0.04351850599050522, 0.006315842270851135, -0.07855798304080963, -0.06380762159824371, 0.08740035444498062, 0.08550385385751724], [-0.05817851796746254, -0.002775833010673523, 0.010183781385421753, 0.08397535234689713, -0.04478660970926285, 0.03492242842912674, 0.045393772423267365, -0.05508345365524292, -0.016339123249053955, 0.048651449382305145, 0.046475447714328766, 0.0639217421412468, -0.08657298982143402, 0.007713086903095245, -0.06508062034845352, -0.08489063382148743, -0.07501180469989777, -0.05672788619995117, -0.08345209807157516, 0.04522009938955307, 0.03483373671770096, 0.06468301266431808, -0.057127419859170914, -0.0005101263523101807, -0.042863935232162476, 0.035700179636478424, -0.04961409792304039, -0.03136524185538292, 0.08268996328115463, 0.06374987214803696, -0.01474335789680481, 0.03450341522693634, 0.008523471653461456, 0.0044105276465415955, -0.009660616517066956, 0.07463034242391586, 0.07637356966733932, -0.059569016098976135, -0.0751972496509552, 0.06797441095113754, 0.06590097397565842, -0.014022737741470337, -0.001572445034980774, 0.02974170446395874, 0.06753870099782944, -0.06047997623682022, -0.01798240840435028, -0.04935767874121666, 0.026783794164657593, -0.06278654932975769, -0.02411256730556488, 0.0317782461643219, -0.017268039286136627, -0.06641000509262085, -0.07373655587434769, 0.045086570084095, -0.051117077469825745, 0.059519775211811066, 0.02062668651342392, -0.06743857264518738, -0.08582627028226852, -0.04136170446872711, -0.015920594334602356, -0.07186362147331238, 0.02063261717557907, -0.051216091960668564, -0.030738074332475662, -0.025692537426948547, -0.00029615312814712524, 0.03168991953134537, 0.01248740404844284, 0.08695682138204575, 0.05024278908967972, -0.049510408192873, 0.045297540724277496, -0.04802187532186508, 0.0027717575430870056, 0.0768500491976738, -0.04698782414197922, 0.013002723455429077, 0.06083665043115616, -0.08294268697500229, -0.03670933470129967, 0.010499536991119385, 0.011620156466960907, 0.06505758315324783, 0.004885546863079071, -0.0863867998123169, 0.016519032418727875, -0.05413880571722984, 0.019823893904685974, 0.04692485183477402, 0.0048017725348472595, -0.08370858430862427, 0.0740167424082756, -0.01614486426115036, -0.0526307187974453, -0.011122837662696838, -0.08616118133068085, 0.08065926283597946, 0.014114044606685638, 0.038241587579250336, 0.06037256866693497, -0.07242600619792938, -0.07805527746677399, -0.018657691776752472, 0.053249143064022064, 0.08035320788621902, -0.08329914510250092, 0.030340053141117096, -0.03650601953268051, -0.058708980679512024, 0.07615683227777481, -0.060566190630197525, 0.007771112024784088, -0.07312661409378052, -0.05794455111026764, -0.0653812438249588, 0.03904374688863754, -0.024358823895454407, -0.011823497712612152, -0.0878145694732666, -0.03575480356812477, 0.059409789741039276, -0.015566632151603699, 0.07594671100378036, -0.006219305098056793, -0.051898080855607986], [-0.015489115379750729, -0.06603836268186569, -0.016899604350328445, 0.07623773068189621, -0.04832816496491432, -0.016989126801490784, -0.0036487560719251633, -0.040254272520542145, -0.09665283560752869, 0.05005815997719765, -0.01808718964457512, -0.06135423108935356, -0.0984652116894722, -0.08492600172758102, -0.03673829510807991, -0.056516051292419434, -0.07894081622362137, 0.018968850374221802, -0.05405909940600395, 0.07398663461208344, -0.07003128528594971, -0.02004997618496418, -0.07328689843416214, -0.08481109887361526, -0.014211969450116158, 0.06033143401145935, -0.05921096354722977, -0.07194185256958008, -0.009689899161458015, 0.013671898283064365, -0.057831358164548874, -0.09389323741197586, 0.019299635663628578, -0.08844992518424988, -0.044249702244997025, 0.06947258114814758, -0.0502844974398613, -0.013241603039205074, -0.053940121084451675, -0.033401601016521454, 0.002118893899023533, -0.06097964569926262, -0.09820178151130676, 0.06918492168188095, 0.02540680021047592, -0.08352398127317429, 0.05589216202497482, 0.07357724756002426, -0.06690435856580734, 0.07630762457847595, 0.06290538609027863, -0.08064121752977371, 0.00035687669878825545, 0.026126131415367126, -0.02789125218987465, 0.03140396252274513, -0.09395658224821091, 0.05589693412184715, -0.04484649747610092, 0.06379856914281845, -0.03795145824551582, 0.056751735508441925, 0.013295801356434822, -0.0038686071056872606, 0.07694557309150696, 0.0758979469537735, -0.018399301916360855, -0.031073929741978645, 0.041006140410900116, 0.04554309323430061, -0.03923361748456955, 0.07602528482675552, 0.02757662534713745, -0.011559356935322285, 0.04877549409866333, -0.07924588024616241, -0.07938733696937561, -0.07432567328214645, -0.037574443966150284, -0.033058494329452515, 0.0570979006588459, 0.07711610943078995, -0.03560592606663704, -0.09285667538642883, 0.020808536559343338, 0.047661397606134415, 0.06340450793504715, 0.011566493660211563, -0.0875370055437088, -0.019706161692738533, -0.04019385203719139, 0.032325807958841324, -0.0015795936342328787, -0.09242112189531326, -0.03275042027235031, 0.032567135989665985, 0.03197520598769188, 0.05352962389588356, -0.09510606527328491, 0.020306533202528954, -0.09009101241827011, -0.06229507550597191, 0.012899487279355526, -0.0457165464758873, -0.02663753740489483, 0.05565767362713814, -0.061785370111465454, -0.006040777545422316, -0.09689415991306305, -0.02637186273932457, -0.005311141721904278, -0.05514778941869736, 0.014501948840916157, 0.0010709459893405437, 0.05328173190355301, 0.008230214938521385, 0.01272464357316494, -0.05631214752793312, -0.08821550756692886, -0.0406155027449131, -0.04618348553776741, -0.01971629448235035, -0.08851664513349533, 0.014054492115974426, 0.07287019491195679, 0.008373555727303028, -0.03190770745277405, -0.08274958282709122], [0.005206666886806488, 0.013701856136322021, 0.07518776506185532, -0.06337630748748779, -0.045653149485588074, 0.01128058135509491, -0.08164369314908981, -0.04770763963460922, -0.0593196339905262, -0.060630619525909424, -0.08327924460172653, -0.07654017210006714, 0.004951350390911102, -0.05801822245121002, -0.06211574003100395, 0.05118604749441147, 0.0703292265534401, 0.08061487227678299, 0.08595360070466995, 0.0165165513753891, 0.05594389885663986, 0.08591526001691818, -0.017096437513828278, -0.039881084114313126, 0.027880564332008362, -0.05675780028104782, 0.0007653236389160156, -0.06432197988033295, 0.06660185009241104, 0.05504859238862991, -0.05158134549856186, -0.0038757100701332092, 0.07116881757974625, -0.030965130776166916, -0.05716075748205185, 0.08520177751779556, 0.06163676828145981, -0.07173416763544083, 0.03235139697790146, 0.021752335131168365, 0.0772767886519432, -0.020174823701381683, 0.040210507810115814, -0.06258497387170792, -0.010017074644565582, 0.04739128798246384, 0.0652875080704689, -0.07616483420133591, 0.016595065593719482, -0.08077912032604218, -0.04123835265636444, 0.029162518680095673, -0.0008644014596939087, -0.04896390065550804, 0.0028384849429130554, -0.08531471341848373, -0.01782292127609253, 0.0034510791301727295, -0.08312194049358368, 0.006528966128826141, 0.06768401712179184, -0.025660589337348938, 0.06234332174062729, -0.03203306719660759, 0.031400591135025024, -0.037102438509464264, -0.027423731982707977, -0.05594466254115105, -0.07414015382528305, -0.06965749710798264, 0.005389504134654999, -0.07667023688554764, -0.050952039659023285, -0.05722369998693466, -0.04242149740457535, 0.07600400596857071, -0.02131354808807373, -0.07812728732824326, -0.06804672628641129, -0.04482506960630417, 0.07773105055093765, -0.06097624450922012, 0.04005367308855057, 0.019025884568691254, -0.0800042599439621, -0.03655953332781792, -0.057703081518411636, -0.010845080018043518, -0.054207030683755875, -0.0841989815235138, 0.0100950226187706, 0.0445001944899559, -0.0268440842628479, -0.009179666638374329, -0.07192787528038025, -0.06806743144989014, -0.010388962924480438, 0.04673738032579422, -0.06376171112060547, -0.08685401827096939, -0.005229540169239044, 0.06292534619569778, -0.07424766570329666, 0.04279210418462753, -0.04940997064113617, 0.030887223780155182, -0.020551182329654694, 0.04926247149705887, 0.0060700923204422, 0.0645538792014122, -0.04176834970712662, 0.025700680911540985, -0.08513946831226349, -0.028222814202308655, 0.021344415843486786, 0.061316050589084625, -0.0020525306463241577, -0.04201962798833847, 0.05049806088209152, 0.03409840166568756, 0.02739107608795166, 0.03188510984182358, -0.08381766825914383, -0.07836809754371643, -0.039684198796749115, 0.019979283213615417, -0.03436557948589325, 0.02315782755613327], [0.03342913091182709, 0.004650644958019257, -0.014192663133144379, 0.022948801517486572, -0.06624684482812881, 0.08580119162797928, -0.05761202424764633, 0.07633785158395767, 0.034203484654426575, -0.016774974763393402, -0.02687855064868927, 0.06905011087656021, 0.08730433136224747, 0.04906792193651199, 0.009532570838928223, -0.013867489993572235, 0.041359178721904755, 0.01023738831281662, -0.005122572183609009, 0.071113221347332, -0.007366448640823364, -0.047186799347400665, -0.03233811631798744, -0.005067422986030579, -0.01878400892019272, -0.08183668553829193, 0.006907984614372253, 0.025567471981048584, -0.04047158360481262, -0.07374565303325653, -0.04626023396849632, -0.056380417197942734, -0.08417754620313644, 0.018758319318294525, -0.024183429777622223, 0.035576753318309784, -0.08380601555109024, 0.028623543679714203, -0.011596843600273132, -0.06344267725944519, 0.07725193351507187, -0.007781192660331726, 0.0529061034321785, -0.051736846566200256, 0.0007472112774848938, -0.04486307501792908, 0.07132119685411453, 0.04299435764551163, -0.04882720857858658, -0.022714145481586456, -0.003822125494480133, -0.0843546912074089, -0.07225659489631653, 0.05824630707502365, 0.03067231923341751, -0.08662810176610947, -0.026492908596992493, 0.06319866329431534, 0.057547010481357574, 0.08339986950159073, -0.05466260761022568, 0.006573371589183807, -0.02907087281346321, -0.024894528090953827, 0.05534554272890091, -0.01202867180109024, -0.08660561591386795, 0.08683129400014877, -0.05648697540163994, -0.08530981093645096, -0.00028207898139953613, 0.02180372178554535, -0.0665300041437149, -0.06872355192899704, -0.07484778761863708, 0.08771150559186935, 0.06896268576383591, 0.045411862432956696, -0.007457703351974487, -0.031968142837285995, -0.003815978765487671, -0.0023297592997550964, 0.016584277153015137, 0.07234067469835281, 0.02194540947675705, -0.061531227082014084, -0.06092449277639389, 0.08572549372911453, -0.04785904288291931, 0.0536833330988884, -0.055908121168613434, 0.0006281137466430664, -0.08686564117670059, -0.02079002559185028, 0.02180928736925125, 0.056642912328243256, -0.0011138692498207092, -0.07375670224428177, -0.04860551655292511, 0.014014996588230133, -0.013790816068649292, -0.06466084718704224, -0.009421952068805695, 0.012959957122802734, -0.07411700487136841, -0.03136197477579117, 0.06167977303266525, -0.054108504205942154, 0.0730677917599678, -0.06805089116096497, 0.08341293781995773, -0.047968540340662, -0.046688612550497055, 0.04926592856645584, -0.05788978189229965, 0.050478093326091766, -0.07881900668144226, 0.018147103488445282, -0.002869747579097748, 0.07106975466012955, 0.014283671975135803, -0.07643958926200867, 0.03405836969614029, -0.06637649983167648, -0.04276487976312637, 0.07454902678728104, -0.04587484151124954, 0.02050139755010605], [-0.07157950103282928, 0.07607503980398178, 0.016117200255393982, -0.04354381561279297, 0.05370612442493439, 0.06623432785272598, -0.03933495655655861, -0.0702534094452858, -0.022617299109697342, -0.07502932846546173, -0.05824464559555054, -0.06815502047538757, -0.0619346983730793, 0.04939638078212738, 0.05212390050292015, -0.016990141943097115, -0.06050947308540344, 0.03527861833572388, -0.09430409967899323, 0.012832525186240673, -0.03777899593114853, -0.07996855676174164, -0.03111647441983223, 0.05797242000699043, -0.045414797961711884, -0.02356463111937046, -0.06730085611343384, -0.051603011786937714, 0.06678362190723419, 0.04213308170437813, -0.05358690395951271, 0.013213790021836758, 0.03815460577607155, -0.08870004117488861, 0.04402414709329605, -0.03455556556582451, -0.0733976736664772, -0.07881900668144226, -0.060854535549879074, 0.030235745012760162, -0.1041942909359932, -0.018850110471248627, 0.009502153843641281, 0.05994364246726036, 0.062328923493623734, 0.08886196464300156, -0.001809591194614768, 0.013966086320579052, -0.04715540632605553, 0.05784367769956589, -0.040699608623981476, -0.031568869948387146, -0.04966209828853607, 0.04150231555104256, 0.03704121708869934, 0.03364301845431328, 0.062128741294145584, 0.0034969202242791653, 0.01784752868115902, -0.08703485876321793, 0.047752946615219116, 0.06646789610385895, -0.019291507080197334, 0.04721847176551819, 0.030407926067709923, -0.09700293093919754, -0.06009352207183838, -0.09203631430864334, 0.007594388909637928, 0.057642534375190735, 0.053930751979351044, -0.0952548012137413, 0.04890015721321106, 0.0070556518621742725, -0.028668783605098724, -0.056965798139572144, -0.0964977964758873, -0.005608703941106796, -0.01055703405290842, -0.06656081974506378, 0.06932151317596436, 0.05336551368236542, 0.022358767688274384, -0.07592927664518356, 0.0066066947765648365, -0.0202281903475523, -0.039995886385440826, -0.05244193971157074, -0.03627819940447807, 0.022852569818496704, -0.06585772335529327, -0.018201911821961403, 0.08648145198822021, 0.05772562697529793, 0.04129739850759506, 0.03852356970310211, 0.07495525479316711, 0.05502934753894806, -0.05364033579826355, -0.057645078748464584, -0.006309361197054386, -0.013195923529565334, 0.05519501864910126, -0.09280995279550552, -0.03788040205836296, -0.002184266457334161, 0.05061080679297447, 0.043756745755672455, 0.028022823855280876, 0.03636228293180466, -0.08850222826004028, -0.012304028496146202, -0.05598011612892151, -0.09845512360334396, 0.012466910295188427, -0.02104775607585907, -0.04072289168834686, 0.03287513926625252, 0.016764288768172264, 0.041016627103090286, 0.005060628056526184, -0.02851109765470028, 0.0013030857080593705, -0.01971074938774109, -0.07935306429862976, 0.015816019847989082, -0.04260453209280968, -0.01196358259767294], [0.06736380606889725, -0.05860702693462372, -0.07589420676231384, 0.06532605737447739, -0.0027305856347084045, -0.004010692238807678, 0.006281830370426178, 0.003936782479286194, 0.030678361654281616, 0.08071766048669815, -0.034618914127349854, 0.03427876532077789, 0.010533459484577179, 0.05082488805055618, -0.07066227495670319, -0.00485578179359436, -0.08315439522266388, 0.02110747992992401, 0.049253664910793304, -0.016496911644935608, 0.08612588793039322, -0.08180786669254303, -0.0734592154622078, 0.040011562407016754, 0.07198274880647659, -0.0252680703997612, -0.0021819397807121277, 0.04949944466352463, -0.03539915755391121, 0.0695030465722084, 0.08111228793859482, 0.02427445352077484, -0.002260468900203705, -0.009215198457241058, -0.07359059900045395, 0.04063531011343002, -0.015515245497226715, -0.040476296097040176, -0.03976370766758919, 0.03257016837596893, 0.07897234708070755, -0.08319728821516037, -0.03749017044901848, 0.010117530822753906, -0.039860475808382034, -0.020058751106262207, -0.01021963357925415, -0.041032422333955765, 0.04584241658449173, 0.07543740421533585, -0.0480646975338459, -0.05535684898495674, -0.0004404783248901367, -0.01018303632736206, 0.07888152450323105, -0.05049828812479973, -0.04129435494542122, 0.0790029838681221, -0.03827280551195145, -0.015607312321662903, 0.0075151920318603516, 0.04450484365224838, -0.015833377838134766, 0.06822935491800308, -0.07294102013111115, -0.06875427067279816, 0.04676901549100876, -0.007481463253498077, -0.08416702598333359, -0.035071078687906265, 0.05250563472509384, -0.08780507743358612, 0.028956107795238495, -0.0249406099319458, -0.04800960049033165, 0.036374785006046295, 0.009808868169784546, -0.028808340430259705, -0.06257949024438858, -0.057765763252973557, -0.035881444811820984, 0.0703815445303917, 0.07922931760549545, 0.01129700243473053, 0.04916743189096451, -0.08538122475147247, 0.024133779108524323, -0.029407374560832977, -0.06167463958263397, -0.05375266820192337, 0.07534679025411606, 0.007173463702201843, 0.027356229722499847, -0.086670882999897, -0.07705099135637283, 0.049231283366680145, -0.07318335771560669, -0.0059242695569992065, -0.012093774974346161, -0.06648928672075272, 6.685405969619751e-05, -0.055981896817684174, 0.07625914365053177, 0.0028198882937431335, 0.034902215003967285, -0.05550951510667801, 0.030534960329532623, 0.012922726571559906, -0.015302196145057678, -0.0851006954908371, 0.08339326828718185, -0.002100221812725067, -0.04834841936826706, -0.07791552692651749, -0.06021159887313843, 0.007219135761260986, 0.03295647352933884, 0.042412929236888885, 0.04187522083520889, -0.008503749966621399, -0.012742973864078522, -0.06841918081045151, 0.07553046196699142, -0.07899657636880875, -0.05025062337517738, -0.08305713534355164, 0.010432757437229156, -0.05544641241431236], [-0.015486483462154865, 0.020814254879951477, 0.03866753727197647, 0.02837226167321205, -0.07747877389192581, 0.025225656107068062, 0.009544691070914268, 0.04829787090420723, -0.060816746205091476, 0.0376131497323513, -0.06961876153945923, 0.0066315592266619205, -0.008290193974971771, 0.0037646437995135784, -0.044878873974084854, -0.046744730323553085, -0.09672842174768448, -0.07854519784450531, -0.004334683530032635, 0.03564641997218132, -0.05090896040201187, 0.043336667120456696, -0.061199165880680084, -0.05076861009001732, -0.09217379242181778, 0.016990844160318375, -0.03669894114136696, 0.01906147226691246, 0.036232929676771164, -0.058117255568504333, -0.03338247165083885, -0.07819302380084991, -0.05305711552500725, 0.0737866684794426, -0.08926223963499069, -0.04452332481741905, -0.031016862019896507, -0.09199650585651398, -0.03373601287603378, -0.029420292004942894, 0.06197592243552208, -0.0014828327111899853, -0.03342955932021141, 0.0421135388314724, -0.010732598602771759, 0.018978970125317574, -0.0761546939611435, 0.07163910567760468, -0.028120409697294235, -0.07874388992786407, -0.031193120405077934, -0.05580390617251396, -0.0904739499092102, -0.0800817608833313, -0.04956270009279251, 0.011722283437848091, -0.047421615570783615, -0.013155731372535229, 0.03235791251063347, 0.05479048192501068, -0.0667966976761818, -0.027082907035946846, 0.06351269781589508, 0.04452158138155937, 0.00768363056704402, -0.09177087992429733, 0.05343802273273468, 0.05575789138674736, 0.05754229053854942, 0.03745928779244423, 0.05847058817744255, 0.06789080798625946, -0.09353064745664597, 0.06343510746955872, 0.04115229845046997, -0.07964392751455307, -0.028084220364689827, 0.0563909113407135, 0.008518647402524948, -0.06489012390375137, -0.09395460039377213, -0.08184035867452621, 0.004119887948036194, -0.015336500480771065, -0.07133962959051132, 0.045086804777383804, 0.014444482512772083, -0.01027008518576622, 0.0412837378680706, 0.05125707760453224, -0.058371417224407196, -0.019926434382796288, -0.010873217135667801, -0.021062282845377922, -0.07738729566335678, 0.059447430074214935, -0.021812446415424347, -0.0736699104309082, 0.02254297211766243, -0.0351407416164875, -0.08217890560626984, 0.04743366315960884, 0.0002529489283915609, -0.00177974090911448, -0.058294788002967834, -0.005527372006326914, -0.09596296399831772, 0.06669867038726807, 0.014768149703741074, -0.06411714106798172, 0.061812613159418106, 0.06511715054512024, -0.0762910470366478, 0.038531988859176636, -0.05884192883968353, -0.09245182573795319, -0.0911848396062851, 0.057957254350185394, -0.05672970786690712, 0.06923501193523407, -0.08191855251789093, 0.06073292717337608, 0.04455985873937607, -0.039229318499565125, -0.05512898787856102, -0.09327449649572372, 0.0575631707906723, -0.057932768017053604], [0.012143388390541077, 0.04840197414159775, -0.018579192459583282, -0.03272220119833946, 0.04855185002088547, 0.01863817870616913, -0.015331000089645386, -0.024863868951797485, 0.020566746592521667, 0.06038361042737961, -0.08455292135477066, 0.01042453944683075, 0.013836316764354706, 0.012869395315647125, 0.003428064286708832, -0.03555038198828697, 0.04194403439760208, 0.0859876200556755, 0.0006033927202224731, -0.055557090789079666, -0.03330059349536896, -0.020774416625499725, -0.06450506299734116, 0.017574645578861237, -0.0802156925201416, -0.021416597068309784, 0.0445680096745491, 0.07559479027986526, 0.06919275969266891, 0.01848367601633072, 0.06848985701799393, 0.04275352507829666, -0.0027525052428245544, -0.07462157309055328, -0.05628354474902153, 0.01360030472278595, 0.0013825967907905579, -0.03355955332517624, -0.04492267966270447, 0.027290217578411102, 0.01144629716873169, 0.02670292556285858, -0.0591091513633728, 0.02345254272222519, 0.00996207445859909, -0.08197864145040512, -0.05799046903848648, 0.024230942130088806, -0.021278798580169678, 0.07554794102907181, -0.005504876375198364, -0.08512076735496521, 0.05863436311483383, 0.06719908863306046, -0.04214484617114067, -0.030683863908052444, -0.035506442189216614, -0.018793776631355286, -0.01410706341266632, 0.08024261146783829, 0.0029139891266822815, -0.04086504504084587, -0.02865935117006302, -0.028713520616292953, 0.009241431951522827, -0.07992422580718994, -0.03277367353439331, -0.07539334893226624, -0.036050062626600266, 0.02735380083322525, -0.03607708960771561, 0.0021966546773910522, 0.018374890089035034, 0.07957636564970016, -0.03519066795706749, -0.03536257520318031, -0.06059370934963226, -0.04362313449382782, -0.08042968064546585, 0.03468715399503708, 0.013539381325244904, -0.06773564219474792, -0.03561972454190254, -0.03985419496893883, -0.012507438659667969, -0.0009694397449493408, -0.021637819707393646, -0.029285412281751633, -0.015196263790130615, -0.0655326098203659, -0.08617054671049118, -0.05536822974681854, 0.009145401418209076, 0.01992609351873398, -0.023614108562469482, -0.0007506459951400757, 0.07564439624547958, 0.048383019864559174, 0.03281959146261215, 0.08601049333810806, -0.041656069457530975, -0.05590356886386871, -0.04181397333741188, -0.020348086953163147, 0.015870973467826843, -0.012180544435977936, 0.03059571236371994, -0.05357860028743744, 0.006330624222755432, -0.07299726456403732, 0.014810904860496521, 0.03172673285007477, 0.02418503910303116, 0.0871354267001152, 0.029192715883255005, 0.05806487053632736, -0.005576282739639282, -0.0834578201174736, 0.07399026304483414, -0.050937142223119736, 0.007551275193691254, -0.00996863842010498, 0.013403035700321198, 0.009067229926586151, 0.02418806403875351, -0.008331000804901123, 0.0630030408501625, 0.08024216443300247], [-0.06681431084871292, 0.0014417431084439158, -0.0770534947514534, -0.08410589396953583, -0.061882276087999344, 0.05979468673467636, -0.027860824018716812, -0.021090326830744743, -0.08731292933225632, -0.06440044939517975, 0.015101627446711063, -0.02787274681031704, 0.0371440090239048, 0.06259994953870773, -0.006106623448431492, -0.04960457608103752, 0.06673470139503479, -0.028674526140093803, -0.011596409603953362, -0.053819142282009125, 0.05429347604513168, 0.0688638836145401, 0.04555961862206459, 0.011307147331535816, -0.07418560236692429, 0.04941534250974655, 0.005103547591716051, -0.053339987993240356, -0.049494992941617966, -0.0856841579079628, 0.006798676215112209, 0.04012949392199516, -0.011934966780245304, -0.008207319304347038, -0.09194396436214447, -0.08005602657794952, 0.04484401270747185, -0.0034267401788383722, -0.09232395887374878, -0.07126691192388535, -0.02514626644551754, -0.0827939584851265, -0.09075126051902771, -0.08765232563018799, 0.020869821310043335, 0.06813555210828781, -0.03134830668568611, 0.03004368022084236, 0.009591029025614262, -0.0821724608540535, -0.05246447026729584, 0.05596015974879265, -0.0033081253059208393, -0.04836004599928856, -0.0033476108219474554, -0.0770137682557106, -0.006964812520891428, 0.00424935482442379, 0.04434022307395935, -0.0643964484333992, -0.06455417722463608, 0.03353123366832733, 0.007635440211743116, -0.02046642079949379, 0.036807142198085785, -0.018769241869449615, -0.020316338166594505, 0.03544260188937187, -0.019402576610445976, -0.0193422082811594, -0.01395027618855238, 0.040093302726745605, -0.048867709934711456, 0.019260337576270103, -0.03726712241768837, -0.05799567699432373, -0.009077388793230057, 0.06528054922819138, 0.011990549974143505, 0.014042801223695278, -0.04632407799363136, 0.012158692814409733, -0.030368676409125328, 0.06328977644443512, 0.05680454149842262, -0.01671551913022995, 0.06019783020019531, 0.018315719440579414, -0.059034742414951324, 0.034769948571920395, 0.06028697267174721, 0.03882206976413727, 0.011358494870364666, -0.08741506189107895, -0.07687787711620331, -0.058148093521595, -0.024283865466713905, -0.06427314877510071, -0.10068882256746292, -0.07965721189975739, -0.06315171718597412, 0.04745340347290039, 0.0018942749593406916, 0.06851323693990707, -0.013050947338342667, 0.015951592475175858, -0.03352927044034004, 0.02029263786971569, 0.001282022218219936, -0.08718306571245193, 0.056528422981500626, 0.012947271578013897, 0.008703377097845078, -0.10170450806617737, 0.022678401321172714, 0.0035383920185267925, -0.006234144326299429, -0.04050445929169655, 0.047261688858270645, -0.09984634816646576, 0.04446815699338913, 0.05400196462869644, -0.08729416877031326, -0.07247152179479599, -0.025609824806451797, 0.047668151557445526, -0.10040518641471863, -0.05036643147468567], [-0.08481226116418839, -0.006605095230042934, 0.049698106944561005, 0.028750231489539146, 0.05616277456283569, -0.05427897721529007, -0.025443976745009422, -0.09132354706525803, 0.031940218061208725, 0.029277371242642403, -0.07439841330051422, -0.07500790059566498, -0.09631320834159851, -0.012218272313475609, 0.07589378207921982, -0.06358279287815094, 0.047495853155851364, 0.07388795167207718, -0.04873908683657646, 0.05293208360671997, -0.04422100633382797, -0.07726329565048218, -0.041436564177274704, -0.06791621446609497, -0.0935969203710556, 0.05747707560658455, 0.05857759714126587, -0.04726799950003624, 0.05751956254243851, -0.03542044758796692, 0.0688806101679802, -0.06577460467815399, -0.049664389342069626, 0.021787595003843307, -0.0846693143248558, 0.013144991360604763, 0.03343675285577774, -0.042555663734674454, -0.027402855455875397, -0.03158591687679291, -0.04886254295706749, 0.011079465039074421, -0.09502824395895004, 0.04054393991827965, -0.084321528673172, -0.07547962665557861, -0.06233147159218788, -0.08332008868455887, 0.054981816560029984, -0.06298650801181793, 0.04501049593091011, -0.06644310802221298, -0.05246516317129135, -0.03117614984512329, -0.057568006217479706, -0.0558006651699543, 0.06570757925510406, -0.040289901196956635, 0.001136982929892838, 0.054856881499290466, -0.04226921126246452, -0.09418630599975586, 0.011010180227458477, -0.02383267506957054, 0.04906619340181351, 0.02223329059779644, -0.02315462939441204, -0.05400913953781128, -0.05193131044507027, 0.05417128652334213, 0.048355285078287125, 0.029223710298538208, -0.08600343763828278, 0.024439431726932526, 0.02345901168882847, -0.0308267492800951, -0.055021487176418304, -0.044229455292224884, -0.013588964939117432, -0.09785279631614685, -0.047321733087301254, 0.025266133248806, 0.06571411341428757, 0.07003650814294815, 0.0046688406728208065, 0.0745016410946846, 0.031097454950213432, -0.05647770315408707, 0.009772328659892082, 0.03834988549351692, 0.069392628967762, 0.031613707542419434, -0.010972402058541775, 0.04178272560238838, -0.05895712971687317, 0.06593478471040726, 0.003089550416916609, -0.061539676040410995, 0.06951338052749634, 0.03674978390336037, -0.05871247872710228, 0.06620849668979645, 0.022893115878105164, -0.01773776113986969, -0.07799523323774338, -0.09086796641349792, 0.060079291462898254, -0.03977387771010399, -0.01993609592318535, -0.08574490994215012, 0.022996485233306885, 0.05390764772891998, 0.03406742960214615, -0.07171816378831863, -0.03534030169248581, 0.04640732333064079, 0.02846582420170307, -0.08396364748477936, 0.01574365235865116, 0.03841404989361763, -0.09259869158267975, -0.08035412430763245, 0.002566700568422675, 0.04862500727176666, 0.06577451527118683, 0.0017056821379810572, 0.011566586792469025, -0.05875256285071373], [0.03785897046327591, -0.08504211902618408, 0.00840844213962555, 0.08128158003091812, 0.08827600628137589, 0.01767672598361969, -0.0715729221701622, 0.025820665061473846, -0.05089990422129631, -0.032093677669763565, 0.05728059262037277, -0.03336499258875847, 0.012639805674552917, 0.061412014067173004, -0.04822327569127083, 0.02192755788564682, -0.028920628130435944, 0.029161036014556885, -0.004690825939178467, 0.038902513682842255, -0.030238226056098938, -0.07520351558923721, -0.02904375270009041, -0.05513615906238556, 0.08635785430669785, 0.06958559900522232, -0.05742970481514931, 0.054238952696323395, -0.006083928048610687, -0.03018440306186676, 0.01444217562675476, -0.06944247335195541, 0.054032959043979645, -0.04856355860829353, 0.0013222694396972656, -0.06008461117744446, -0.005938731133937836, 0.0775466039776802, 0.0810113474726677, -0.04312991350889206, -0.08042392134666443, -0.044590648263692856, -0.07599447667598724, 0.03604676574468613, -0.06454923748970032, 0.0435900017619133, 0.03827212005853653, 0.001292899250984192, 0.002548038959503174, -0.0016313344240188599, -0.024731799960136414, -0.07225299626588821, -0.04660085216164589, 0.03488179296255112, -0.01897677779197693, -0.043114908039569855, 0.04181598871946335, 0.026980116963386536, 0.017599090933799744, 0.014006145298480988, 0.06020296365022659, 0.03669694811105728, 0.06266047805547714, 0.014420799911022186, -0.049705032259225845, -0.06633671373128891, 0.036683179438114166, -0.061353713274002075, -0.03762238472700119, -0.05373857915401459, 0.03322707116603851, -0.043323714286088943, 0.00592687726020813, 0.0652090385556221, -0.07792399823665619, -0.08466141670942307, -0.03751646727323532, -0.05863334611058235, -0.03739665448665619, 0.03956129401922226, 0.07220319658517838, 0.03279835730791092, -0.05430367588996887, -0.016923457384109497, -0.04476889967918396, -0.010841593146324158, -0.0045961663126945496, -0.06936830282211304, -0.006798729300498962, 0.007266178727149963, 0.05957638472318649, -0.035511281341314316, 0.04123508185148239, 0.011807985603809357, 0.08083503693342209, 0.0006720498204231262, -0.06525140255689621, 0.018645979464054108, -0.03265446051955223, 0.04156225174665451, 0.026334069669246674, -0.009011730551719666, 0.006709776818752289, 0.0003720521926879883, 0.010530263185501099, 0.034493885934352875, -0.04671948403120041, -0.07852064073085785, 0.014197863638401031, -0.017881877720355988, -0.000963948667049408, -0.04192083701491356, -0.035251349210739136, -0.07262906432151794, -0.08799821138381958, -0.055193666368722916, 0.07707677036523819, -0.0445355623960495, 0.06180594116449356, 0.01380908489227295, 0.03977953642606735, -0.07163141667842865, 0.007798418402671814, 0.023599326610565186, 0.07958000153303146, -0.010339610278606415, -0.07329162210226059, -0.05255994200706482], [-0.03210022300481796, 0.06346987932920456, 0.07144258171319962, 0.012137722223997116, 0.02822362631559372, -0.078786201775074, -0.08636842668056488, 0.004610416013747454, -0.09946489334106445, 0.031410206109285355, 0.0038495375774800777, -0.08931389451026917, -0.061600640416145325, 0.06921464949846268, -0.02786058373749256, 0.004801155533641577, 0.07317370176315308, 0.0519101619720459, 0.05601274222135544, -0.03338402882218361, 0.01645044796168804, 0.027484001591801643, -0.017319565638899803, 0.005119340494275093, -0.0032913072500377893, 0.07642699033021927, 0.04469882696866989, 0.07940269261598587, 0.033433664590120316, -0.021203666925430298, -0.06780940294265747, -0.07325346767902374, -0.05240599066019058, -0.019439449533820152, -0.07409118115901947, 0.07555629312992096, -0.06036081165075302, 0.016915494576096535, 0.06982646137475967, -0.028001826256513596, 0.059148505330085754, -0.06284762918949127, -0.04212626814842224, 0.0013367568608373404, -0.07314549386501312, -0.08927908539772034, 0.05131952464580536, -0.04022655636072159, -0.013996059074997902, 0.02490864507853985, -0.060370586812496185, -0.0677473172545433, -0.017156101763248444, -0.07769600301980972, 0.04699679836630821, 0.05197126045823097, -0.008278212510049343, -0.025679895654320717, -0.007854144088923931, 0.06369605660438538, -0.019438505172729492, 0.06621555984020233, 0.07256210595369339, 0.06361782550811768, -0.059332989156246185, -0.059480853378772736, -0.026077909395098686, -0.05081304535269737, 0.00806436873972416, -0.007687983103096485, 0.0028738973196595907, 0.0693964883685112, -0.012228181585669518, -0.011898697353899479, -0.03634566441178322, -0.06476530432701111, 0.05258972942829132, 0.0030587187502533197, 0.075554758310318, -0.05599253252148628, -0.05440830811858177, -0.0943172499537468, 0.07455994188785553, 0.04043018817901611, 0.08390700817108154, -0.027332039549946785, -0.09356945008039474, 0.016636626794934273, -0.06555899232625961, -0.0053490689024329185, -0.0737781748175621, -0.01798117905855179, -0.02118847146630287, 0.07546765357255936, -0.0005538039840757847, 0.07532929629087448, 0.019588490948081017, -0.05875121429562569, 0.04939940199255943, -0.019445689395070076, -0.03027564287185669, 0.06248992308974266, -0.004544680938124657, 0.048776350915431976, -0.06623432040214539, 0.06495816260576248, -0.061307553201913834, 0.01657716929912567, 0.020757144317030907, 0.06744858622550964, -0.078724704682827, -0.04129592329263687, -0.04411846026778221, -0.023691890761256218, -0.017830798402428627, -0.029278025031089783, 0.003938852809369564, 0.008009015582501888, -0.06777530908584595, -0.010991772636771202, -0.0809381827712059, -0.09153344482183456, 0.05665237829089165, -0.05707116425037384, 0.06125836819410324, 0.05287230387330055, 0.07131511718034744, -0.024348421022295952], [-0.019604649394750595, -0.07370942831039429, 0.06320969760417938, 0.008785312063992023, 0.06374268233776093, 0.022677747532725334, 0.028649691492319107, -0.06402411311864853, -0.06273382157087326, -0.03616221249103546, -0.049153707921504974, -0.07777994126081467, -0.05729375034570694, 0.06219400465488434, -0.05953295901417732, -0.008888153359293938, -0.08290713280439377, 0.013266857713460922, -0.08764921128749847, -0.01559834647923708, -0.06987226009368896, -0.09793906658887863, 0.04495661333203316, -0.023320356383919716, -0.07537391781806946, 0.06039487197995186, -0.08680298179388046, -0.03682069480419159, 0.040900662541389465, -0.023772120475769043, -0.05083751305937767, -0.013548524118959904, -0.05761251971125603, 0.004114674404263496, 0.047102008014917374, 0.05755767598748207, -0.06938127428293228, 0.06649478524923325, 0.019850289449095726, 0.029007142409682274, 0.009830712340772152, -0.07242707163095474, -0.04696810618042946, -0.013808631338179111, -0.09098220616579056, -0.010763696394860744, -0.034269191324710846, -0.06434764713048935, -0.013544316403567791, 0.06425591558218002, -0.017432602122426033, 0.051576584577560425, -0.10098875313997269, -0.10027219355106354, -0.09818243980407715, -0.06635590642690659, -0.003057434456422925, 0.0016171671450138092, -0.01187053695321083, 0.011614019982516766, -0.02321941778063774, -0.026625238358974457, -0.06346145272254944, -0.03476140275597572, 0.014365763403475285, -0.05780709534883499, -0.03214309737086296, 0.027516406029462814, -0.07430445402860641, -0.08672312647104263, -0.038498684763908386, -0.08104050159454346, 0.047082893550395966, 0.07005632668733597, 0.06242901459336281, -0.09374325722455978, 0.0587528832256794, -0.021318258717656136, 0.012685714289546013, 0.05086115375161171, -0.0581863634288311, 0.05097704008221626, -0.07984231412410736, 0.0004960891674272716, -0.02947678603231907, -0.09176560491323471, -0.02083641290664673, 0.045260604470968246, 0.019279368221759796, 0.04523143544793129, 0.036860380321741104, -0.061995137482881546, 0.05559932440519333, 0.060222696512937546, -0.04409438371658325, -0.07443220168352127, -0.09662370383739471, -0.009003838524222374, 0.07408925890922546, 0.03788483142852783, -0.0023455042392015457, -0.015674082562327385, -0.04445556923747063, -0.017650822177529335, 0.05206482484936714, 0.04827365279197693, 0.03057517670094967, -0.011515608057379723, -0.01097368448972702, 0.04849783703684807, -0.015883836895227432, 0.028895748779177666, -0.021094735711812973, -0.015611481852829456, -0.01219212170690298, -0.03344164416193962, -0.03831322118639946, -0.07068641483783722, 0.04444775730371475, -0.08059122413396835, -0.016129277646541595, 0.06656110286712646, 0.06378762423992157, -0.08162771910429001, -0.052511218935251236, 0.05591581016778946, 0.05563502386212349, -0.09451662003993988], [-0.03372860699892044, -0.0032867516856640577, -0.06117875874042511, -0.013367537409067154, -0.03433901444077492, -0.02731281705200672, -0.02185594104230404, 0.012723714113235474, -0.0525008887052536, 0.07360364496707916, 0.04335109144449234, -0.08501282334327698, 0.06394091993570328, -0.02590150758624077, 0.008553307503461838, 0.06475593149662018, 0.08169826120138168, -0.05481673777103424, -0.07637184858322144, 0.01765630394220352, 0.058736540377140045, -0.023065678775310516, -0.042374201118946075, -0.011101343668997288, 0.03202164173126221, 0.04593060538172722, -0.003862613346427679, 0.018870700150728226, 0.06407791376113892, -0.047090016305446625, 0.04965588450431824, -0.025687552988529205, -0.05950411409139633, -0.03129179775714874, 0.08318289369344711, -0.043402913957834244, 0.05101075768470764, 0.013178842142224312, 0.021688394248485565, -0.04705173149704933, 0.05762970447540283, 0.008943094871938229, -0.07635286450386047, 0.0533909946680069, -0.05887007713317871, -0.004310280084609985, 0.009387711994349957, 0.021472414955496788, -0.022503269836306572, 0.0015087273204699159, 0.01406735647469759, 0.03240194916725159, 0.053668148815631866, 0.028668278828263283, 0.021830104291439056, -0.06592800468206406, -0.029429834336042404, -0.03604601323604584, -0.07132548093795776, -0.07461840659379959, 0.06073065847158432, 0.01763448677957058, 0.021740000694990158, -0.0053747547790408134, -0.04760764539241791, -0.0713176429271698, 0.04511003568768501, 0.005753338802605867, 0.02434658445417881, -0.04448914900422096, -0.0594806894659996, 0.029514532536268234, 0.06581529229879379, -0.024967918172478676, 0.0745372325181961, -0.04804958775639534, 0.006333672441542149, 0.041019339114427567, 0.03490589186549187, -0.000953614478930831, -0.07812196761369705, -0.03836920112371445, 0.031019870191812515, -0.015416821464896202, 0.025971759110689163, -0.0722203180193901, -0.09463557600975037, -0.06377919763326645, -0.04431430250406265, 0.028912797570228577, -0.020244793966412544, -0.08332950621843338, 0.08087998628616333, 0.03185828775167465, -0.021912220865488052, 0.08324858546257019, 0.021198192611336708, -0.025391746312379837, -0.053157657384872437, 0.06952565908432007, -0.0011513078352436423, -0.007611268665641546, -0.021360451355576515, -0.05975600332021713, -0.007565865758806467, 0.07604603469371796, -0.003975077532231808, -0.08299912512302399, -0.00044896602048538625, -0.02243841625750065, 0.03211444988846779, -0.057718805968761444, 