{"encoder.0.weight": [[-0.06181691586971283, -0.0038724318146705627, -0.05594687536358833, -0.024108007550239563, -0.05240345001220703, 0.034779928624629974, -0.021920956671237946, 0.019421227276325226, 0.06679990142583847, -0.07732561975717545, 0.04111707955598831, -0.0317484512925148, 0.01700965315103531, 0.08036480098962784, 0.03761429339647293, -0.015051387250423431, 0.03278146684169769, -0.06478550285100937, 0.037198759615421295, 0.03337441384792328, -0.05859551951289177, 0.052674345672130585, 0.030730605125427246, 0.011602222919464111, -0.007377982139587402, -0.056966859847307205, 0.017748594284057617, -0.02841648831963539, -0.08345475047826767, 0.08822687715291977, 0.0320209339261055, 0.002690739929676056, 0.030203193426132202, -0.04086249694228172, -0.06348486989736557, 0.012290380895137787, 0.06076350063085556, -0.04537723585963249, -0.03266303613781929, 0.024919934570789337, -0.036998387426137924, -0.025164268910884857, -0.0217120423913002, -0.008197486400604248, -0.08654789626598358, 0.020459100604057312, -0.04429924488067627, -0.05427366495132446, 0.08217818289995193, -0.05250242352485657, 0.03742393106222153, -0.0594879575073719, -0.05831592530012131, -0.012278780341148376, -0.055076826363801956, 0.08557049185037613, -0.046957120299339294, -0.012089952826499939, -0.05168221518397331, 0.01737244427204132, -0.052918486297130585, 0.08110689371824265, 0.009175494313240051, -0.04531242325901985, -0.002055734395980835, -0.07111060619354248, 0.08436975628137589, -0.07700832188129425, -0.03957216069102287, -0.007324382662773132, -0.062313154339790344, -0.08052533864974976, 0.07043062895536423, 0.03911038488149643, -0.026287134736776352, 0.026398099958896637, 0.031166277825832367, 0.011039912700653076, 0.06121080368757248, 0.0075994208455085754, -0.07121213525533676, -0.08355873823165894, 0.018147997558116913, 0.029742874205112457, 0.08005481213331223, -0.018632397055625916, 0.035987548530101776, 0.07257495075464249, 0.02585199475288391, -0.07192813605070114, -0.05405446141958237, -0.0570032112300396, 0.020422615110874176, 0.07824636250734329, -0.07661169767379761, 0.0681401714682579, 0.05990908294916153, 0.030072376132011414, 0.011915095150470734, -0.05735281854867935, 0.014703236520290375, -0.045421142131090164, -0.0865015983581543, 0.0034629404544830322, -0.0872286781668663, 0.00613490492105484, 0.009892001748085022, -0.02422308176755905, 0.04271676391363144, -0.07770366966724396, -0.021777279675006866, -0.06752969324588776, -0.05293171852827072, 0.0803171768784523, 0.006988115608692169, 0.020187951624393463, 0.048132725059986115, -0.041907284408807755, 0.06011364609003067, -0.05609534680843353, 0.0029999390244483948, -0.08627704530954361, 0.04854697734117508, 0.019376948475837708, -0.03146576136350632, 0.0247047021985054, -0.0649925023317337, 0.025591187179088593], [-0.06202992424368858, 0.030052896589040756, 0.04314113408327103, -0.011873085983097553, 0.05310120806097984, -0.0024428244214504957, -0.04704151675105095, -0.08281709998846054, 0.032247334718704224, -0.08351241052150726, -0.033534109592437744, 0.001861965749412775, 0.01356855221092701, -0.04567524790763855, -0.05993887782096863, 0.0003777293604798615, 0.016772150993347168, -0.0008242677431553602, -0.0018835087539628148, 0.03770030662417412, 0.04674940183758736, -0.07064056396484375, 0.07365698367357254, -0.008179564028978348, 0.06681085377931595, 0.0741562470793724, -0.08775573968887329, -0.035579048097133636, 0.052943307906389236, -0.05633403733372688, 0.03668958321213722, 0.025057094171643257, 0.06257587671279907, 0.04822378233075142, -0.003566357074305415, 0.04762763902544975, -0.049787651747465134, 0.031885288655757904, -0.005694287363439798, -0.056408289819955826, -0.024950848892331123, -0.07337182015180588, 0.04104873538017273, -0.03293720260262489, -0.018594494089484215, 0.050988342612981796, -0.04886634275317192, -0.06328720599412918, 0.07805754989385605, 0.08755576610565186, -0.021170053631067276, 0.0014853326138108969, 0.004959412384778261, -0.002709466265514493, 0.03836953639984131, -0.03882361948490143, 0.012261639349162579, 0.053440626710653305, -0.06485136598348618, -0.06225031241774559, 0.00899053830653429, -0.07901371270418167, -0.0900643914937973, -0.031100522726774216, 0.0033916395623236895, -0.08363112807273865, -0.06670098006725311, 0.005062545649707317, 0.07100501656532288, -0.04741077125072479, -0.07044476270675659, -0.032730527222156525, 0.03910136967897415, -0.05455890670418739, -0.001695325248874724, 0.03803976997733116, 0.05143957585096359, 0.06857247650623322, -0.027976490557193756, 0.01675240322947502, 0.002453915076330304, -0.08293074369430542, 0.0002956068201456219, -0.07878232002258301, 0.0844324380159378, -0.010775036178529263, 0.04559480398893356, 0.043897438794374466, -0.04632871225476265, 0.026497717946767807, 0.06482389569282532, -0.02652502804994583, -0.07303871959447861, 0.03835703060030937, 0.046583063900470734, -0.011647727340459824, 0.05809640884399414, -0.04977497085928917, -0.04672600328922272, -0.025230051949620247, -0.04220148175954819, -0.011742413975298405, -0.010700101964175701, -0.04439252242445946, 0.05948849767446518, -0.01615985669195652, -0.020943814888596535, -0.034465059638023376, -0.006052435375750065, 0.06587011367082596, 0.0005572992376983166, -0.04636797308921814, 0.012529697269201279, -0.04534173756837845, 0.023208249360322952, -0.022596649825572968, 0.03619406744837761, -0.023788809776306152, -0.08302166312932968, -0.059089768677949905, -0.07580680400133133, 0.011389427818357944, 0.05180415138602257, 0.03824242204427719, -0.07799342274665833, -0.04877554997801781, 0.007049450650811195, 0.042294640094041824], [0.03883419558405876, -0.03483264520764351, -0.0818299949169159, 0.05213431641459465, -0.05479308217763901, 0.04798223078250885, 0.04363340139389038, -0.049477167427539825, -0.004819958005100489, 0.0032085771672427654, -0.017786871641874313, -0.008158914744853973, -0.08200111240148544, -0.06892190128564835, -0.0600920170545578, 0.009033619426190853, 0.07915351539850235, -0.08832889050245285, -0.04869484528899193, -0.025374041870236397, -0.022880900651216507, 0.05015164613723755, 0.03510326147079468, 0.022316468879580498, 0.04642955958843231, 0.048367902636528015, 0.019414998590946198, -0.021730922162532806, 0.060101915150880814, 0.05607082322239876, -0.06280126422643661, -0.022012939676642418, 0.016891879960894585, 0.0494266152381897, -0.07119863480329514, -0.025365842506289482, 0.030109530314803123, -0.06136741489171982, -0.04166441783308983, -0.07799246907234192, -0.039143241941928864, -0.060630813241004944, -0.0330185741186142, 0.021221822127699852, -0.02625240944325924, -0.002954071154817939, 0.01284694392234087, 0.009260505437850952, 0.05182256922125816, 0.017162824049592018, 0.050457436591386795, 0.061752669513225555, 0.010990923270583153, 0.06883585453033447, -0.06616097688674927, -0.03483454883098602, 0.06893303990364075, 0.019835906103253365, 0.049299757927656174, 0.04620134085416794, -0.0367007814347744, -0.06171419844031334, -0.07737692445516586, -0.0503016896545887, -0.030276954174041748, 0.05156690999865532, 0.0428486131131649, -0.0007831021794117987, -0.0499800406396389, -0.06936748325824738, -0.06956733763217926, -0.07636287063360214, -0.0119135407730937, 0.04955975338816643, 0.021686628460884094, -0.0013360499870032072, -0.06453105807304382, 0.07883094251155853, -0.071943499147892, 0.03601253405213356, 0.05820901319384575, -0.03832601010799408, -0.06722929328680038, -0.026310859248042107, 0.014330250211060047, -0.05162856727838516, -0.02812984772026539, -0.0733700841665268, 0.06219227984547615, 0.060423433780670166, -0.036447811871767044, 0.016359487548470497, 0.031804610043764114, 0.022775817662477493, 0.014421450905501842, -0.07511301338672638, 0.0672214925289154, -0.0894870012998581, -0.06363386660814285, -0.0020943544805049896, -0.02505340240895748, -0.07827681303024292, 0.08413926512002945, -0.05191560834646225, -0.06744758039712906, 0.028577687218785286, -0.06539064645767212, -0.035783763974905014, -0.00354767800308764, 0.041234634816646576, 0.06704039126634598, -0.0682629868388176, 0.07471519708633423, -0.08442085236310959, 0.018884791061282158, 0.02470736764371395, 0.07820041477680206, 0.06864843517541885, 0.051391780376434326, -0.03495432436466217, 0.06848590075969696, -0.077372245490551, -0.07086339592933655, -0.07730522751808167, -0.008694952353835106, 0.0723390057682991, 0.052474454045295715, 0.049204085022211075], [0.03129133954644203, -0.08759356290102005, -0.0741545781493187, 0.06783722341060638, -0.08547357469797134, 0.05179044231772423, -0.10504835844039917, -0.10424105823040009, 0.06456832587718964, -0.055876363068819046, 0.05158187821507454, 0.06547406315803528, -0.06271803379058838, -0.03809709474444389, -0.07154619693756104, -0.04083221033215523, -0.007219390943646431, 0.04157042130827904, 0.0448528528213501, 0.026612386107444763, 0.06500940024852753, -0.005068245809525251, -0.035591479390859604, 0.07370321452617645, -0.0418577641248703, -0.04949023947119713, -0.049412164837121964, 0.014684860594570637, 0.025836797431111336, 0.05836784094572067, 0.005276061128824949, 0.05727075785398483, -0.003193207085132599, -0.05984590947628021, -0.09375530481338501, 0.05227751284837723, 0.06385823339223862, 0.02581213042140007, 0.006143626756966114, -0.06270534545183182, 0.03569534793496132, 0.05909173935651779, -0.07677203416824341, -0.015146602876484394, -0.0572485588490963, -0.0929543748497963, -0.013552311807870865, -0.035659875720739365, 0.06696660071611404, 0.035634320229291916, -0.03877054154872894, -0.06887093186378479, -0.009603399783372879, 0.016049111261963844, 0.029331550002098083, -0.015552191063761711, -0.010166147723793983, -0.009408754296600819, -0.03191559761762619, -0.010952107608318329, -0.027922319248318672, -0.10430137813091278, -0.08925104886293411, -0.06907183676958084, 0.005269751418381929, -0.0880313366651535, -0.05097083002328873, 0.04533116891980171, -0.03688949719071388, 0.06616484373807907, 0.04700019955635071, -0.05228343605995178, -0.039960913360118866, 0.050454381853342056, 0.017856581136584282, -0.05865075811743736, -0.004309562966227531, -0.0737370029091835, 0.009748728014528751, -0.039689503610134125, -0.06362754106521606, 0.04608111083507538, 0.03363736346364021, 0.016571123152971268, -0.00013368458894547075, -0.018051572144031525, -0.058309875428676605, -0.06373224407434464, 0.06119379773736, 0.07728560268878937, -0.08135833591222763, -0.09036929905414581, -0.014886125922203064, -0.040500033646821976, -0.03837689757347107, -0.03916635736823082, -0.009791023097932339, -0.02908923663198948, 0.0512208491563797, -0.015948563814163208, 0.04498366266489029, -0.028265096247196198, 0.015170538797974586, -0.017861198633909225, 0.042164333164691925, -0.045601148158311844, -0.07927893847227097, -0.010955610312521458, -0.008129112422466278, -0.010016420856118202, -0.07529914379119873, 0.019984204322099686, -0.015722813084721565, 0.006260257679969072, 0.05607229471206665, -0.04968641698360443, -0.047607604414224625, -0.04516403004527092, 0.04267240688204765, -0.02349567972123623, -0.023943664506077766, -0.089027538895607, 0.023624613881111145, 0.04354178160429001, 0.01753055490553379, -0.013501493260264397, -0.08819492906332016, 0.06454019248485565], [0.07307374477386475, 0.13520286977291107, -0.1131354570388794, -0.030043328180909157, 0.17972804605960846, 0.07454254478216171, 0.07643160969018936, -0.0017194643151015043, -0.08329401165246964, 0.09552919119596481, 0.04855310916900635, -0.047761376947164536, -0.010120882652699947, -0.03870696201920509, 0.016757100820541382, -0.10776343196630478, -0.04958586022257805, -0.10503584146499634, 0.15360935032367706, -0.04518664628267288, 0.018797308206558228, 0.04251246526837349, 0.06642549484968185, 0.11759119480848312, 0.11070377379655838, -0.016729800030589104, 0.07219021022319794, 0.0011968289036303759, 0.05478886887431145, 0.023249898105859756, 0.20656725764274597, 0.06126793473958969, -0.07410780340433121, -0.09280600398778915, 0.16383478045463562, 0.006872338708490133, 0.05808576941490173, -0.013026443310081959, 0.11418025940656662, 0.04254457354545593, 0.06325636059045792, -0.1028391420841217, 0.15166053175926208, 0.07232365012168884, -0.0019130997825413942, -0.040891699492931366, -0.09221941232681274, -0.02122768945991993, 0.03869687020778656, 0.013435575179755688, -0.08607795089483261, -0.009371833875775337, -0.10554936528205872, 0.16644147038459778, 0.12075795978307724, -0.046490926295518875, -0.04033302888274193, -0.01843801885843277, 0.056133072823286057, -0.01650507003068924, -0.03901292383670807, 0.011480800807476044, 0.16215014457702637, 0.1885872334241867, 0.019294338300824165, 0.06430737674236298, -0.02458263374865055, -0.04985621199011803, -0.028765030205249786, -0.05615213140845299, -0.08062073588371277, 0.0022287433966994286, -0.09232598543167114, 0.06024505943059921, 0.03285704553127289, 0.12148202955722809, 0.12344790995121002, 0.013036269694566727, 0.03192057088017464, -0.06997466087341309, 0.03961573913693428, 0.07484260946512222, -0.02982015535235405, 0.06568973511457443, -0.11053860187530518, 0.2503054738044739, -0.1251412034034729, 0.026493996381759644, -0.044990070164203644, -0.11045099049806595, -0.052673839032649994, -0.1972789615392685, 0.04779078811407089, 0.013837119564414024, 0.009656204842031002, 0.01478688232600689, -0.18070527911186218, -0.0479254424571991, -0.03517746180295944, 0.022189505398273468, -0.09168822318315506, -0.017394836992025375, 0.0283046904951334, 0.010652506723999977, -0.16728541254997253, -0.06495986878871918, -0.08464913815259933, 0.02731872908771038, -0.02161688730120659, 0.007995245046913624, 0.034101452678442, -0.06523255258798599, 0.07739584147930145, 0.16298621892929077, -0.0454324409365654, 0.005710617173463106, -0.018230875954031944, -0.016429563984274864, -0.030422383919358253, -0.001914055785164237, 0.06546664237976074, 0.20356479287147522, -0.09514380246400833, 0.028047047555446625, -0.09469767659902573, -0.0939570963382721, -0.0028287319000810385, 0.11930670589208603], [-0.05067099630832672, 0.005050927400588989, 0.04112730175256729, 0.029077909886837006, -0.016707874834537506, -0.030844781547784805, 0.03913114219903946, -0.05273281782865524, 0.006798349320888519, 0.043936751782894135, -0.0016678795218467712, -0.0022721290588378906, 0.035949841141700745, -0.02099929004907608, -0.020281009376049042, 0.06663999706506729, 0.043149881064891815, -0.02869037166237831, 0.0766814723610878, -0.08474413305521011, 0.017485126852989197, 0.0613270029425621, 0.014905937016010284, -0.07420443743467331, -0.038713082671165466, -0.011702574789524078, 0.07083738595247269, -0.05779307335615158, 0.034196414053440094, -0.06745371222496033, -0.034217506647109985, -0.08080926537513733, -0.03149545565247536, -0.031813379377126694, -0.012451030313968658, 0.05985841900110245, 0.017695724964141846, 0.08009863644838333, -0.008045166730880737, 0.08142980188131332, 0.003791891038417816, -0.06495919823646545, -0.068890780210495, -0.026504024863243103, -0.07198719680309296, 0.010283440351486206, -0.08393877744674683, -0.08681517094373703, -0.05707605183124542, -0.0015109255909919739, -0.0334244929254055, 0.06879246979951859, -0.07825494557619095, -0.07135387510061264, 0.07377100735902786, -0.041791655123233795, -0.03194158896803856, -0.07268571853637695, 0.05979745835065842, 0.005449116230010986, 0.04519065469503403, -0.04893062636256218, -0.08715363591909409, -0.06930047273635864, 0.05629103630781174, -0.07297520339488983, -0.015651844441890717, -0.04428434744477272, -0.024686157703399658, -0.054214250296354294, 0.06961113959550858, 0.039842478930950165, 0.07991548627614975, -0.06000480428338051, 0.024340741336345673, -0.0844666063785553, -0.03953865170478821, -0.029015395790338516, 0.011273249983787537, -0.06892626732587814, 0.03248295187950134, 0.07502616196870804, -0.07917866110801697, 0.06290929764509201, -0.03860323503613472, -0.023531049489974976, -0.006719484925270081, 0.0794760063290596, -0.02771352231502533, 0.08692724257707596, 0.07130942493677139, 0.0732373371720314, 0.018851526081562042, 0.017202481627464294, 0.03792455047369003, 0.04075876623392105, 0.03872454911470413, -0.04605555534362793, -0.08729390799999237, 0.042194612324237823, 0.012081697583198547, 0.07840018719434738, -0.06271380186080933, 0.02006092667579651, -0.07411094009876251, 0.0017563924193382263, 0.01800907403230667, 0.07295715063810349, -0.05588774383068085, -0.08699294924736023, 0.06920499354600906, -0.07247388362884521, 0.04821813851594925, -0.026972632855176926, 0.05791950970888138, 0.029454335570335388, 0.04974672943353653, 0.014886848628520966, -0.07206684350967407, 0.00206969678401947, -0.025839991867542267, 0.0419587716460228, -0.007792815566062927, 0.02628999948501587, -0.02524186670780182, -0.042966876178979874, -0.019800737500190735, -0.05192958563566208], [-0.051609933376312256, 0.003973142243921757, -0.0010084998793900013, 0.17150558531284332, -0.11528712511062622, -0.059158727526664734, -0.021337194368243217, 0.023734794929623604, -0.06716278195381165, -0.013393635861575603, -0.06446968764066696, -0.08940134197473526, -0.035529568791389465, -0.15485961735248566, 0.05247389152646065, -0.03948202356696129, -0.00602983171120286, 0.031692467629909515, 0.03198724612593651, 0.0854557454586029, 0.016187172383069992, -0.031542759388685226, 0.09862776100635529, 0.02487252466380596, 0.10916768014431, 0.08195525407791138, 0.07586108148097992, 0.23975051939487457, 0.10503751039505005, -0.09175269305706024, -0.0011796042090281844, 0.024556171149015427, -0.22440418601036072, -0.06941363960504532, 0.06239698454737663, 0.10671775043010712, 0.07732205092906952, 0.05898725986480713, -0.03746306896209717, 0.023961946368217468, -0.005770117975771427, -0.24273575842380524, 0.1586529016494751, -0.04951106756925583, 0.09082396328449249, -0.027597786858677864, -0.025340288877487183, -0.005029161460697651, 0.07634124159812927, -0.003028896637260914, -0.06130402535200119, 0.024899419397115707, 0.09994673728942871, 0.11233046650886536, -0.019803743809461594, -0.13323375582695007, -0.006530606187880039, 0.09633774310350418, 0.016887038946151733, 0.06679345667362213, -0.07982733100652695, -0.012189904227852821, -0.08686713129281998, -0.040724873542785645, -0.12304980307817459, 0.11701939254999161, 0.024129746481776237, 0.08330665528774261, -0.04681294783949852, 0.03236280754208565, -0.02705601416528225, -0.13643547892570496, 0.1863684356212616, 0.0729893296957016, 0.09698361158370972, -0.06763895601034164, 0.05187668278813362, 0.10507862269878387, -0.14149101078510284, 0.06945642828941345, -0.0158622357994318, 0.043031562119722366, 0.03866438940167427, 0.01651105098426342, 0.1460583209991455, 0.08388125896453857, -0.05088508129119873, 0.007182067725807428, -0.12745724618434906, -0.10553358495235443, 0.0001256890536751598, -0.0543552003800869, -0.1334282010793686, 0.0978863313794136, 0.11162260174751282, 0.09002748876810074, 0.019386980682611465, 0.2004060298204422, 0.00793921947479248, -0.02305205538868904, 0.014465739950537682, -0.11986028403043747, -0.03876800090074539, -0.09039658308029175, -0.07687292993068695, 0.19068878889083862, -0.052830714732408524, -0.08698481321334839, -0.007957972586154938, 0.20847104489803314, -0.22102788090705872, 0.05288315564393997, 0.019702071323990822, 0.07686258107423782, 0.0055931685492396355, 0.09089063107967377, 0.021601339802145958, 0.0704309344291687, 0.006091623101383448, -0.04486018046736717, -0.013588652946054935, 0.050037682056427, -0.048124246299266815, 0.12158291041851044, 0.1400054693222046, -0.12522469460964203, 0.026507016271352768, -0.12039123475551605], [0.04944566637277603, -0.0654052123427391, 0.050195831805467606, 0.06393968313932419, -0.03378550708293915, -0.06852317601442337, 0.017792370170354843, 0.07936811447143555, -0.0706559494137764, -0.09475772082805634, 0.04230401664972305, 0.06409025937318802, 0.036444876343011856, -0.05692225694656372, -0.08068527281284332, -0.06168423593044281, -0.04795258864760399, 0.03588475286960602, -0.0455578975379467, -0.022164680063724518, -0.018562501296401024, -0.0854988694190979, -0.0065731145441532135, 0.0804099515080452, 0.006553543731570244, 0.06583449989557266, -0.028911037370562553, 0.01042436808347702, -0.09281015396118164, 0.08112483471632004, -0.017166873440146446, 0.041548725217580795, 0.004882734268903732, -0.08070454001426697, 0.05500326305627823, -0.05655553191900253, -0.08977600932121277, 0.008177059702575207, 0.06278779357671738, -0.0035659093409776688, -0.035924192517995834, 0.005853950511664152, -0.07600141316652298, -0.036677077412605286, -0.0909840315580368, -0.08007355779409409, -0.06750723719596863, -0.08755398541688919, 0.032228872179985046, -0.04904581978917122, 0.07457038015127182, 0.031650375574827194, 0.018757836893200874, -0.03667020797729492, 0.07556675374507904, 0.06601785868406296, 0.06411316245794296, 0.019851239398121834, -0.0637991726398468, 0.049603939056396484, 0.006443794351071119, 0.028181297704577446, -0.04581484943628311, -0.009402686730027199, -0.08102485537528992, 0.0642085075378418, 0.01779591105878353, -0.045897580683231354, -0.09047117084264755, 0.017328601330518723, -0.023682819679379463, 0.0753055289387703, 0.062368299812078476, -0.028917690739035606, 0.06377465277910233, 0.029609665274620056, 0.046498727053403854, 0.04803915321826935, 0.07322105020284653, 0.064499631524086, -0.0022372198291122913, 0.018612122163176537, 0.038431428372859955, -0.0009022454614751041, -0.03052128478884697, -0.009249530732631683, -0.061033107340335846, -0.028496799990534782, 0.014888635836541653, -0.03191160410642624, 0.05056678503751755, -0.0725100114941597, -0.049139559268951416, 0.042355652898550034, -0.016630887985229492, -0.06421349197626114, 0.06380719691514969, -0.026342136785387993, -0.07299068570137024, -0.003993834834545851, -0.0719759538769722, 0.029501156881451607, -0.09236227720975876, -0.02263818122446537, -0.02947637066245079, 0.012267246842384338, 0.0831487625837326, -0.0009107370860874653, 0.05934160202741623, -0.058312952518463135, -0.09425952285528183, 0.05338955298066139, 0.044952791184186935, -0.0658489316701889, -0.0920342430472374, -0.01918928697705269, 0.017283231019973755, 0.0011502503184601665, 0.04223775863647461, -0.025284547358751297, -0.06333108991384506, -0.08100640773773193, 0.030503900721669197, -0.08904660493135452, 0.04388309270143509, -0.009594886563718319, -0.015955662354826927, -0.08643168210983276], [-0.0011474441271275282, 0.069871686398983, -0.043230220675468445, -0.02960095927119255, -0.03492435812950134, 0.052172932773828506, 0.02734532207250595, -0.06222095340490341, -0.014485026709735394, 0.05113692954182625, 0.06832106411457062, 0.03436627611517906, -0.03180680796504021, 0.005257254932075739, -0.042242199182510376, -0.07745727151632309, -0.051426276564598083, 0.013906399719417095, -0.02840389683842659, 0.00410466268658638, 0.06505903601646423, -0.0599917434155941, 0.05814524367451668, -0.0625525563955307, 0.005607301834970713, 0.056540995836257935, 0.03966960310935974, 0.017316104844212532, 0.021145224571228027, -0.03514683619141579, 0.061718519777059555, 0.07638286799192429, 0.06617091596126556, 0.012469406239688396, 0.07901104539632797, -0.07326098531484604, -0.043902356177568436, 0.0631357729434967, 0.0024927856866270304, 0.012448946945369244, -0.07063445448875427, -0.07658588141202927, -0.07350639998912811, 0.024970129132270813, -0.024488549679517746, 0.015908271074295044, -0.09544986486434937, 0.015078174881637096, 0.0703836977481842, -0.07330416887998581, -0.04227191582322121, -0.028757387772202492, 0.07657745480537415, -0.02904598042368889, 0.07347371429204941, -0.08752060681581497, -0.08280251920223236, -0.06258361041545868, -0.014241284690797329, -0.0783698633313179, 0.0777156800031662, -0.06900795549154282, 0.07597433775663376, 0.028513804078102112, -0.011805866844952106, 0.0038453221786767244, -0.07660764455795288, -0.0906279981136322, -0.02271312288939953, -0.04176739603281021, -0.0304245725274086, 0.07676099240779877, -0.03905082494020462, 0.019142288714647293, 0.04984331876039505, -0.014547844417393208, 0.04494393989443779, 0.03647353872656822, -0.040367964655160904, -0.01296838466078043, 0.07524607330560684, -0.06531929969787598, 0.02370351552963257, -0.07564467191696167, -0.09687651693820953, 0.024283049628138542, -0.03530752658843994, 0.07302428781986237, -0.04416492208838463, -0.050434939563274384, 0.06304596364498138, 0.05503447726368904, -0.09533129632472992, -0.018374746665358543, 0.005068356636911631, 0.017938440665602684, -0.044934988021850586, 0.027405433356761932, -0.00766704510897398, 0.03972131758928299, -0.07724406570196152, -0.09913524985313416, 0.022677099332213402, -0.06628821045160294, 0.07397184520959854, -0.0421963669359684, -0.0258944034576416, -0.07612842321395874, 0.013067850843071938, -0.013517851941287518, -0.03647872060537338, 0.010383939370512962, 0.05742036923766136, -0.09473074972629547, 0.02720019221305847, -0.051151443272829056, -0.007057019975036383, -0.06317027658224106, -0.09314269572496414, 0.008504223078489304, -0.04521123319864273, -0.02401222474873066, 0.05872310325503349, -0.040213871747255325, 0.041218988597393036, 0.00990938488394022, 0.04906245321035385, 0.01666494645178318], [0.047257356345653534, -0.014983892440795898, 0.020877301692962646, 0.013603903353214264, 0.013329319655895233, 0.024402178823947906, -0.04223888739943504, -0.06958845257759094, 0.025744833052158356, 0.05385110527276993, 0.06705085188150406, 0.08406663686037064, -0.08610458672046661, 0.08370514959096909, -0.06497514992952347, -0.07140808552503586, -0.08552628755569458, 0.02898334711790085, -0.060076065361499786, 0.03868108242750168, -0.03830849379301071, -0.07263150811195374, -0.061421580612659454, -0.056561555713415146, -0.035871025174856186, 0.06976219266653061, 0.08396481722593307, 0.07909282296895981, 0.047387443482875824, -0.05325304716825485, 0.028487615287303925, -0.052490655332803726, 0.044041745364665985, -0.01099686324596405, -0.06094992905855179, -0.05624714866280556, 0.06916312128305435, 0.017395123839378357, -0.058807097375392914, 0.07987862080335617, -0.03296558931469917, 0.05436975508928299, -0.0625033751130104, -0.07227403670549393, -0.0704200267791748, -0.01826661080121994, 0.04530160874128342, 0.057393573224544525, 0.02846759557723999, -0.045107465237379074, -0.07472454011440277, -0.06149280071258545, 0.0004227980971336365, 0.07892405241727829, -0.05215644836425781, -0.03804802522063255, -0.016609765589237213, 0.011968746781349182, -0.056718867272138596, 0.001105472445487976, -0.059836775064468384, -0.0670035183429718, 0.01702386885881424, -0.053695082664489746, -0.08312210440635681, 0.05908674746751785, 0.03887411206960678, -0.05204056575894356, -0.06781357526779175, -0.0007633715867996216, -0.05293712392449379, -0.023556850850582123, 0.04312697798013687, 0.02872200310230255, 0.07771577686071396, 0.029951930046081543, 0.035599932074546814, -0.03830653056502342, 0.0388275608420372, 0.058771274983882904, 0.04816301912069321, 0.04076308757066727, -0.07014048844575882, -0.027351301163434982, 0.02195677161216736, 0.01581043004989624, -0.04519354924559593, -0.05388786271214485, -0.08813305199146271, 0.06331465393304825, -0.06352181732654572, -0.012575089931488037, 0.01981513947248459, 0.0808774009346962, 0.07799232751131058, -0.0312797985970974, 0.0739213302731514, -0.012106642127037048, -0.043339960277080536, 0.00422263890504837, -0.07417381554841995, 0.008537538349628448, 0.08128655701875687, 0.08414465934038162, -0.04233035445213318, -0.04265109449625015, 0.07970952242612839, -0.04724070429801941, -0.063115693628788, -0.08667594939470291, -0.0670022964477539, -0.004019699990749359, -0.006738640367984772, 0.008784458041191101, 0.012695692479610443, 0.009022682905197144, 0.023727476596832275, -0.0458240881562233, 0.03998061269521713, 0.0014116466045379639, 0.006901882588863373, 0.03696358948945999, -0.016934752464294434, -0.04376479238271713, -0.043943051248788834, -0.024605795741081238, -0.0267375186085701, 0.047412700951099396], [-0.01820431277155876, 0.04496936500072479, -0.07206933945417404, 0.07551299780607224, 0.0160721093416214, 0.06514643877744675, -0.028174443170428276, -0.005989736877381802, -0.08087363839149475, 0.054741259664297104, -0.08432220667600632, -0.0029969466850161552, -0.025026829913258553, -0.03710029646754265, -0.059955645352602005, -0.041073888540267944, 0.05260791629552841, -0.06445065140724182, 0.031530313193798065, -0.08522588014602661, -0.010389663279056549, -0.07701689004898071, 0.060725532472133636, 0.05739064887166023, 0.07502803951501846, 0.001462025917135179, -0.060232553631067276, 0.02054523304104805, -0.02631329372525215, -0.03136514872312546, -0.08438830077648163, -0.05632876604795456, 0.05481962114572525, -0.0131112951785326, 0.07517190277576447, -0.03621761500835419, -0.06494844704866409, 0.049764592200517654, -0.04298830404877663, -0.08307875692844391, 0.000676564930472523, 0.03220801055431366, 0.045936305075883865, 0.0014835200272500515, 0.0392833948135376, -0.08729391545057297, 0.061842143535614014, 0.008495310321450233, 0.037731412798166275, -0.025736359879374504, -0.021869760006666183, 0.012303589843213558, -0.06795597076416016, -0.09338866919279099, -0.09321554005146027, -0.038026176393032074, -0.046543583273887634, -0.08736833930015564, 0.021291574463248253, 0.010470353998243809, -0.04772106558084488, 0.04877227172255516, -0.08268178999423981, 0.0020908527076244354, 0.06399694830179214, 0.05973144248127937, -0.04268854111433029, -0.030578622594475746, -0.040296804159879684, 0.04349152371287346, 0.05032989755272865, -0.009566675871610641, -0.0789325013756752, -0.008177311159670353, 0.03871062770485878, -0.055041760206222534, 0.026825860142707825, 0.009370068088173866, 0.056213971227407455, -0.04317741096019745, -0.03512358292937279, 0.04984834045171738, 0.021182067692279816, 0.026208767667412758, -0.038317542523145676, 0.05975827947258949, 0.05291171744465828, 0.05790930613875389, -0.03549988195300102, 0.06730158627033234, 0.06913194805383682, -0.05220768228173256, 0.03823400288820267, -0.054462186992168427, -0.0779426097869873, -0.0030274817254394293, 0.05727244168519974, -0.0919395238161087, 0.0006377262761816382, 0.05787932872772217, -0.0526229552924633, 0.009251179173588753, -0.09817416965961456, -0.07411949336528778, 0.0715445801615715, -0.04276880994439125, -0.05795792117714882, -0.018095621839165688, -0.009177067317068577, -0.09255867451429367, -0.02710779383778572, -0.06257890164852142, 0.006870897486805916, -0.08282717317342758, -0.035310354083776474, -0.07858666777610779, -0.0685788094997406, 0.07016105949878693, -0.058823246508836746, -0.0899619534611702, -0.030518686398863792, 0.025014888495206833, -0.04161335900425911, -0.004125382751226425, 0.036020372062921524, -0.09897998720407486, 0.03575475513935089, 0.011337632313370705], [-0.08757390826940536, 0.002364609856158495, 0.1337059736251831, 0.11267895996570587, 0.21746274828910828, 0.05918906629085541, -0.14772574603557587, -0.17591185867786407, 0.03200625255703926, -0.0017047146102413535, 0.015188751742243767, 0.20295262336730957, -0.06854257732629776, 0.10062754899263382, 0.15192630887031555, 0.026785679161548615, 0.22204013168811798, 0.04874838516116142, 0.08225923031568527, -0.012518412433564663, -0.07698889076709747, -0.12754341959953308, -0.08676934242248535, -0.16061875224113464, 0.07245630025863647, 0.01819497160613537, -0.11979413777589798, -0.08858761191368103, 0.09719442576169968, 0.24411733448505402, 0.21307960152626038, -0.08615711331367493, -0.14720605313777924, 0.07457359880208969, 0.13558661937713623, -0.1224416047334671, 0.027311287820339203, 0.07406334578990936, 0.24921324849128723, 0.03524602949619293, 0.0030680664349347353, 0.10902130603790283, 0.02759193256497383, -0.1627095639705658, -0.04400571435689926, -0.02988257259130478, 0.04107772186398506, -0.0887739360332489, 0.022145068272948265, 0.16651158034801483, 0.09658365696668625, -0.04451289400458336, 0.08742017298936844, 0.0095493970438838, 0.021869713440537453, -0.06669928133487701, -0.0843312069773674, -0.07331986725330353, 0.1851181536912918, 0.0333370678126812, -0.010564928874373436, 0.27847155928611755, -0.19183693826198578, -0.01956941746175289, -0.19610081613063812, -0.11799614876508713, -0.19244834780693054, 0.05566820129752159, -0.03738855943083763, -0.13270026445388794, -0.026804283261299133, -0.13260634243488312, -0.05134585499763489, -0.08000092953443527, 0.11135730147361755, 0.18578775227069855, -0.006588506978005171, 0.045082323253154755, 0.1588771790266037, 0.027426842600107193, 0.10015922784805298, -0.007173219695687294, -0.09155373275279999, 0.11050645262002945, 0.15429992973804474, -0.018072018399834633, 0.11141917109489441, 0.07023348659276962, 0.02112985961139202, 0.20916248857975006, 0.10892901569604874, -0.06025702878832817, -0.022230518981814384, 0.03847800940275192, 0.14149241149425507, 0.11790313571691513, -0.23705410957336426, 0.11399783939123154, -0.10010934621095657, 0.12627500295639038, -0.13389314711093903, 0.10679996013641357, 0.0002668974339030683, -0.10189899802207947, -0.23035462200641632, 0.022328920662403107, 0.16530749201774597, -0.10268707573413849, -0.050443135201931, 0.021967491135001183, -0.02855382300913334, 0.015175290405750275, 0.03970355913043022, 0.15168754756450653, 0.04365646466612816, -0.06696467101573944, 0.05988750234246254, -0.015345881693065166, -0.14318151772022247, 0.013935067690908909, -0.11813048273324966, 0.09761226177215576, -0.010064712725579739, 0.10641724616289139, 0.13294297456741333, -0.09002810716629028, 0.0378558449447155, -0.1452779918909073], [-0.027423610910773277, 0.06007303670048714, 0.10258951038122177, 0.005726139061152935, -0.10658106207847595, -0.1554480493068695, -0.05875084176659584, -0.08715639263391495, 0.06703884154558182, -0.01164997462183237, -0.060694802552461624, 0.04834504425525665, 0.08049869537353516, -0.2695874273777008, 0.10118721425533295, 0.025847477838397026, 0.13389499485492706, 0.07445894926786423, 0.12041421234607697, -0.12299232929944992, 0.1515950709581375, 0.017212290316820145, -0.13041897118091583, -0.003623242722824216, -0.0383768305182457, 0.10144230723381042, -0.04664584994316101, 0.1495930254459381, -0.05736318603157997, 0.033171169459819794, 0.08642347157001495, 0.06711262464523315, -0.09839311987161636, 0.19922399520874023, 0.049669936299324036, 0.013419508002698421, 0.004357889294624329, 0.034585628658533096, -0.19237549602985382, 0.12143904715776443, -0.022370370104908943, -0.18369778990745544, -0.0218772292137146, 0.028687354177236557, -0.28927454352378845, 0.10762019455432892, -0.03968098387122154, -0.03339078649878502, -0.05353555455803871, -0.01817084290087223, -0.015116632916033268, -0.03625944256782532, -0.015131437219679356, 0.15595071017742157, -0.06767463684082031, 0.14963862299919128, 0.1363895982503891, 0.06397005915641785, -0.002763522556051612, -0.051730699837207794, 0.01311121042817831, 0.04261315241456032, -0.01751861348748207, 0.10727138072252274, 0.02648136392235756, 0.06817186623811722, 0.04207500442862511, 0.0192315261811018, -0.02197934314608574, 0.008443131111562252, 0.02465072087943554, 0.0037691937759518623, -0.03594724088907242, -0.06943593174219131, 0.12013306468725204, 0.11856364458799362, -0.048374030739068985, 0.04372859746217728, -0.07830916345119476, -0.028741462156176567, 0.011918202042579651, 0.2018001824617386, 0.19437973201274872, -0.022796418517827988, 0.030776089057326317, 0.15222397446632385, 0.06652890890836716, 0.008778849616646767, 0.1967564821243286, -0.16679982841014862, -0.052613742649555206, 0.07321415096521378, 0.08504007756710052, -0.03626681864261627, -0.042974140495061874, -0.026990992948412895, 0.022627027705311775, 0.10119736194610596, 0.012895381078124046, -0.09434225410223007, 0.00944389309734106, 0.05115830898284912, 0.0646737813949585, -0.04341072961688042, -0.06554746627807617, -0.16344162821769714, 0.08282080292701721, 0.08937032520771027, -0.03156571835279465, -0.1860291212797165, -0.038354840129613876, -0.007067234255373478, 0.05677572265267372, 0.02241470105946064, -0.08058664202690125, -0.0029498052317649126, -0.12408939749002457, -0.024266554042696953, 0.07991807907819748, -0.04231663793325424, -0.14014922082424164, -0.023794369772076607, -0.035399556159973145, 0.06651633232831955, -0.11186802387237549, 0.0378238819539547, 0.14129555225372314, 0.0020213064271956682], [-0.020775089040398598, 0.018110936507582664, 0.08882720023393631, 0.012570908293128014, 0.07674417644739151, 0.1004972979426384, 0.06954222172498703, -0.10299011319875717, 0.014385447837412357, -0.05882590636610985, 0.023470697924494743, 0.0062429592944681644, -0.06760504841804504, 0.07178997993469238, 0.19335265457630157, 0.12495098263025284, 0.08854181319475174, 0.08309399336576462, -0.09857585281133652, 0.04807795584201813, -0.11522462218999863, -0.012937651015818119, 0.04748792573809624, 0.14477922022342682, 0.08128061890602112, -0.005658365320414305, -0.03303208947181702, 0.06649965792894363, 0.24383623898029327, -0.09243287891149521, 0.001085470081306994, -0.004365228116512299, 0.12378544360399246, 0.01466419268399477, -0.027362177148461342, -0.09172838926315308, 0.012191463261842728, -0.07682009786367416, 0.0037274404894560575, 0.0017909230664372444, -0.10908979922533035, 0.032412171363830566, 0.10160989314317703, -0.09665153175592422, -0.1191154420375824, 0.03197043016552925, -0.08329124748706818, 0.11107119172811508, -0.08475999534130096, 0.06141041964292526, 0.052639130502939224, -0.013800048269331455, -0.06352641433477402, -0.0026797750033438206, 0.08747585117816925, -0.1267392337322235, 0.13777056336402893, -0.11966138333082199, -0.031968191266059875, 0.16773615777492523, -0.025593874976038933, 0.04786292463541031, -0.020483803004026413, -0.05293511971831322, -0.07261292636394501, 0.1749543696641922, -0.16221526265144348, -0.054930318146944046, -0.04182814806699753, -0.0024519325233995914, 0.0001017678077914752, 0.17159590125083923, -0.13499543070793152, 0.11087920516729355, 0.11114340275526047, 0.09452451765537262, 0.06895093619823456, 0.11729668080806732, 0.07353047281503677, -0.0068276021629571915, -0.15264663100242615, 0.05808938667178154, -0.0051540532149374485, -0.09049540758132935, 0.05044247582554817, 0.0006463597528636456, 0.03326724097132683, -0.015359834767878056, -0.16230757534503937, 0.009650710970163345, -0.10284607112407684, 0.1166270524263382, -0.051296669989824295, 0.004468790255486965, 0.19275660812854767, 0.03981917351484299, 0.030372576788067818, -0.03917170688509941, -0.020588278770446777, -0.14268432557582855, 0.0532543919980526, -0.08701677620410919, 0.018148714676499367, 0.11242509633302689, -0.014152099378407001, 0.00580858439207077, -0.04895215854048729, 0.023194124922156334, 0.1576477438211441, 0.029042739421129227, 0.007287605665624142, 0.16191864013671875, 0.02573414333164692, 0.0004916965262964368, -0.28030091524124146, -0.20169422030448914, -0.016130249947309494, 0.0030734597239643335, 0.025505060330033302, 0.04816758632659912, -0.023692429065704346, 0.11797356605529785, 0.13157840073108673, 0.015332905575633049, -0.057131100445985794, -0.07587851583957672, -0.03413480520248413, -0.07346822321414948], [-0.029367364943027496, -0.07207931578159332, -0.08231525123119354, -0.0456768237054348, 0.0008419007062911987, -0.07528895884752274, -0.015204846858978271, 0.08828092366456985, -0.01902664452791214, 0.0709114596247673, 0.00981411337852478, -0.06624973565340042, -0.018185466527938843, -0.039010871201753616, -0.0672692209482193, -0.023887813091278076, 0.0544702485203743, -0.07142007350921631, 0.08776126056909561, 0.034697383642196655, -0.017996788024902344, 0.04154207557439804, -0.027555260807275772, 0.08449012786149979, -0.0655086562037468, -0.0013434737920761108, -0.056889742612838745, -0.08678819984197617, 0.01087469607591629, 0.061795853078365326, -0.082570381462574, -0.04804637283086777, 0.02142316848039627, -0.0046468377113342285, 0.0032546743750572205, 0.0379255935549736, 0.027774572372436523, -0.0745316669344902, 0.046138979494571686, -0.08807189762592316, 0.031336136162281036, 0.019115746021270752, 0.04152456670999527, -0.052687615156173706, -0.005360372364521027, 0.030529260635375977, -0.0423939973115921, 0.0513465479016304, -0.04448748379945755, 0.06886259466409683, -0.08564531058073044, -0.02828177809715271, 0.07851884514093399, -0.011067196726799011, -0.08764683455228806, 0.05558914691209793, -0.08830686658620834, -0.054273877292871475, -0.06052400916814804, -0.07248485088348389, 0.07351737469434738, 0.05675565451383591, 0.016833581030368805, -0.0085158571600914, 0.04106772691011429, -0.017138369381427765, -0.045579612255096436, 0.057874344289302826, -0.023915015161037445, -0.026762142777442932, -0.01250465214252472, 0.0015071853995323181, -0.007148727774620056, -0.018233709037303925, 0.03604080528020859, -0.08548349887132645, 0.0363321527838707, -0.05842731148004532, 0.017326191067695618, 0.0004926621913909912, -0.003760509192943573, -0.01679186522960663, -0.039165496826171875, -0.014949053525924683, 0.03985089808702469, -0.06094871461391449, 0.016779311001300812, 0.0789991095662117, 0.00902896374464035, 0.014869168400764465, 0.041345082223415375, 0.038872383534908295, 0.03313059359788895, -0.03761320561170578, 0.004127964377403259, 0.010232724249362946, 0.05164983123540878, 0.05276716500520706, -0.014791741967201233, -0.02754056081175804, -0.060479745268821716, 0.01099320501089096, 0.06148453801870346, 0.029520198702812195, -0.06806723028421402, 0.015507161617279053, -0.0827781930565834, -0.07252775132656097, 0.051088906824588776, 0.0038775503635406494, -0.07885248214006424, 0.0819770023226738, -0.052966270595788956, -0.02582673728466034, 0.04573708027601242, -0.04474223032593727, 0.012114234268665314, 0.0022666454315185547, 0.0035715997219085693, 0.05888698250055313, 0.04164443165063858, 0.04699397832155228, -0.027234051376581192, -0.01455768197774887, -0.07397148758172989, 0.04092738777399063, -0.06874261796474457, -0.0694689080119133], [-0.005033060908317566, 0.08607091754674911, -0.07626239955425262, 0.040943048894405365, -0.0634741336107254, -0.08510453999042511, 0.007680557668209076, 0.005141958594322205, 0.04669461399316788, 0.0802442654967308, 0.05803938955068588, -0.0674963891506195, 0.03874660283327103, 0.034479767084121704, -0.08402801305055618, 0.034964606165885925, 0.03672770410776138, -0.07311537116765976, -0.037212252616882324, -0.08186659216880798, -0.07417219132184982, 0.058526135981082916, -0.00023764371871948242, -0.00019630789756774902, -0.08267445862293243, -0.08575434982776642, -0.07546345889568329, -0.0482250340282917, 0.04886814206838608, 0.06833753734827042, -0.026190135627985, 0.004889436066150665, -0.03252473473548889, 0.040480248630046844, 0.03813203424215317, -0.01326385885477066, 0.08682382851839066, 0.07539132982492447, -0.07286687195301056, -0.06215515732765198, 0.08392805606126785, -0.022822104394435883, -0.01575932651758194, -0.012257494032382965, 0.009563997387886047, 0.026295579969882965, -0.05947435647249222, 0.029646091163158417, 0.06260662525892258, -0.005645662546157837, -0.03188512474298477, -0.07089778780937195, -0.053522683680057526, 0.05469498783349991, -0.07222901284694672, 0.024422191083431244, -0.0363290011882782, -0.08363866060972214, -0.015401080250740051, 0.06740928441286087, -0.031230445951223373, -0.05839823931455612, -0.08834453672170639, 0.06718390434980392, 0.06668832153081894, 0.031808435916900635, -0.05988447368144989, 0.05082003027200699, -0.037283703684806824, -0.005612261593341827, 0.06665121763944626, 0.05940987914800644, -0.06377832591533661, 0.03177200257778168, 0.050302572548389435, 0.03631635755300522, -0.03281938284635544, 0.08642267435789108, 0.048776425421237946, -0.033018674701452255, 0.07427512854337692, 0.06394899636507034, -0.08490508794784546, -0.055237069725990295, -0.08207718282938004, -0.04076987877488136, 0.012370429933071136, 0.0002474859356880188, 0.005317807197570801, -0.08087453246116638, 0.062384434044361115, -0.08503352850675583, 0.024562589824199677, -0.03740160912275314, -0.020868398249149323, -0.08314137160778046, 0.07676678150892258, 0.07642865926027298, -0.07685364782810211, 0.06706064194440842, -0.07296337187290192, 0.03267339617013931, -0.07454999536275864, 0.07908036559820175, -0.06256943941116333, 0.07054079324007034, 2.3484230041503906e-05, -0.039170943200588226, -0.06057804450392723, -0.0002484545111656189, 0.024040058255195618, -0.008646182715892792, -0.022855520248413086, -0.0621270015835762, -0.059384457767009735, -0.07507839053869247, -0.04539678245782852, -0.030325111001729965, -0.036010097712278366, 0.036601461470127106, -0.06756856292486191, 0.06569284945726395, -0.08748988807201385, -0.05003181844949722, 0.024229802191257477, -0.051833026111125946, -0.08710154891014099, 0.0033382847905158997], [0.0019054347649216652, -0.08933760970830917, 0.047848597168922424, 0.002283227164298296, -0.02795817144215107, -0.018197108060121536, 0.007248778361827135, -0.0789991244673729, -0.09210840612649918, -0.08521196991205215, -0.010343016125261784, -0.015388013795018196, -0.03623885661363602, -0.028760280460119247, 0.05737973004579544, 0.05900486558675766, -0.04157981276512146, 0.07307334989309311, 0.07481708377599716, -0.04340082034468651, -0.046895869076251984, 0.012166581116616726, -0.002461546566337347, 0.06676957756280899, 0.0475127287209034, 0.03619329631328583, -0.08560381829738617, 0.053029172122478485, -0.05635864660143852, -0.0807296633720398, 0.06297912448644638, -0.026482274755835533, -0.06911119073629379, -0.03862878307700157, 0.04230201989412308, -0.08149851113557816, 0.006285718642175198, -0.06466075778007507, 0.023178594186902046, -0.06313665211200714, -0.08849170804023743, 0.07477928698062897, 0.05999365076422691, -0.09731069207191467, -0.06739280372858047, -0.017430461943149567, -0.050832655280828476, 0.06989920884370804, 0.03627000376582146, -0.06720002740621567, -0.05704016610980034, -0.05298279970884323, 0.02521437034010887, -0.00861578993499279, 0.03235941752791405, -0.003042645985260606, 0.009244890883564949, 0.02396591193974018, -0.010187940672039986, -0.033752962946891785, -0.05858714506030083, -0.019106078892946243, 0.018605751916766167, -0.055748891085386276, -0.06092746928334236, -0.010328207165002823, 0.07139839977025986, -0.08195624500513077, 0.0538032203912735, 0.0056624445132911205, -0.050243232399225235, -0.048572033643722534, -0.04596862196922302, 0.04005907475948334, 0.03444499894976616, -0.049155574291944504, -0.010918263345956802, -0.07342475652694702, 0.06675079464912415, -0.023348214104771614, -0.06463389843702316, 0.07166051119565964, 0.027938008308410645, -0.0457485057413578, -0.014385394752025604, -0.09037848562002182, -0.049067120999097824, -0.08031914383172989, -0.04292099550366402, 0.052325982600450516, 0.0037897105794399977, -0.02709088660776615, -0.014459979720413685, 0.016096480190753937, 0.05945112183690071, 0.05262717604637146, 0.02785480208694935, 0.0534697063267231, -0.024629080668091774, -0.03925127163529396, 0.06422535330057144, 0.038905393332242966, -0.023880694061517715, 0.06524432450532913, 0.037160612642765045, 0.04500041529536247, -0.01956760697066784, -0.032679423689842224, -0.001005989732220769, 0.04522846266627312, -0.01328444853425026, 0.00734423752874136, 0.02257719077169895, -0.08102802187204361, -0.08002948015928268, 0.07493089139461517, 0.06527189910411835, -0.010265986435115337, -0.09330806881189346, 0.0018855688394978642, -0.01325505506247282, 0.014114354737102985, -0.02330145426094532, 0.009482077322900295, 0.015740659087896347, -0.08855759352445602, -0.08172599971294403, -0.09962745755910873], [0.052327997982501984, -0.04690319299697876, -0.007304069586098194, -0.06984665989875793, -0.09863374382257462, 0.03571461886167526, 0.014278465881943703, 0.019490497186779976, 0.0654507651925087, -0.10473202913999557, -0.05087360367178917, -0.00042874872451648116, 0.013663488440215588, 0.026743119582533836, -0.09643404930830002, 0.03248896077275276, -0.0052795615047216415, -0.08522093296051025, -0.0287381149828434, 0.03521972894668579, 0.03208848834037781, -0.03162793070077896, -0.008795476518571377, -0.04269113764166832, -0.08254989236593246, 0.04509612172842026, -0.08135424554347992, -0.0446593351662159, 0.0629253014922142, -0.01846206933259964, -0.03422500565648079, -0.007000509183853865, 0.029888896271586418, -0.09680818766355515, -0.05897993966937065, 0.004810741171240807, 0.0651748850941658, -0.010079567320644855, -0.03416046127676964, 0.02863405831158161, -0.025952080264687538, -0.07364596426486969, 0.045714013278484344, -0.10487314313650131, 0.005532612558454275, 0.024918580427765846, 0.06598906219005585, -0.07846317440271378, -0.07215946912765503, -0.03385651111602783, -0.089388407766819, -0.0513584241271019, -0.06774446368217468, -0.032854970544576645, 0.03712553158402443, -0.053480762988328934, 0.06997109949588776, -0.014785508625209332, -0.031055090948939323, -0.025716368108987808, 0.00021262541122268885, 0.017572607845067978, -0.012883869931101799, -0.0036439166869968176, 0.03615632280707359, 0.023330017924308777, 0.02199161984026432, -0.061576031148433685, 0.02489624172449112, -0.10192032158374786, 0.003527998458594084, 0.056730058044195175, -0.03850345313549042, -0.08165136724710464, 0.021243730559945107, -0.03249802812933922, 0.06697237491607666, 0.02867068350315094, -0.05692179873585701, -0.021053841337561607, -0.018644239753484726, -0.04992539435625076, -0.08109885454177856, 0.009637379087507725, 0.051522303372621536, -0.00470745749771595, -0.015352879650890827, -0.10664661228656769, 0.0489419661462307, 0.0028837225399911404, -0.009153727442026138, -0.047826189547777176, -0.03270537033677101, -0.019932471215724945, -0.03029526025056839, 0.04500534385442734, -0.0729685053229332, 0.02289808727800846, -0.04508431255817413, -0.050359614193439484, -0.10554267466068268, -0.10310705751180649, -0.03203047811985016, -0.0923723578453064, 0.04217207431793213, 0.016272760927677155, -0.023874489590525627, -0.07086566090583801, 0.039768286049366, 0.0618903674185276, -0.021899407729506493, -0.07502862811088562, -0.0602068267762661, 0.015884431079030037, -0.014013102278113365, 0.058238353580236435, 0.029301941394805908, 0.017606623470783234, 0.04682508483529091, -0.08902502059936523, -0.08706758916378021, -0.07397150248289108, 0.05043252184987068, 0.044875551015138626, 0.04273932799696922, -0.022856995463371277, 0.06339366734027863, -0.038959797471761703], [-0.03332870081067085, -0.023958396166563034, -0.040617577731609344, 0.06378510594367981, -0.06712613254785538, -0.059294093400239944, 0.0614728145301342, 0.07261364161968231, -0.0958474799990654, 0.05024007707834244, -0.008268836885690689, -0.01592000015079975, -0.04899849742650986, -0.023705441504716873, 0.01573152467608452, -0.025014277547597885, -0.0851481556892395, -0.0749170184135437, 0.02677520364522934, -0.04435162618756294, 0.01927318423986435, 0.0003197783953510225, 0.03632001206278801, 0.017837123945355415, 0.008083691820502281, 0.03151868283748627, 0.028758300468325615, -0.09246019273996353, 0.03352469950914383, 0.05654853954911232, 0.036969367414712906, 0.011260478757321835, 0.002764214761555195, -0.0851372480392456, -0.05495587736368179, -0.02142135426402092, -0.023885097354650497, -0.029430516064167023, 0.0049983784556388855, -0.09972906857728958, 0.061016540974378586, 0.018835434690117836, -0.08992956578731537, -0.0591699592769146, -0.04486586153507233, 0.0021867267787456512, 0.05786599591374397, 0.02845817804336548, 0.007175395730882883, 0.05388037860393524, -0.05934964492917061, -0.03426573798060417, -0.058303747326135635, 0.05740760266780853, -0.023329900577664375, 0.0227714441716671, 0.040726564824581146, -0.00910679716616869, -0.0008014757186174393, -0.039781343191862106, -0.04882178455591202, -0.03305483236908913, -0.0801052376627922, -0.02261737547814846, -0.06507904082536697, -0.06887635588645935, 0.019162211567163467, 0.0346689410507679, -0.06935199350118637, -0.021576538681983948, 0.008716614916920662, 0.07039467990398407, -0.017965584993362427, 0.057438768446445465, -0.08788322657346725, 0.01753174513578415, -0.0963682159781456, -0.0034390746150165796, 0.056816160678863525, 0.006218843162059784, 0.017380831763148308, 0.008126758970320225, 0.02580876648426056, 0.002638154663145542, -0.004922432359308004, -0.04148911312222481, 0.05262942612171173, -0.06770612299442291, -0.0981706753373146, 0.005276903044432402, -0.016196491196751595, -4.0164257370634004e-05, 0.0497455969452858, 0.04319094493985176, -0.03284621238708496, 0.07386848330497742, -0.043509840965270996, -0.01944884844124317, 0.004489718936383724, -0.05588357150554657, 0.0006020421860739589, -0.08060169965028763, 0.0220345426350832, 0.016997642815113068, -0.05986540764570236, 0.020862232893705368, -0.04921138286590576, 0.05393863841891289, -0.03956606984138489, 0.043397970497608185, -0.08011516183614731, 0.02279789373278618, -0.05183648318052292, -0.006411553360521793, -0.037631381303071976, -0.00048825357225723565, 0.07024750858545303, -0.001249894150532782, -0.017809035256505013, 0.03752361983060837, -0.04362522438168526, -0.08701452612876892, 0.04130667448043823, 0.01516238134354353, 0.05787765979766846, -0.05670745670795441, -0.01252476405352354, -0.023266347125172615], [-0.07303979247808456, -0.06043374910950661, 0.028130993247032166, 0.036536429077386856, 0.06707581132650375, -0.06950023770332336, 0.0480971522629261, -0.06064821779727936, -0.04363837465643883, -0.008027695119380951, 0.04242508113384247, 0.07480532675981522, -0.03550001606345177, -0.08317077159881592, -0.06053157523274422, -0.0656103566288948, 0.06184586510062218, 0.026092056185007095, -0.027057571336627007, 0.034517787396907806, -0.079643115401268, 0.025135213509202003, 0.06790178269147873, 0.030400646850466728, 0.05267971381545067, -0.06745824217796326, 0.014602454379200935, -0.05430566892027855, 0.06381694972515106, 0.0599977970123291, -0.043922774493694305, -0.08833733946084976, 0.07061892002820969, -0.028736842796206474, 0.05988094583153725, 0.07703766971826553, 0.029573189094662666, 0.05011662840843201, 0.05746021121740341, 0.07192600518465042, -0.061508290469646454, 0.03922337666153908, -0.03174290433526039, 0.02163129672408104, 0.055249977856874466, 0.007035840302705765, -0.018098805099725723, 0.0460762195289135, 0.05740924924612045, -0.08658840507268906, 0.06856034696102142, 0.01665344648063183, 0.0034346692264080048, -0.07108521461486816, 0.05049647018313408, 0.07263902574777603, -0.01612764783203602, -0.06621886789798737, -0.07076101005077362, 0.021715639159083366, 0.00837073102593422, -0.060519732534885406, 0.028555985540151596, -0.08743058145046234, 0.028718097135424614, 0.06867803633213043, 0.0073099336586892605, -0.06444210559129715, -0.051770906895399094, -0.004179101902991533, -0.04964190721511841, 0.03526692092418671, -0.01529157068580389, 0.06464649736881256, 0.026432329788804054, 0.03910641372203827, 0.0051306067034602165, 0.06514530628919601, -0.05420571193099022, -0.05576436221599579, -0.012538067996501923, -0.04355444014072418, -0.034449413418769836, -8.657468242745381e-06, 0.007069851271808147, -0.06616642326116562, -0.0527229867875576, 0.031169436872005463, -0.004075236152857542, 0.0517970509827137, -0.01786639355123043, 0.03369792923331261, -0.03712897747755051, -0.06897521018981934, 0.0384785532951355, -0.03751784935593605, -0.060530148446559906, 0.00644427677616477, -0.05786861106753349, -0.05990264192223549, -0.05482807755470276, -0.016480786725878716, 0.044442638754844666, -0.014491037465631962, 0.010495837777853012, -0.03138799965381622, 0.021697599440813065, -0.01733761839568615, 0.013133815489709377, 0.01826523430645466, -0.06282657384872437, -0.030856763944029808, 0.04801352322101593, 0.017099345102906227, -0.023573819547891617, -0.04026830196380615, -0.018626797944307327, 0.008873973041772842, -0.06261458992958069, -0.07812928408384323, 0.06833405047655106, -0.043992601335048676, -0.008183339610695839, 0.0733627900481224, 0.06678304821252823, -0.06880258023738861, 0.07367763668298721, -0.06160760670900345], [0.08172253519296646, 0.03862404078245163, 0.03845813125371933, 0.05012587457895279, 0.08454946428537369, -0.012284636497497559, -0.08666066080331802, -0.04964454099535942, 0.02407369762659073, 0.03974490612745285, 0.015917189419269562, 0.013951227068901062, 0.05101940780878067, 0.060899682343006134, -0.06458911299705505, -0.06723272800445557, 0.06436925381422043, -0.0732731893658638, 0.0838027372956276, 0.03135182708501816, 0.022143512964248657, -0.06870614737272263, -0.07665642350912094, -0.08377506583929062, -0.002472005784511566, 0.02205730229616165, -0.07128535211086273, -0.053495991975069046, -0.06835385411977768, -0.05108160153031349, -0.023884281516075134, -0.028945613652467728, -0.0469311885535717, -0.03148693963885307, 0.013326212763786316, 0.07014288753271103, -0.06256959587335587, 0.04747789353132248, -0.006407871842384338, -0.045478787273168564, 0.005493186414241791, -0.03438868746161461, 0.0223238468170166, -0.06750716269016266, 0.006975449621677399, 0.06129508465528488, 0.07254035025835037, 0.007483690977096558, -0.0608765184879303, -0.06384876370429993, -0.03953726217150688, -0.07184993475675583, -0.05346238985657692, -0.047471996396780014, 0.03669404238462448, 0.016207948327064514, 0.03861146420240402, -0.00757811963558197, 0.015880703926086426, -0.018633678555488586, -0.050122443586587906, 0.025805041193962097, 0.03898092359304428, -0.05692213028669357, -0.039052825421094894, 0.0335308313369751, -0.035055987536907196, 0.026971235871315002, -0.05493450537323952, 0.01630091667175293, -0.06510315835475922, -0.022831842303276062, 0.04770130664110184, 0.059800080955028534, -0.06199122965335846, -0.026701398193836212, -0.038905661553144455, -0.07794174551963806, -0.055625028908252716, 0.05624013394117355, 0.01893046498298645, -0.027026351541280746, -0.08413362503051758, -0.06154930591583252, 0.0453488752245903, 0.00737888365983963, -0.0635657086968422, -0.0192185640335083, -0.06397419422864914, -0.04674387723207474, 0.045159853994846344, 0.023667074739933014, 0.04853037744760513, -0.08406059443950653, 0.05039762705564499, 0.00554356724023819, -0.08095094561576843, -0.05152864009141922, -0.0823766440153122, -0.04111428186297417, -0.04462717846035957, 0.050558902323246, -0.04831024631857872, 0.006812587380409241, 0.08657870441675186, -0.041882891207933426, -0.039593655616045, 0.02580832690000534, -0.03891444951295853, 0.05989658087491989, -0.07773913443088531, 0.06980616599321365, -0.05001002550125122, 0.0012895390391349792, -0.0754302591085434, -0.05268147215247154, -0.059823330491781235, -0.004113808274269104, 0.08834139257669449, -0.04669411480426788, 0.0021966025233268738, -0.003440454602241516, -0.024080149829387665, 0.04974549263715744, 0.011741355061531067, -0.07472635060548782, -0.052525077015161514, -0.020088233053684235], [0.06634107977151871, 0.030971579253673553, -0.07991567999124527, -0.029045470058918, 0.05682094767689705, -0.041387178003787994, 0.07646632939577103, 0.02304212376475334, 0.046697892248630524, -0.013625888153910637, 0.0638410672545433, 0.04401182010769844, -0.094976045191288, -0.0035620424896478653, 0.07206134498119354, 0.05925513058900833, 0.01958857849240303, 0.03651997819542885, -0.02539907954633236, 0.02679351530969143, -0.08405282348394394, -0.09400495886802673, -0.040323927998542786, -0.09612871706485748, -0.01676085963845253, 0.0313774012029171, -0.06575050204992294, 0.00020091865735594183, -0.02506554313004017, -0.05913952738046646, 0.03454724699258804, -0.08789028972387314, 0.012774089351296425, 0.07255148142576218, -0.03518616780638695, -0.08703240007162094, -0.05585692450404167, 0.056043025106191635, 0.06662245094776154, -0.06306629627943039, -0.044074445962905884, -0.03389979153871536, 0.03999901935458183, -0.0282028466463089, -0.06789495050907135, 0.06382355839014053, 0.04720905050635338, -0.01593978889286518, -0.07647679001092911, 0.03274548798799515, -0.053527191281318665, -0.03795788809657097, -0.07166801393032074, -0.07919631153345108, 0.007684338837862015, 0.04800800234079361, -0.08424393832683563, -0.06140746548771858, -0.08019542694091797, 0.054908160120248795, -0.02876775711774826, -0.012493450194597244, 0.05480462685227394, 0.005138336215168238, -0.05378728359937668, -0.06575974822044373, -0.022500457242131233, 0.07002676278352737, 0.07148304581642151, -0.006562316790223122, 0.05482356250286102, -0.012226665392518044, 0.058775000274181366, -0.0036137476563453674, 0.023876482620835304, 0.03844795003533363, -0.05268212407827377, -0.008622696623206139, -0.0427817665040493, 0.037396565079689026, -0.040885090827941895, -0.05646894872188568, 0.04091370105743408, 0.020750219002366066, -0.041589632630348206, -0.05059538036584854, -0.04773777723312378, -0.03896841034293175, 0.038580138236284256, -0.05110618472099304, 0.06795425713062286, -0.02753920666873455, -0.09531215578317642, 0.00640780059620738, 0.0026860616635531187, -0.051144640892744064, -0.022869542241096497, -0.06416662782430649, 0.00875280424952507, 0.04563881829380989, 0.01844733953475952, -0.03490285575389862, -0.048807282000780106, 0.005075722932815552, -0.06296590715646744, -0.01652144454419613, -0.07473959028720856, 0.013439937494695187, -0.005142698995769024, -0.06119075417518616, -0.06764539331197739, -0.012470477260649204, -0.03997451066970825, 0.024090101942420006, -0.051017504185438156, 0.0017172102816402912, -0.026844624429941177, 0.051773227751255035, 0.0650816485285759, -0.04725588485598564, 0.00677450792863965, 0.04519566521048546, 0.07002794742584229, -0.07436442375183105, -0.044031184166669846, -0.09031429141759872, -0.09458629786968231, -0.07730928063392639], [0.04602929204702377, -0.08513619750738144, 0.011238262057304382, 0.020588472485542297, 0.008140039630234241, 0.005568359047174454, -0.02944493666291237, 0.07022099196910858, 0.026730835437774658, -0.0578240305185318, -0.040145665407180786, 0.01682007685303688, -7.953955355333164e-05, 0.045774105936288834, -0.0022337862756103277, 0.056091319769620895, -0.09234479814767838, -0.04752590134739876, 0.015675868839025497, 0.0634939968585968, -0.06414640694856644, -0.07253647595643997, -0.08545660972595215, 0.024636071175336838, -0.0833432525396347, -0.0830124169588089, 0.050336796790361404, 0.011696994304656982, 0.05883542448282242, 0.01463243830949068, -0.062388285994529724, 0.040181245654821396, 0.004159710370004177, 0.00403394503518939, 0.023909540846943855, -0.026207612827420235, -0.0933479517698288, -0.07416434586048126, 0.03687271103262901, -0.03638545423746109, 0.05231158435344696, -0.028340380638837814, -0.0954977348446846, 0.02164742723107338, -0.07550707459449768, -0.05933798849582672, 0.04680227115750313, -0.07461454719305038, -0.03839743137359619, 0.067434161901474, -0.05642388388514519, -0.001135634956881404, 0.06986354291439056, 0.0012624503578990698, 0.07397815585136414, 0.0614619180560112, -0.06571607291698456, -0.060818225145339966, 0.05122167617082596, 0.0029950542375445366, 0.06267239898443222, -0.04164339601993561, -0.0031429766677320004, -0.03217019885778427, -0.07633470743894577, 0.053979046642780304, -0.05952119827270508, -0.01698857545852661, -0.003477095626294613, 0.029840458184480667, -0.0579119436442852, 0.035143252462148666, 0.0686003640294075, 0.04694352671504021, -0.05946382135152817, -0.09066785126924515, 0.03578772395849228, 0.055432796478271484, -0.06389867514371872, 0.01820339262485504, 0.011868834495544434, 0.042542099952697754, -0.08500848710536957, -0.0664718821644783, -0.04969751089811325, 0.015900032594799995, -0.03195955976843834, -0.006144687533378601, -0.010788515210151672, -0.07824766635894775, 0.03312527388334274, 0.0004679168632719666, 0.016208438202738762, -0.06010812148451805, 0.07211322337388992, -0.020631417632102966, -0.014551948755979538, -0.03159032762050629, -0.0841207504272461, -0.0009663932723924518, 0.025936096906661987, -0.054591041058301926, -0.07835588604211807, -0.09782687574625015, -0.09575993567705154, 0.02247411571443081, -0.007002547383308411, 0.038451142609119415, -0.020669234916567802, -0.05102620646357536, 0.06322497129440308, -0.06888514012098312, -0.08561892062425613, 0.005420203786343336, -0.07256470620632172, 7.374517008429393e-05, 0.036992426961660385, -0.075840525329113, -0.08485429733991623, 0.043646473437547684, 0.03571039438247681, 0.025361569598317146, -0.05574960634112358, 0.007952757179737091, -0.0503418892621994, -0.081805020570755, -0.08398877084255219, 0.051190029829740524], [-0.08705629408359528, 0.002695404924452305, -0.02823534607887268, -0.04653899744153023, 0.05100449547171593, -0.0885608047246933, 0.05626256391406059, 0.04059433192014694, -0.00253563211299479, -0.047942865639925, 0.05813216790556908, -0.013965058140456676, -0.07342182844877243, 0.031235910952091217, -0.009677257388830185, -0.09504659473896027, -0.0782897025346756, -0.011988536454737186, -0.06402412056922913, 0.0650019496679306, -0.03400357440114021, 0.048046961426734924, 0.0746377483010292, 0.06690586358308792, 0.00635113101452589, 0.031310152262449265, -0.00048325626994483173, -0.027184197679162025, -0.060334037989377975, -0.01629835180938244, 0.040882792323827744, 0.06789138913154602, -0.08305595815181732, 0.011469603516161442, 0.07800418138504028, 0.018767988309264183, -0.044194545596838, 0.05641785264015198, 0.021888475865125656, -0.05296868458390236, -0.005491586867719889, -0.02483728528022766, -0.09074538201093674, 0.03404846414923668, -0.043531134724617004, -0.0034355605021119118, 0.05857967585325241, -0.02488563396036625, -0.07403810322284698, -0.0606481097638607, -0.08584246784448624, -0.0829954519867897, 0.01218330767005682, 0.043791498988866806, 0.005131887272000313, -0.0935114398598671, -0.001193186966702342, -0.03385164588689804, -0.0325603261590004, -0.050054606050252914, -0.017781982198357582, 0.0791424810886383, 0.05148282274603844, 0.05828072130680084, -0.05143953859806061, -0.03705854341387749, -0.0573398731648922, 0.03604111820459366, 0.05091005563735962, 0.008915363810956478, 0.06202007830142975, -0.06746400147676468, 0.03775819391012192, 0.01709512062370777, -0.06214127317070961, -0.010872839018702507, -0.08581437915563583, -0.07888057082891464, 0.014215015806257725, -0.025509623810648918, 0.05883206054568291, 0.03264620527625084, -0.082304447889328, -0.03859703987836838, 0.042550504207611084, 0.011855017393827438, -0.011450503021478653, -0.02717917039990425, 0.02950926125049591, 0.031437281519174576, -0.027204373851418495, -0.06285692751407623, -0.07687965780496597, -0.0011293713469058275, 0.04056846722960472, -0.011088214814662933, 0.015657972544431686, 0.08038163930177689, 0.06741563975811005, -0.03166256099939346, 0.08246669918298721, -0.08130156993865967, -0.024469755589962006, -0.08948497474193573, -0.05750173702836037, -0.03436833247542381, -0.003637847024947405, 0.045488785952329636, 0.020079609006643295, -0.0029829766135662794, -0.03809908777475357, -0.03604886308312416, 0.025254715234041214, -0.08540654182434082, -0.058283090591430664, 0.04433607682585716, 0.008093372918665409, 0.05209227278828621, -0.04718506708741188, -0.007391092833131552, 0.010818780399858952, -0.001164682093076408, 0.03618372604250908, 0.002147782826796174, 0.07060842216014862, 0.05529383197426796, -0.05896907299757004, -0.09855690598487854], [0.048272501677274704, -0.11798737198114395, 0.04801958426833153, 0.0015399345429614186, 0.050221092998981476, 0.11465676128864288, 0.13070915639400482, -0.001430643256753683, 0.07354355603456497, 0.08009721338748932, -0.0251142717897892, -0.08132161945104599, 0.029752975329756737, -0.1507202535867691, 0.1317310929298401, -0.053584251552820206, -0.006808133330196142, -0.14320766925811768, -0.11355333775281906, -0.006262308917939663, 0.03962477669119835, 0.07560913264751434, -0.026159202679991722, -0.008613020181655884, 0.09719305485486984, -0.02843737043440342, -0.13500821590423584, 0.15387962758541107, -0.00967750046402216, -0.0966324657201767, 0.09535075724124908, 0.00952622015029192, -0.0583188459277153, 0.009149357676506042, -0.05244145914912224, 0.17357422411441803, -0.008694805204868317, -0.019641244783997536, -0.03945152834057808, 0.034254156053066254, 0.0018456128891557455, 0.1775941401720047, -0.1136724203824997, 0.058149415999650955, 0.05653245374560356, 0.11665835976600647, 0.04612002521753311, 0.058016080409288406, -0.1445544958114624, -0.06013057380914688, 0.0022981101647019386, 0.08119703829288483, -0.042406316846609116, -0.07684879750013351, 0.028818106278777122, 0.03724811598658562, -0.03428021818399429, 0.06895007193088531, 0.036299269646406174, 0.07041701674461365, -0.015895316377282143, 0.08048098534345627, -0.06871476024389267, 0.11290732771158218, -0.0994206890463829, 0.058030009269714355, -0.10662857443094254, 0.060956306755542755, 0.06500831991434097, -0.14168547093868256, 0.017302878201007843, 0.09520823508501053, 0.02118079364299774, 0.06820105016231537, -0.0774652361869812, -0.011333996430039406, -0.04280911758542061, 0.18063807487487793, -0.04671529307961464, -0.0313449464738369, -0.11661537736654282, -0.032059501856565475, -0.02270621806383133, 0.062184229493141174, 0.008016953244805336, -0.07730890065431595, -0.10482918471097946, 0.002538052387535572, -0.04715266823768616, 0.08695085346698761, 0.03526603803038597, 0.1587141454219818, 0.24007025361061096, -0.013395833782851696, 0.009907153435051441, 0.012510713189840317, 0.008598560467362404, -0.01590117998421192, -0.09214994311332703, -0.03906035050749779, 0.13183557987213135, -0.06342712789773941, 0.0500355139374733, 0.05373856797814369, 0.016059212386608124, 0.08124814182519913, -0.09000208973884583, 0.035199638456106186, 0.05448715761303902, 0.001007390208542347, 0.04310527443885803, 0.055769793689250946, 0.08748220652341843, -0.02457679808139801, -0.004275215789675713, 0.04071292281150818, -0.10557807981967926, -0.022155659273266792, 0.08889131993055344, 0.011070962995290756, -0.09868139028549194, -0.016990963369607925, -0.0019629248417913914, 0.04395809397101402, -0.015468338504433632, -0.08733266592025757, -0.0159014780074358, -0.05495622754096985], [0.009542807936668396, 0.007159112486988306, 0.16751845180988312, 0.009147227741777897, 0.041819386184215546, -0.10812145471572876, -0.0324443094432354, 0.008841285482048988, 0.05081147328019142, -0.09640924632549286, -0.11829300224781036, -0.06362659484148026, 0.06643657386302948, -0.2046305537223816, 0.04685315862298012, -0.04919179156422615, 0.01004886720329523, -0.10074196755886078, 0.0048544458113610744, -0.06457216292619705, 0.13887542486190796, -0.03188932314515114, -0.08041113615036011, -0.0776902288198471, 0.2505924701690674, -0.007810579612851143, -0.028642812743782997, 0.15227071940898895, -0.0007815804565325379, 0.0019398744916543365, -0.030669866129755974, -0.016391564160585403, 0.12958455085754395, 0.07238736748695374, -0.02572067454457283, 0.05547028034925461, 0.004427948966622353, 0.03314889967441559, -0.029460357502102852, 0.014103910885751247, 0.02909143641591072, 0.0928855687379837, 0.07315018028020859, 0.12693773210048676, 0.08990640938282013, 0.11760151386260986, 0.04929786175489426, 0.07941257208585739, -0.19653216004371643, 0.1464056670665741, 0.14447078108787537, 0.07379341870546341, -0.04294967278838158, 0.0326097197830677, 0.04806660860776901, -0.061169471591711044, -0.04559597000479698, 0.17761923372745514, -0.06299421936273575, 0.04213431850075722, -0.03997846692800522, 0.0815858542919159, 0.03161768987774849, 0.0030945835169404745, -0.03435841575264931, 0.08316326141357422, -0.12943430244922638, -0.01757134683430195, -0.05113754794001579, 0.1113329604268074, -0.07777903974056244, -0.12610381841659546, 0.03947542980313301, 0.04512352496385574, -0.10433652997016907, 0.10605858266353607, -0.054965533316135406, -0.012165319174528122, -0.06944743543863297, 0.03507435694336891, 0.05353911593556404, 0.04756513983011246, 0.19171647727489471, 0.15923358500003815, -0.07131928950548172, 0.06170862913131714, 0.09152244031429291, -0.0840735211968422, -0.14740382134914398, 0.05883988365530968, -0.03380610793828964, 0.03647967055439949, 0.025959961116313934, 0.05143335834145546, -0.06052009016275406, -0.05595843121409416, -0.016912465915083885, -0.12471538782119751, -0.07577724754810333, -0.001162754138931632, 0.014106805436313152, -0.13636478781700134, 0.011582445353269577, -0.0010155312484130263, -0.061483241617679596, -0.037236351519823074, -0.18493589758872986, -0.10064501315355301, -0.018011687323451042, -0.002271417062729597, 0.032117560505867004, -0.021481668576598167, 0.22818702459335327, 0.04578816518187523, 0.15743423998355865, 0.18240511417388916, 0.029770057648420334, 0.0167643241584301, 0.055511724203825, -0.07790352404117584, -0.05267809331417084, 0.07982437312602997, 0.01391195971518755, 0.06287691742181778, -0.0757555216550827, -0.11239112168550491, 0.09679554402828217, 0.050224099308252335], [0.04650554060935974, 0.05332084372639656, -0.047114357352256775, -0.014827116392552853, -0.02891632169485092, 0.04119660705327988, -0.017297402024269104, -0.005519615486264229, 0.012577834539115429, 0.015453854575753212, 0.06722457706928253, -0.002031096490100026, 0.07847161591053009, 0.044157158583402634, 0.06797519326210022, -0.04033033922314644, -0.004877593368291855, -0.08858025819063187, 0.06147880107164383, 0.08054205030202866, -0.07741852104663849, 0.030604351311922073, 0.045489050447940826, 0.07447347044944763, -0.06293268501758575, -0.06947542726993561, 0.0006108790985308588, -0.07345341145992279, -0.03319946303963661, 0.014099998399615288, 0.014638083986938, -0.03418575972318649, 0.06506320089101791, -0.001161166001111269, -0.03809793293476105, 0.05365105718374252, 0.038738228380680084, -0.03513401001691818, -0.023182010278105736, 0.03884659707546234, -0.0695640966296196, 0.07962676882743835, -0.09141642600297928, -0.036436665803194046, 0.020470591261982918, 0.06712841987609863, -0.059994667768478394, -0.060532208532094955, 0.07405304908752441, -0.062252748757600784, -0.01089275348931551, 0.004064702894538641, 0.07908698171377182, -0.09257234632968903, -0.06882470846176147, -0.03330819681286812, -0.027903206646442413, -0.03949219733476639, -0.010869228281080723, 0.03160873427987099, -0.09141325950622559, -0.09239144623279572, 0.06259029358625412, -0.0649922713637352, 0.05515957251191139, 0.03133469074964523, 0.022656148299574852, 0.04683653637766838, -0.0896739736199379, 0.06253764033317566, -0.018061194568872452, -0.05031733587384224, 0.038181010633707047, -0.01343871746212244, -0.018722081556916237, -0.08982116729021072, -0.007347064092755318, 0.00994954351335764, -0.016950786113739014, -0.0492437407374382, 0.05189483240246773, 0.06448081135749817, 0.07461243867874146, -0.05704021081328392, -0.09243808686733246, -0.017902875319123268, -0.06797631829977036, -0.08086633682250977, 0.07012950628995895, -0.06488145887851715, -0.047612469643354416, 0.015727955847978592, 0.012182272970676422, -0.07061643153429031, 0.03445464000105858, -0.023142382502555847, 0.059471629559993744, 0.03930385783314705, 0.011030874215066433, -0.06874646246433258, -0.08105652779340744, -0.018857138231396675, 0.019990140572190285, 0.03760897368192673, 0.07226500660181046, -0.04381415620446205, 0.04706796631217003, 0.03658439964056015, 0.05472486838698387, -0.032923441380262375, -0.08096253871917725, -0.07697013765573502, 0.05378745496273041, 0.006455648224800825, 0.0017609888454899192, -0.080717533826828, -0.05100742727518082, -0.09170633554458618, -0.06503024697303772, -0.062290191650390625, -0.05333271995186806, 0.04215611144900322, 0.00869813747704029, 0.031376488506793976, -0.0035776449367403984, -0.023342933505773544, -0.06074463576078415, -0.005117753054946661], [-0.09337866306304932, -0.02236049249768257, 0.012459921650588512, -0.027347473427653313, 0.006030343472957611, 0.013481196016073227, 0.007185332477092743, 0.029951713979244232, 0.04758349433541298, 0.011078706942498684, -0.009474617429077625, -0.088804692029953, -0.09121765196323395, -0.06875047832727432, 0.021544024348258972, -0.00839392002671957, 0.06396982818841934, -0.05789990723133087, 0.050929777324199677, -0.054013077169656754, 0.03755040094256401, 0.028880037367343903, 0.02934802696108818, -0.02066267468035221, 0.006284105125814676, 0.05468153581023216, -0.06422185152769089, -0.08833672106266022, -0.04285112023353577, 0.000522200542036444, 0.016288604587316513, -0.010761715471744537, 3.347278470755555e-05, 0.051567502319812775, -0.07370723783969879, -0.017674067988991737, -0.07744191586971283, -0.05581231787800789, 0.032858408987522125, 0.0493822917342186, -0.08216109871864319, 0.03290975093841553, -0.04331353306770325, 0.01206307765096426, -0.06960650533437729, 0.03765992820262909, -0.06909003108739853, 0.041553039103746414, 0.05634576827287674, 0.030564961954951286, -0.0765412300825119, -0.06342391669750214, -0.020568354055285454, -0.0017965410370379686, -0.0009117626468650997, -0.04581290856003761, 0.07573191821575165, -0.03975886479020119, 0.01683691330254078, 0.010229570791125298, -0.027520785108208656, -0.05123600736260414, -0.06984196603298187, 0.0036214753054082394, 0.0354478619992733, 0.04425612464547157, -0.07869094610214233, 0.02178885042667389, -0.0020678311120718718, -0.06187228485941887, 0.007515172939747572, -0.04826705902814865, -0.010744274593889713, 0.07457351684570312, -0.0317305363714695, -0.07756132632493973, -0.05469599366188049, -0.054487500339746475, -0.08117251098155975, 0.03921720013022423, 0.050040435045957565, 0.06619121134281158, 0.07454012334346771, -0.04780391603708267, -0.08444720506668091, 0.023104829713702202, 0.06861450523138046, -0.06878721714019775, 0.05187259986996651, 0.007795552257448435, 0.003248025430366397, -0.07224167138338089, 0.04070514068007469, -0.07441979646682739, 0.06839361786842346, -0.04474461078643799, -0.05090172961354256, -0.03067012131214142, -0.07524970173835754, 0.06773404777050018, 0.06727545708417892, -0.018785573542118073, -0.06477180123329163, 0.0686759203672409, -0.09435402601957321, 0.03473292291164398, -0.06138160452246666, -0.06359454244375229, 0.011577692814171314, -0.08200030028820038, -0.006518736016005278, 0.03104233555495739, 0.057233862578868866, -0.03797285631299019, -0.02535458281636238, -0.049052219837903976, -0.09767082333564758, 0.031914789229631424, -0.0536772757768631, -0.029635421931743622, -0.07091017812490463, -0.022153139114379883, 0.0547269843518734, -0.06452891230583191, -0.012615116313099861, 0.02349809743463993, 0.045844756066799164, -0.06454133987426758], [-0.08526807278394699, -0.002328605856746435, -0.05015961453318596, 0.07803238183259964, -0.04276628419756889, 0.05533606931567192, -0.020118506625294685, -0.028709247708320618, 0.02604779042303562, -0.006946247536689043, 0.05669546127319336, -0.001706757815554738, -0.023350678384304047, 0.007743794471025467, 0.05550570413470268, -0.027323344722390175, -0.026766160503029823, 0.056941475719213486, -0.07441014796495438, 0.06210429593920708, 0.0011389199644327164, -0.0058473558165133, -0.08396147191524506, 0.016141273081302643, -0.0826537236571312, 0.08183176815509796, -0.02892860770225525, -0.01644536480307579, -0.04416736215353012, 0.0011098227696493268, -0.030641287565231323, -0.02763799950480461, -0.08872123807668686, -0.08200319856405258, 0.005731930956244469, -0.00966688059270382, -0.01538144052028656, -0.005901033990085125, -0.013397148810327053, -0.022523658350110054, 0.053346022963523865, 0.01944553665816784, 0.027001263573765755, -0.04019155725836754, 0.0671897754073143, 0.036645080894231796, 0.044938113540410995, -0.027259932830929756, -0.018575668334960938, -0.05822930112481117, -0.06387750804424286, -0.06820914894342422, 0.028865402564406395, -0.08605150133371353, -0.04351634904742241, 0.03910105302929878, -0.022088628262281418, -0.0767245888710022, 0.05171823501586914, 0.07934170961380005, 0.0729840099811554, 0.07652141898870468, 0.053195178508758545, 0.06274083256721497, -0.0711187869310379, -0.09026765823364258, 0.04610384255647659, 0.01957732066512108, 0.03567105159163475, -0.03140707314014435, 0.00796817522495985, 0.07189098000526428, -0.08029408752918243, -0.045653585344552994, 0.056287530809640884, 0.07131800800561905, 0.045534513890743256, 0.026552634313702583, 0.08240599185228348, -0.03315681591629982, -0.08251549303531647, -0.07154296338558197, -0.037616148591041565, 0.005176788195967674, -0.08368737995624542, 0.05805021896958351, 0.06459305435419083, 0.05344278737902641, -0.08776198327541351, 0.022711100056767464, -0.06630586832761765, 0.06637074053287506, 0.019638683646917343, -0.026929784566164017, -0.04960448294878006, -0.08014300465583801, -0.07062889635562897, -0.09013020247220993, -0.0799887552857399, -0.029567735269665718, 0.034219201654195786, 0.04614364355802536, 0.05751775577664375, -0.01696666143834591, 0.06254160404205322, -0.048886124044656754, -0.08310598134994507, -0.017118355259299278, -0.06364277005195618, -0.05907450616359711, -0.06716460734605789, -0.0852879211306572, 0.0558350533246994, -0.016681354492902756, -0.02648008242249489, -0.059152763336896896, 0.02494562789797783, -0.00561874033883214, -0.05427511781454086, -0.06500981748104095, -0.07690625637769699, -0.010375839658081532, 0.010620295070111752, 0.08157659322023392, -0.017016315832734108, -0.06772930920124054, 0.009835541248321533, 0.039911240339279175], [-0.07565835863351822, -0.08768675476312637, 0.05563248693943024, -0.025240816175937653, 0.004873187281191349, -0.062113650143146515, -0.04826446622610092, -0.06669420748949051, 0.020838823169469833, -0.09367267787456512, -0.08634702861309052, 0.06006479263305664, -0.00805580522865057, 0.039006512612104416, 0.0001346905337413773, 0.05057166516780853, -0.04513203352689743, -0.053080976009368896, -0.09239961951971054, -0.08681633323431015, 0.04349416121840477, 0.036385562270879745, 0.04883558675646782, 0.06247938051819801, -0.025357617065310478, 0.010696365498006344, 0.07801098376512527, 0.03982557728886604, -0.053420018404722214, -0.007796260062605143, 0.047085896134376526, -0.09620815515518188, -0.0948401466012001, -0.05974512919783592, -0.005023064091801643, -0.06215856596827507, 0.07422777265310287, -0.0019319409038871527, -0.04089964181184769, -0.06755769997835159, -0.04183373972773552, -0.09660207480192184, 0.048245251178741455, -0.030396506190299988, 0.07200007140636444, 0.052149698138237, 0.006768233608454466, 0.007719661574810743, -0.084587462246418, -0.08037836849689484, 0.0712159052491188, 0.05960870906710625, -0.0023069356102496386, -0.03539454936981201, -0.02536565065383911, -0.0740223079919815, 0.005155738443136215, -0.09688630700111389, 0.04263763502240181, 0.06636212021112442, -0.04222120717167854, 0.029025228694081306, -0.018625477328896523, 0.0285169780254364, -0.02950630523264408, 0.04109491407871246, -0.05574217811226845, -0.08336855471134186, 0.022497661411762238, 0.03228895738720894, 0.07222634553909302, -0.06691280007362366, 0.004345886874943972, -0.03981683403253555, 0.004767741542309523, -0.0033841452095657587, -0.027530737221240997, -0.07508904486894608, -0.025937728583812714, 0.002361452439799905, -0.030087469145655632, -0.04405507817864418, 0.07064264267683029, 0.02582402527332306, -0.019038952887058258, -0.09172936528921127, 0.0565481074154377, 0.06687676161527634, -0.011425509117543697, 0.06291897594928741, 0.0463436096906662, 0.05738004669547081, 0.026339227333664894, -0.05665319040417671, -0.06829846650362015, 0.06678882986307144, -0.052832357585430145, 0.03756369277834892, -0.0308961383998394, 0.0038391179405152798, -0.009076258167624474, 0.054302603006362915, -0.0037740059196949005, 0.024192288517951965, -0.0844481959939003, -0.021028120070695877, -0.06834706664085388, -0.05907563492655754, -0.053184207528829575, 0.01560585293918848, 0.03566597402095795, -0.06564926356077194, -0.0025324057787656784, -0.06472723931074142, -0.08469543606042862, -0.016203610226511955, 0.004560798406600952, -0.04786771535873413, 0.042196862399578094, -0.03780480474233627, 0.02037794701755047, -0.05248793587088585, -0.0005758875631727278, -0.06134786456823349, 0.02315611019730568, -0.0634179338812828, 0.07457937300205231, -0.05279035121202469], [-0.0029558243695646524, -0.026075996458530426, 0.013025269843637943, -0.044784411787986755, -0.09646669030189514, -0.07729456573724747, 0.04039726033806801, 0.02557818964123726, -0.08308938890695572, -0.03190233185887337, -0.018421756103634834, 0.03911026939749718, 0.06000002473592758, 0.016191091388463974, 0.06057415530085564, 0.0650034099817276, 0.07356332987546921, 0.05300705134868622, -0.0352301262319088, 0.03341904655098915, 0.012002656236290932, 0.04348873719573021, -0.083027683198452, -0.09030740708112717, 0.05933483690023422, -0.011856849305331707, 0.06239014491438866, -0.08353317528963089, 0.055339887738227844, 0.002848781179636717, -0.035201117396354675, 0.003467586124315858, -0.005189622286707163, 0.05537180230021477, -0.07181813567876816, -0.010497882962226868, -0.017480643466114998, -0.009162518195807934, -0.07952916622161865, -0.04163236543536186, -0.08380233496427536, -0.006764119025319815, -0.02407318539917469, -0.09050428122282028, 0.0759689211845398, -0.05093967169523239, 0.04181712865829468, 0.07126138359308243, 0.007084545213729143, -0.06497375667095184, 0.005319561809301376, -0.0032410777639597654, -0.07077477872371674, 0.012292953208088875, -0.08077584952116013, 0.05348038673400879, -0.07215285301208496, 0.01820576749742031, 0.009003662504255772, 0.0340987928211689, 0.06166667491197586, -0.04782601818442345, 0.06250827014446259, 0.027120796963572502, -0.0845583826303482, -0.06352359801530838, 0.03883762285113335, -0.06576903164386749, 0.048691656440496445, 0.0711764544248581, -0.09809496998786926, 0.06950029730796814, 0.026999007910490036, -0.039401642978191376, -0.08764123916625977, -0.07814806699752808, -0.06942039728164673, -0.02823372557759285, -0.003547396045178175, 0.012080932967364788, -0.06925108283758163, -0.06004055216908455, -0.09409746527671814, -0.08605994284152985, 0.03345271572470665, 0.051435891538858414, -0.057888180017471313, -0.06505604833364487, -0.007670284248888493, 0.07417695969343185, -0.0025300495326519012, -0.012245731428265572, -0.09738697111606598, -0.03456208109855652, -0.001176471821963787, -0.015184624120593071, 0.016479451209306717, -0.05935637652873993, -0.08818662911653519, 0.01551644317805767, -0.0019747044425457716, 0.040006160736083984, 0.01081109419465065, -0.04319937154650688, -0.02332456223666668, 0.03714654594659805, -0.0363762341439724, -0.07043910771608353, 0.010644666850566864, 0.0034382541198283434, -0.021937765181064606, -0.041232820600271225, 0.015262904576957226, -0.008834767155349255, -0.019396387040615082, -0.01944335550069809, -0.035054564476013184, -0.0650549903512001, -0.003894448047503829, -0.033658914268016815, -0.038524918258190155, 0.05489901453256607, -0.07986914366483688, 0.029933681711554527, -0.0692603588104248, 0.018250836059451103, 0.0030844879802316427, 0.0584721565246582], [0.08315711468458176, 0.0004280209541320801, -0.037829428911209106, 0.03217035531997681, 0.08011270314455032, 0.03760074824094772, -0.008281588554382324, 0.010557815432548523, -0.059378448873758316, 0.003852568566799164, 0.04412705451250076, -0.002218693494796753, 0.06958246976137161, -0.008474066853523254, -0.027322664856910706, -0.07959859818220139, 0.06547913700342178, -0.05635413900017738, -0.08692106604576111, 0.005217075347900391, -0.023838266730308533, -0.06524083018302917, -0.008598200976848602, 0.028103195130825043, 0.038829632103443146, -0.03312211111187935, 0.08316744118928909, -0.029491517692804337, -0.07501639425754547, 0.05404778569936752, -0.033600013703107834, -0.040313489735126495, -0.06814871728420258, -0.06330393254756927, 0.027906648814678192, -0.08325926214456558, 0.01830698549747467, 0.00550457090139389, -0.040608033537864685, -0.010089114308357239, -0.0029708296060562134, 0.05442719906568527, -0.018554188311100006, 0.05823340266942978, 0.01734970510005951, -0.008672460913658142, 0.038805268704891205, -0.040355268865823746, 0.0010364726185798645, -0.04113170877099037, 0.0716589018702507, 0.03140081465244293, -0.031537558883428574, -0.033330634236335754, -0.04558110982179642, -0.06370938569307327, -0.014853052794933319, 0.015417441725730896, 0.02172139286994934, -0.01790282130241394, -0.013770610094070435, -0.08204910159111023, -0.0881558507680893, 0.008660934865474701, -0.025034181773662567, 0.0037007853388786316, -0.04379132390022278, -0.01666107028722763, 0.07989943772554398, 0.005216769874095917, 0.08805946260690689, 0.061103470623493195, 0.0005044266581535339, -0.08658083528280258, 0.019235484302043915, 0.012326322495937347, 0.006479181349277496, -0.07112181186676025, -0.030411846935749054, -0.07977617532014847, -0.05955308675765991, -0.07945206761360168, -0.07709898799657822, -0.05331961810588837, 0.06417980045080185, -0.06675755977630615, 0.06375368684530258, 0.0036932826042175293, -0.0030777305364608765, -0.050481248646974564, -0.08086127042770386, -0.01733512431383133, -0.016559265553951263, 0.034342966973781586, -0.0675620511174202, -0.0029590800404548645, -0.03928367421030998, 0.05368825048208237, 0.03155864030122757, 0.01593238115310669, -0.046495676040649414, 0.07635777443647385, -0.01721794903278351, -0.06203605234622955, -0.028337452560663223, -0.05124340206384659, -0.042867209762334824, 0.03364099562168121, -0.016497865319252014, 0.0027297064661979675, 0.06951562315225601, -0.016615204513072968, 0.046792931854724884, -0.07066071778535843, -0.03472781181335449, -0.03819943591952324, 0.03666750341653824, 0.07932383567094803, -0.03552445024251938, 0.012695349752902985, -0.07437039911746979, -0.07107227295637131, -0.019308649003505707, 0.053267814218997955, -0.020778797566890717, 0.08692441135644913, -0.08432981371879578, -0.047653038054704666], [-0.021114671602845192, 0.05719679966568947, 0.012342408299446106, -0.08412384241819382, -0.055076804012060165, -0.019901778548955917, 0.0711633563041687, -0.037356410175561905, 0.05310782790184021, 0.031754154711961746, -0.021644292399287224, -0.0035306988283991814, -0.023051703348755836, -0.017493482679128647, 0.07925449311733246, -0.08452975749969482, -0.0220652986317873, -0.013558764941990376, -0.057695239782333374, -0.00428704684600234, -0.09081666171550751, -0.002176649169996381, -0.01432562805712223, -0.017955416813492775, 0.05683019757270813, 0.04785879701375961, -0.03812918812036514, -0.07112172245979309, 0.0798957347869873, -0.005863463971763849, 0.07224471867084503, -0.08955264836549759, 0.049377650022506714, -0.059370167553424835, -0.05010339990258217, 0.08219272643327713, -0.07997625321149826, -0.05427181348204613, 0.024297649040818214, 0.04659770429134369, -0.047018975019454956, 0.06863833963871002, 0.07934097945690155, -0.021257460117340088, 0.004486895631998777, -0.025998396798968315, 0.05943773686885834, -0.07199500501155853, -0.04853158816695213, -0.04430145397782326, 0.03605145215988159, 0.0626131147146225, -0.021508006379008293, 0.0034689526073634624, 0.05420316383242607, 0.04990788921713829, 0.031197059899568558, -0.0021127304062247276, -0.0818139910697937, -0.04225330427289009, -0.04549211636185646, -0.06547021120786667, 0.01972823590040207, -0.062018875032663345, 0.01894056238234043, 0.08001811057329178, 0.040831558406353, -0.010206694714725018, -0.058851324021816254, -0.03444066271185875, 0.03914739936590195, -0.03327833488583565, 0.004112316761165857, 0.08289386332035065, 0.06956163048744202, 0.022867918014526367, -0.08911887556314468, -0.06306904554367065, 0.07274894416332245, -0.0838128849864006, -0.08603771030902863, 0.006468083243817091, 0.07332523167133331, 0.06143183261156082, -0.0770818442106247, 0.010127080604434013, 0.02055625431239605, 0.0543096698820591, -0.044399991631507874, -0.0414646677672863, -0.06197412312030792, -0.08266769349575043, -0.020200805738568306, -0.033199939876794815, -0.05656380578875542, 6.759449024684727e-05, 0.057308588176965714, 0.06137203425168991, -0.06452806293964386, 0.04376314952969551, -0.04785141721367836, 0.04433786869049072, 0.04243266209959984, 0.0849619209766388, -0.08473482728004456, 0.08530960232019424, -0.058373209089040756, -0.08381970971822739, 0.07476857304573059, -0.03219752386212349, -0.012725229375064373, -0.03896257281303406, 0.011756781488656998, -0.0021369399037212133, 0.06803319603204727, -0.0743606686592102, -0.08959699422121048, -0.04236974939703941, 0.060379475355148315, -0.04997957870364189, 0.04313923045992851, 0.013447237201035023, 0.010067365132272243, 0.02522028237581253, -0.0035957875661551952, 0.03361596539616585, -0.09442579001188278, 0.07068558037281036], [-0.0467599593102932, 0.06147763133049011, -0.08771898597478867, -0.010393372736871243, -0.052112653851509094, -0.06159662455320358, 0.03534470498561859, -0.001498077530413866, 0.017763212323188782, -0.005324804224073887, -0.007538762409240007, -0.052654609084129333, 0.06329592317342758, 0.03618235141038895, -0.02308935672044754, -0.06743078678846359, 0.06447956711053848, -0.06520545482635498, 0.027671905234456062, -0.005163991823792458, -0.03637317568063736, -0.055659424513578415, -0.07390055805444717, -0.056577134877443314, 0.00762109225615859, -0.007672158069908619, -0.07707943022251129, -0.05254901573061943, -0.080283023416996, -0.08983782678842545, -0.035926587879657745, 0.03189995139837265, -0.027130790054798126, 0.04021055996417999, -0.05943538621068001, 0.04203873500227928, 0.04162842407822609, -0.04491288214921951, 0.028360318392515182, -0.032272323966026306, 0.0600358285009861, 0.020869985222816467, 0.019452298060059547, -0.036963608115911484, -0.024072328582406044, -0.03518194332718849, 0.0638614222407341, -0.03587174415588379, 0.043308988213539124, -0.07554496824741364, -0.01505094114691019, -0.03353900462388992, -0.0011095049558207393, -0.07638806104660034, -0.009458431974053383, 0.036250125616788864, -0.014393813908100128, -0.05981619283556938, 0.054018694907426834, -0.01996198669075966, -0.03276699036359787, -0.07645316421985626, -0.06627655774354935, 0.0030355602502822876, -0.08562636375427246, -0.04060531407594681, -0.030133863911032677, 0.015297714620828629, 0.06609180569648743, -0.07165176421403885, -0.0942317396402359, -0.018388886004686356, 0.04015933349728584, -0.02120313048362732, -0.06695316731929779, 0.059372786432504654, -0.029860228300094604, 0.04779983311891556, 0.007172220852226019, 0.04769822210073471, -0.034195028245449066, -0.01237091887742281, 0.011567636393010616, -0.05073804780840874, 0.06833663582801819, -0.0830872505903244, 0.041456710547208786, 0.05417317897081375, -0.03530289605259895, 0.035916171967983246, 0.037074021995067596, -0.08777959644794464, -0.0049211410805583, 0.07147091627120972, -0.07808250188827515, -0.060406431555747986, -0.03702009469270706, -0.059874676167964935, 0.0019654552452266216, -0.067719966173172, 0.0654507651925087, 0.02164565399289131, 0.05391107127070427, 0.06320565938949585, 0.0058592441491782665, -0.0437091588973999, 0.02283255010843277, 0.0078861890360713, 0.05968927592039108, 0.05171516537666321, -0.061365190893411636, -0.013343781232833862, -0.06460221111774445, -0.0863838866353035, -0.07561339437961578, 0.05167476460337639, 0.040766362100839615, 0.02543056756258011, -0.0712108388543129, -0.06265033781528473, -0.06553217023611069, -0.015232331119477749, -0.04723836109042168, 0.048204388469457626, -0.06236429139971733, 0.0730191171169281, -0.03564141318202019, -0.08911799639463425], [-0.006814379710704088, -0.13271324336528778, 0.07564026862382889, 0.06481925398111343, 0.13651849329471588, 0.1410488486289978, -0.035841505974531174, -0.18381722271442413, 0.06780597567558289, 0.08770471066236496, 0.1389336884021759, 0.15163196623325348, -0.023493705317378044, 0.034017279744148254, -0.14861753582954407, 0.06380557268857956, 0.07683348655700684, 0.15157607197761536, 0.01402522437274456, -0.02369673177599907, -0.0035513753537088633, 0.11089909076690674, -0.11903632432222366, 0.12262063473463058, 0.035619884729385376, -0.04705002158880234, -0.02812008745968342, 0.07985959947109222, -0.008903304114937782, -0.06558268517255783, 0.08664464205503464, -0.056810926645994186, -0.059810761362314224, -0.10149805247783661, -0.084507055580616, 0.05620467662811279, -0.08549327403306961, -0.057413578033447266, -0.01786128431558609, 0.10067549347877502, -0.07022693753242493, -0.0200384221971035, 0.1441495716571808, -0.021827124059200287, -0.02378961630165577, -0.0606829933822155, 0.15597793459892273, 0.08848217129707336, 0.08176318556070328, 0.012747366912662983, -0.0904398038983345, 0.11806967109441757, -0.10151094198226929, 0.06401380151510239, -0.09589587152004242, 0.06937606632709503, 0.008124073036015034, 0.04088039696216583, 0.03298903629183769, 0.018868783488869667, -0.07135370373725891, -0.11761324107646942, -0.017863422632217407, -0.05524284020066261, 0.07520242780447006, 0.09796253591775894, -0.000881562358699739, -0.0019630081951618195, -0.04753410443663597, 0.08031055331230164, -0.029261039569973946, -0.11594806611537933, -0.03297320753335953, -0.03196364641189575, 0.09385795891284943, -0.004738098941743374, -0.09118622541427612, 0.03799300268292427, 0.06973131000995636, 0.02153138257563114, -0.004620786290615797, 0.17084957659244537, -0.0517529621720314, 0.3256654143333435, -0.055270735174417496, 0.054465994238853455, -0.041690316051244736, -0.13592444360256195, -0.07430961728096008, -0.052632708102464676, -0.08377157151699066, -0.024180512875318527, 0.04102237522602081, 0.022420912981033325, 0.065032459795475, -0.10623165220022202, -0.10883832722902298, 0.017772767692804337, 0.022974364459514618, 0.08293014764785767, 0.09404084086418152, 0.027430357411503792, 0.14149293303489685, 0.006708196364343166, 0.018591798841953278, 0.05740899592638016, 0.07180114090442657, 0.025168854743242264, -0.18605917692184448, -0.10921499133110046, 0.05803597345948219, 0.054317545145750046, 0.0938730388879776, 0.027169885113835335, -0.042975250631570816, -0.09303650259971619, 0.15707099437713623, 0.09246647357940674, 0.07916074246168137, 0.116246797144413, -0.07580063492059708, -0.24472205340862274, -0.013111565262079239, 0.034987714141607285, 0.03978433832526207, -0.04300368204712868, 0.04287433624267578, 0.009758932515978813], [0.05775610730051994, -0.1316983550786972, 0.1015026643872261, 0.0635615661740303, -0.09298290312290192, 0.023045925423502922, -0.11847661435604095, -0.07170572876930237, -0.10976144671440125, 0.06960117071866989, -0.00028062096680514514, 0.12043877691030502, 0.06458447873592377, 0.03409028425812721, 0.1348196566104889, -0.025299515575170517, 0.1734257936477661, 0.06992486119270325, 0.05579373985528946, -0.038625046610832214, 0.11470396816730499, -0.04450206086039543, 0.015281381085515022, 0.23685340583324432, -0.06560854613780975, -0.022590409964323044, -0.0018951321253553033, -0.0362536758184433, 0.0450780875980854, -0.13892734050750732, -0.12971439957618713, 0.20433512330055237, 0.03398306295275688, 0.0070060561411082745, -0.1391497403383255, 0.13274817168712616, -0.00904577225446701, -0.07908330857753754, -0.0366746187210083, 0.10387438535690308, -0.10105733573436737, -0.03649003803730011, -0.04202009364962578, -0.0763792097568512, -0.0024145711213350296, -0.13049593567848206, 0.057057786732912064, -0.06398551166057587, 0.1399940699338913, -0.05028270557522774, 0.16300709545612335, 0.006295303348451853, 0.04572131857275963, 0.027596576139330864, -0.00435201171785593, -0.2006450593471527, 0.0895291119813919, 0.07076060771942139, -0.13191016018390656, -0.1277899146080017, -0.04514707624912262, 0.018439915031194687, 0.07163193076848984, 0.012516866438090801, -0.08609764277935028, 0.07111144065856934, 0.07273025810718536, 0.045703575015068054, 0.017281370237469673, 0.160970538854599, -0.058328624814748764, -0.03902146592736244, -0.03406775742769241, -0.08898350596427917, 0.06278708577156067, 0.10302392393350601, -0.010299822315573692, 0.12207003682851791, 0.022990314289927483, 0.040038883686065674, -0.05142781510949135, -0.15947400033473969, 0.12714675068855286, 0.09252913296222687, 0.06487923115491867, -0.02317233383655548, 0.023779604583978653, 0.06083009019494057, 0.022345222532749176, 0.11485689878463745, 0.047512613236904144, -0.021575726568698883, 0.02434392459690571, 0.20069393515586853, 