{"encoder.2.bias": [-0.10544166713953018, 0.03509419038891792, 0.12311065942049026, -0.009206945076584816, -0.0763610228896141, 0.022124379873275757, 0.019229695200920105, -0.01444208063185215, -0.012992767617106438, -4.50480729341507e-06, 0.05672305449843407, -0.03344428911805153, 0.006156472954899073, -0.052212540060281754, -0.03678124397993088, -0.09491586685180664, -0.005859732627868652, 0.10944803804159164, -0.013689401559531689, 0.016330135986208916, 0.09470993280410767, 0.011287871748209, 0.06866045296192169, -0.07595941424369812, -0.05920536443591118, 0.01819434203207493, -0.006768748164176941, -0.08586998283863068, -0.06798560172319412, -0.0838671550154686, 0.10959348827600479, 0.014603939838707447, 0.05107450485229492, 0.046737365424633026, -0.04938279464840889, 0.04804759472608566, -0.08948048949241638, -0.10475360602140427, -0.029489032924175262, -0.054095808416604996, 0.04248422756791115, 0.08914903551340103, 0.05744631960988045, -0.06658367067575455, 0.04652973264455795, -0.0275588259100914, 0.05818549171090126, 0.05932367220520973, 0.0779220461845398, 0.06435496360063553, 0.04315723851323128, -0.08669763058423996, 0.0644642785191536, 0.08573435246944427, 0.10053960978984833, -0.021858368068933487, 0.06809242814779282, -0.001315113389864564, -0.043022941797971725, -0.05310530588030815, -0.04243122786283493, 0.06778417527675629, -0.06440192461013794, 0.024625230580568314, 0.051888708025217056, -0.06044871732592583, -0.04960264638066292, 0.041451968252658844, -0.03124585561454296, 0.019201725721359253, -0.05833157151937485, 0.05500538647174835, -0.08973652124404907, 0.020571792498230934, 0.045875806361436844, 0.08482666313648224, -0.07199198007583618, 0.021444858983159065, -0.01708635874092579, -0.01509135589003563], "decoder.0.bias": [0.09841658920049667, -0.11257348954677582, 0.005084570497274399, 0.1214151605963707, -0.12277649343013763, 0.11585338413715363, -0.007286101579666138, -0.00023192056687548757, -0.054750844836235046, 0.12624575197696686, -0.116204634308815, 0.08560516685247421, 0.0883551612496376, 0.09984851628541946, -0.01844555139541626, 0.004773890133947134, -0.08126727491617203, -0.060768209397792816, 0.0940277948975563, 0.06813771277666092, 0.006798291113227606, 0.09481356292963028, 0.06629572808742523, -0.0703624039888382, 0.04710211977362633, -0.08386296033859253, -0.1238565668463707, -0.0621170848608017, 0.1088813841342926, -0.10742354393005371, -0.1302177459001541, 0.08159754425287247, -0.037363793700933456, 0.019239531829953194, -0.09132053703069687, -0.09770551323890686, 0.1308603584766388, -0.07045259326696396, -0.054793547838926315, 0.006340972147881985, 0.03815742954611778, 0.06110295653343201, 0.030923087149858475, -0.09516021609306335, -0.06059515103697777, 0.11456142365932465, -0.0922454446554184, 0.01707458682358265, 0.07858069986104965, -0.11731791496276855, -0.12408691644668579, 0.11376624554395676, 0.009469334967434406, -0.06377977132797241, -0.034050263464450836, -0.05235670134425163, 0.05193987116217613, -0.06544587761163712, -0.1217268705368042, -0.10953783988952637, -0.06933578103780746, 0.09262210875749588, -0.11940842121839523, -0.024869084358215332, 0.0829358845949173, 0.12260165065526962, 0.08860152214765549, 0.10482204705476761, 0.09071336686611176, -0.10824564099311829, 0.05294863134622574, -0.10848438739776611, 0.013395024463534355, -0.05658069998025894, 0.10098057985305786, 0.08988501131534576, -0.10525201261043549, 0.02386053279042244, 0.08201250433921814, -0.12035360932350159], "decoder.4.bias": [0.04640809819102287, 0.008620964363217354, -0.0009923232719302177, 0.09985951334238052, 0.08499967306852341, 0.045607537031173706, -0.027251290157437325, 0.08553237468004227, -0.07453501224517822, -0.0018140566535294056, -0.0714089497923851, -0.008922964334487915, 0.03356820344924927, -0.03966332599520683, 0.059195902198553085, 0.07107767462730408, 0.02809307537972927, 0.013163747265934944, 0.08136068284511566, -0.03640909492969513, 0.020488418638706207, -0.026624098420143127, 0.06057070195674896, 0.05499734729528427, -0.008070508949458599, -0.03412299603223801, 0.08478706330060959, 0.06968250870704651, 0.02267596125602722, 0.05278743430972099, -0.04431922733783722, 0.009134710766375065, 0.04572395980358124, 0.0978446900844574, 0.05299023911356926, 0.008872255682945251, -0.0657239481806755, 0.08570225536823273, -0.04094040393829346, -0.0074253021739423275, -0.03808028995990753, -0.05455206334590912, 0.0680367648601532, -0.049458954483270645, 0.06413313001394272, 0.06000613793730736, -0.025110537186264992, 0.07399307191371918, -0.039976540952920914, 0.08961336314678192, 0.06411360949277878, 0.058812279254198074, 0.03280467912554741, 0.03340594843029976, -0.05402582138776779, 0.04671958088874817, 0.06031609699130058, -0.036707352846860886, 0.004277210216969252, 0.0718688815832138, -0.04787369444966316, -0.03534515202045441, -0.06748577952384949, 0.02813720703125, 0.039213407784700394, 0.10032019019126892, -0.0030407458543777466, 0.025224899873137474, 0.06329658627510071, 0.07792115211486816, 0.07221097499132156, 0.02048412337899208, 0.10185255110263824, 0.091123066842556, -0.06095665693283081, 0.00936484057456255, -0.020048534497618675, -0.06434768438339233, -0.04998291656374931, -0.04930245131254196, -0.003954318352043629, 0.10823933035135269, 0.10081605613231659, 0.08880703896284103, 0.06883154064416885, 0.01087266020476818, 0.11008317768573761, -0.06557079404592514, 0.02724548801779747, 0.03647998347878456, -0.011956509202718735, -0.0024265265092253685, 0.05525290220975876, 0.02157987467944622, -0.009684231132268906, 0.07504472881555557, 0.042599380016326904, 0.08296945691108704, -0.00024248342378996313, 0.07753008604049683, -0.04028214514255524, -0.05135582014918327, 0.012590249069035053, -0.07841531187295914, -0.006113951560109854, 0.0783483237028122, 0.05123724415898323, -0.030185077339410782, 0.06169935315847397, 0.024672305211424828, -0.0777910053730011, -0.05853334069252014, 0.03411301597952843, -0.002694536466151476, -0.04251091927289963, -0.05962381139397621, -0.017356352880597115, 0.028197988867759705, -0.07188954949378967, 0.08388421684503555, -0.04806236922740936, 0.03243141621351242, 0.025254586711525917, -0.06517162173986435, 0.09523430466651917, 0.09126671403646469, 0.06613679975271225, -0.07198017090559006], "encoder.4.bias": [0.0035669796634465456, 0.00516142975538969, -0.07183299958705902, 0.061115216463804245, -0.08688385784626007, -0.03689197078347206, -0.07020220160484314, -0.10627748817205429, 0.07861577719449997, 0.08942234516143799, 0.06006881222128868, -0.10687901824712753, -0.029070135205984116, -0.09386549144983292, 0.09830234199762344, -0.06788070499897003, 0.006754292640835047, 0.0005846497952006757, -0.06330464035272598, 0.008345363661646843, -0.07864496111869812, -0.06777547299861908, -0.024741483852267265, 0.014358592219650745, 0.046663057059049606, 0.08105378597974777, 0.06554610282182693, -0.04841815307736397, -0.034882377833127975, 0.05173949897289276, 0.0878581777215004, -0.09603741019964218, 0.12343911826610565, 0.014058402739465237, 0.002638116478919983, -0.06244248151779175, 0.0575103834271431, 0.04840875044465065, -0.10507253557443619, 0.07855966687202454, -0.014234468340873718, -0.009708747267723083, 0.02605357952415943, -0.009751335717737675, -0.10149910300970078, -0.04027104750275612, 0.01569277234375477, 0.015111138112843037, -0.09970888495445251, -0.08011355996131897, 0.0438324436545372, -0.035367634147405624, -0.0016077106120064855, -0.026644978672266006, -0.003993537742644548, -0.021112114191055298, -0.017012257128953934, -0.09354108572006226, -0.0589737705886364, 0.005719455424696207, -0.10229269415140152, -0.08075249195098877, -0.055774614214897156, -0.043096873909235], "decoder.2.weight": [[0.08150625228881836, -0.08875907957553864, 0.057984307408332825, 0.030902205035090446, 0.03638426959514618, 0.07438682019710541, 0.012520484626293182, 0.013841304928064346, 0.00018584728240966797, -0.09892977029085159, -0.021092578768730164, 0.021812746301293373, 0.007589018438011408, 0.02074296772480011, -0.10100895166397095, 0.02955140545964241, -0.06548921018838882, 0.02291335165500641, -0.0914083793759346, -0.09802379459142685, 0.06985628604888916, 0.002782999537885189, 0.014254944398999214, 0.08852976560592651, -0.09981537610292435, 0.06305432319641113, 0.06793391704559326, -0.022253798320889473, 0.013411103747785091, 0.08104847371578217, -0.08123807609081268, 0.029042847454547882, 0.01649278961122036, -0.09385183453559875, -0.037181027233600616, -0.06332148611545563, 0.07942234724760056, 0.029709845781326294, -0.04536648839712143, 0.04521763697266579, -0.08936013281345367, -0.0964306965470314, -0.026688648387789726, -0.042688265442848206, -0.08994889259338379, -0.01401111576706171, -0.021233119070529938, -0.10865560173988342, -0.059440065175294876, -0.012133464217185974, 0.10584981739521027, -0.024553438648581505, -0.1174597442150116, 0.06777305901050568, -0.06904440373182297, -0.014077004045248032, -0.1134999617934227, 0.04251691699028015, -0.018787436187267303, 0.10004012286663055, -0.053794343024492264, -0.10074181109666824, 0.07847273349761963, -0.06437566876411438, 0.08227476477622986, 0.0385221466422081, 0.02159564569592476, -0.022213131189346313, 0.052641112357378006, 0.05325856804847717, -0.04126816242933273, -0.05086681991815567, -0.07153414189815521, 0.0049080089665949345, -0.11305464059114456, 0.06022544205188751, 0.027206137776374817, 0.006444726604968309, 0.014869911596179008, 0.06287629902362823], [0.0125260129570961, 0.029032647609710693, -0.08975201845169067, 0.05717949941754341, 0.0941251665353775, 0.04706459492444992, -0.0065790340304374695, -0.059714335948228836, 0.028121158480644226, 0.061513751745224, -0.04526597633957863, -0.024435512721538544, 0.05180281400680542, 0.04139969125390053, 0.08689294755458832, -0.026070278137922287, 0.08799853175878525, -0.10763376206159592, 0.009189662523567677, 0.05678585171699524, -0.02631831169128418, 0.019511573016643524, -0.01992177590727806, 0.07881680130958557, -0.06350691616535187, -0.011017672717571259, -0.04728589951992035, -0.08882368355989456, 0.07037518918514252, -0.07498595118522644, -0.08448177576065063, 0.021432533860206604, -0.04653630033135414, -0.06528505682945251, -0.08058734983205795, 0.10121969878673553, -0.013102869503200054, 0.0993528887629509, 0.04011949896812439, -0.05483214184641838, 0.013411854393780231, -0.09510443359613419, 0.11626069992780685, 0.05861556529998779, -0.06260483711957932, 0.06480640918016434, -0.07893490046262741, 0.08274959027767181, 0.10746285319328308, 0.004934556782245636, -0.01495111733675003, 0.03319008648395538, -0.0928749069571495, -0.043263986706733704, 0.0722750574350357, -0.010338054038584232, 0.013397428207099438, 0.10489415377378464, 0.04094292223453522, -0.08206532150506973, -0.09611257910728455, -0.00891974475234747, 0.1124664917588234, 0.05098208785057068, -0.03483216464519501, 0.06595602631568909, -0.0544671006500721, 0.09318166226148605, -0.04060916230082512, 0.09607058763504028, 0.12120795994997025, 0.021774515509605408, 0.08439720422029495, 0.09734659641981125, -0.09625975042581558, -0.05230803042650223, -0.02869287133216858, 0.09748173505067825, -0.06093220040202141, 0.024529650807380676], [-0.07576363533735275, -0.07423679530620575, -0.09863118827342987, -0.1042681336402893, -0.05302620679140091, 0.005560934543609619, 0.10140831768512726, -0.01900910586118698, -0.08900517225265503, -0.03312686085700989, 0.048925429582595825, 0.03309401869773865, 0.046551868319511414, -0.04610282927751541, 0.09578448534011841, 0.04091906547546387, -0.013977423310279846, 0.02938881516456604, -0.07822912931442261, 0.05478028953075409, 0.09549462795257568, 0.002145998179912567, -0.03074437379837036, 0.07305632531642914, -0.07572856545448303, -0.024464040994644165, 0.06890709698200226, -0.07002636790275574, -0.03151988983154297, -0.08195898681879044, 0.09818001091480255, 0.09201446175575256, -0.05304677411913872, -0.10751613974571228, -0.04925065487623215, -0.024720340967178345, 0.09844110906124115, -0.0018537119030952454, -0.11061600595712662, 0.026548177003860474, 0.10893869400024414, -0.06802676618099213, -0.010591685771942139, 0.06069524586200714, -0.020697884261608124, -0.08473588526248932, -0.021867334842681885, 0.09020575881004333, 0.02153685688972473, -0.1070735976099968, 0.0278158038854599, -0.06760140508413315, -0.0660681277513504, -0.09212921559810638, 0.0737326592206955, 0.0944719910621643, -0.07431957125663757, 0.0341067761182785, -0.08552633225917816, 0.04709233343601227, -0.09529100358486176, 0.10691238939762115, -0.09341557323932648, 0.07816244661808014, 0.012935563921928406, 0.02606607973575592, -0.03955671191215515, -0.04425545036792755, -0.048654474318027496, -0.09466523677110672, 0.042991235852241516, -0.07064978778362274, 0.1109713613986969, 0.08361545205116272, 0.0228421688079834, 0.03116457164287567, 0.0313592404127121, -0.015449821949005127, 0.029815182089805603, -0.06987927109003067], [0.024578172713518143, -0.052050866186618805, -0.04260852187871933, 0.03272181376814842, 0.03297622501850128, -0.0009828994516283274, 0.09882456064224243, -0.015352565795183182, -0.01982700824737549, 0.0833311453461647, -0.058071885257959366, -0.018786173313856125, -0.00465077580884099, 0.059401560574769974, -0.037380196154117584, -0.08482116460800171, -0.06069830805063248, -0.047452956438064575, 0.09344889223575592, 0.05173686519265175, 0.022403810173273087, 0.0983574315905571, -0.015181443654000759, 0.07564859092235565, -0.04938237741589546, -0.03542211651802063, -0.02772219479084015, 0.03816912695765495, -0.07843951135873795, -0.053443681448698044, 0.0814421996474266, -0.0024164088536053896, 0.03269502520561218, 0.01252755057066679, 0.024511419236660004, 0.002666562795639038, 0.03948381170630455, 0.03238927945494652, 0.03935956582427025, 0.0449182465672493, 0.01085707824677229, 0.04406612366437912, -0.09073738753795624, 0.020589590072631836, -0.0012172706192359328, -0.002002090448513627, 0.06613396108150482, 0.11326076090335846, 0.0651056319475174, 0.0026582032442092896, 0.0026770606637001038, 0.08108150959014893, -0.07690265029668808, 0.0499076172709465, -0.013895923271775246, -0.060472361743450165, -0.02351241372525692, -0.047945939004421234, -0.09185992181301117, 0.08530243486166, 0.09332090616226196, 0.07611912488937378, 0.04777658358216286, -0.1101078912615776, 0.0387110635638237, 0.04963095113635063, -0.04909692332148552, 0.09622185677289963, -0.06896534562110901, 0.10211178660392761, 0.09725625067949295, 0.05802854895591736, -0.07521016150712967, -0.1047433540225029, 0.04144417867064476, -0.07028990983963013, -0.04471968859434128, -0.030836347490549088, 0.1278214156627655, 0.02545630931854248], [0.0003212839365005493, 0.11080987751483917, 0.04657578468322754, -0.045512855052948, -0.07283909618854523, 0.0020996704697608948, 0.10197964310646057, -0.05504060164093971, -0.016072481870651245, -0.039909012615680695, 0.10941079258918762, 0.08643712103366852, -0.00322791188955307, -0.07164613902568817, 0.07996834814548492, -0.030818887054920197, 0.03517891466617584, -0.03057946264743805, -0.07344761490821838, 0.07763242721557617, -0.10479292273521423, 0.007738828659057617, -0.025452740490436554, -0.03856965899467468, -0.0803770050406456, 0.013782992959022522, 0.005679287016391754, -0.08079694211483002, 0.05415414273738861, 0.058291926980018616, 0.1070079505443573, -0.06303273141384125, 0.0735926479101181, 0.06705096364021301, 0.031642407178878784, -0.004055775701999664, 0.004277452826499939, 0.012165069580078125, -0.03699173033237457, 0.08029936254024506, -0.0014238804578781128, 0.05542267858982086, 0.04704771935939789, 0.09224513173103333, 0.02116122841835022, -0.07989001274108887, -0.04124128073453903, -0.03380332142114639, -0.018092848360538483, -0.014226056635379791, -0.09228996187448502, 0.04895073175430298, 0.08183176815509796, -0.10286621004343033, -0.02313993126153946, -0.0818571150302887, -0.05863525718450546, -0.08798785507678986, 0.09939675033092499, -0.03292123228311539, -0.013217419385910034, -0.04669107496738434, -0.02099847048521042, 0.09400424361228943, 0.0914413332939148, 0.06177377700805664, -0.015190035104751587, -0.03769431263208389, -0.09085862338542938, -0.03484846651554108, -0.04990921542048454, -0.040592044591903687, 0.0995655357837677, 0.012530133128166199, -0.09122397005558014, -0.03757584095001221, 0.07012806832790375, -0.009655021131038666, 0.03574970364570618, -0.023501306772232056], [0.034996382892131805, 0.05906568467617035, -0.07309975475072861, -0.026749327778816223, -0.07125835865736008, -0.09071888029575348, 0.014397382736206055, -0.06837146729230881, -0.09424123167991638, -0.04546015337109566, 0.035180289298295975, -0.08449531346559525, 0.07794338464736938, 0.12766176462173462, -0.040816955268383026, 0.026980027556419373, 0.08072323352098465, -0.0329141840338707, -0.06397337466478348, 0.06913283467292786, -0.036839891225099564, 0.08640775829553604, -0.06804067641496658, -0.1021498292684555, 0.11439255625009537, -0.10998474806547165, 0.07191524654626846, 0.09011796861886978, 0.0602516308426857, 0.08355297148227692, 0.04685964807868004, -0.07398579269647598, -0.10784225910902023, -0.01698465831577778, 0.009144332259893417, -0.10244302451610565, 0.0865611806511879, -0.08423543721437454, 0.058583810925483704, 0.02315066196024418, 0.001449969713576138, -0.040200356394052505, 0.08821786195039749, 0.05125707387924194, 0.0816774070262909, -0.08338858932256699, -0.02343384176492691, -0.09522770345211029, -0.05979027971625328, 0.0762854516506195, 0.06647473573684692, 0.09314673393964767, -0.006491303443908691, -0.09390556812286377, 0.08057967573404312, -0.06417658179998398, 0.019217420369386673, 0.04147006571292877, -0.061204005032777786, 0.1077703908085823, -0.0230425838381052, 0.06155019626021385, -0.062101028859615326, -0.06770683079957962, 0.018802646547555923, 0.010500137694180012, 0.0021577917505055666, 0.04602804034948349, -0.05406120792031288, 0.013528883457183838, 0.008668051101267338, -0.06650752574205399, -0.002710919361561537, -0.02354702726006508, 0.04626766964793205, 0.13070033490657806, -0.05664316192269325, 0.06235198676586151, 0.09930595010519028, 0.09411977231502533], [-0.07925079017877579, 0.004028335213661194, 0.040751561522483826, -0.01330231036990881, 0.018084511160850525, 0.03871937841176987, -0.01406002789735794, 0.029740214347839355, -0.02838822454214096, -0.025641262531280518, 0.03645250201225281, -0.03558918833732605, -0.06274574995040894, 0.028827358037233353, -0.10929600149393082, 0.10011522471904755, 0.008054859936237335, 0.08701199293136597, -0.09993422031402588, -0.09575768560171127, 0.045552950352430344, 0.09021279215812683, -0.05904560163617134, -0.02923678606748581, 0.07549616694450378, -0.08920341730117798, 0.07083658128976822, 0.08620251715183258, -0.049122363328933716, 0.09146393835544586, 0.03946211189031601, 0.04719099774956703, 0.07866689562797546, 0.04955723136663437, -0.02412031590938568, -0.025169439613819122, 0.03671066090464592, -0.017597613856196404, 0.07894190400838852, 0.0900583490729332, 0.0034257497172802687, 0.07840945571660995, -0.05447068437933922, 0.075174480676651, -0.11113045364618301, -0.021564878523349762, -0.004308834671974182, -0.024877279996871948, 0.006330413743853569, 0.028551429510116577, -0.045894965529441833, 0.0012828628532588482, -0.004414815455675125, 0.06921319663524628, 0.056171588599681854, 0.031938377767801285, 0.04678787663578987, 0.014679803512990475, -0.07856921851634979, 0.09733560681343079, 0.09065712243318558, -0.113865427672863, 0.03325214609503746, 0.08876292407512665, -0.07912977039813995, -0.07786336541175842, -0.04889585077762604, -0.08620673418045044, -0.03311669081449509, -0.10766340047121048, -0.003670845180749893, 0.027753323316574097, -0.040908560156822205, 0.03348664194345474, 0.036101002246141434, 0.022678876295685768, -0.046633630990982056, 0.04005372151732445, -0.026265285909175873, -0.02091759443283081], [-0.029551852494478226, 0.014026790857315063, -0.09232524782419205, -0.023502102121710777, 0.10379467904567719, -0.09706160426139832, -0.07693012803792953, 0.08799131959676743, -0.05113324522972107, 0.07028020173311234, 0.09719406813383102, 0.033830005675554276, 0.01948089338839054, -0.026682617142796516, 0.029997587203979492, 0.04357336461544037, -0.08959519863128662, 0.038081616163253784, -0.08521807193756104, 0.11042757332324982, -0.03805156052112579, -0.07022814452648163, 0.12098956853151321, 0.09659916162490845, -0.028064794838428497, -0.05013455078005791, 0.08921229094266891, -0.020231135189533234, -0.04215336591005325, 0.02738185226917267, 0.09127745032310486, -0.03176398575305939, 0.0009163765353150666, 0.009805373847484589, -0.010585992597043514, -0.046785853803157806, 0.06762250512838364, -0.002239217981696129, -0.08607550710439682, -0.056134890764951706, -0.05874845013022423, 0.07463613152503967, 0.07833299040794373, -0.01378554105758667, 0.10458262264728546, 0.07409587502479553, -0.04490284621715546, -0.004145235288888216, 0.0835433155298233, 0.0063407570123672485, -0.08894681930541992, -0.07793320715427399, -0.04421939700841904, -0.08990789949893951, -0.01441367156803608, -0.05975648760795593, -0.012538292445242405, 0.006253667175769806, 0.01421162486076355, 0.08096633106470108, -0.08874712884426117, -0.0821973979473114, -0.07503604888916016, 0.09498260915279388, 0.10310249030590057, 0.03098464198410511, 0.10678146779537201, -0.10022807866334915, 0.07064701616764069, -0.05773775279521942, 0.022140422835946083, 0.11161060631275177, -0.03560491278767586, 0.050559353083372116, -0.0037264423444867134, -0.030433183535933495, -0.00022176653146743774, -0.08908209949731827, 0.06822320073843002, 0.06335203349590302], [-0.04626261442899704, -0.10893106460571289, 0.09591613709926605, -0.07541235536336899, -0.08507155627012253, -0.05988626182079315, -0.09400959312915802, 0.04765543341636658, -0.030628152191638947, 0.026981456205248833, -0.06660155951976776, -0.03223162516951561, 0.06121782213449478, 0.0657401978969574, 0.06345239281654358, 0.0004545372794382274, 0.007918317802250385, -0.10742025822401047, -0.11741525679826736, 0.03895210102200508, -0.05943027883768082, 0.0025376505218446255, 0.03440261259675026, -0.01071321964263916, 0.07709008455276489, 0.08383315801620483, 0.0011624599574133754, 0.07723505795001984, -0.025132348760962486, -0.08257830888032913, 0.07213681191205978, 0.07430298626422882, -0.04409543052315712, 0.007780987303704023, -0.030839519575238228, 0.010868452489376068, -0.016653142869472504, 0.04367046803236008, 0.05171651765704155, 0.09780378639698029, 0.08683817833662033, -0.04497993364930153, -0.09830692410469055, 0.061538517475128174, -0.0881539136171341, 0.007324624340981245, 0.007044367492198944, 0.007047232706099749, 0.0176384299993515, -0.0933796688914299, 0.06133037805557251, 0.09936507046222687, 0.00861388724297285, 0.11388057470321655, 0.07986707985401154, -0.012272868305444717, 0.08928419649600983, -0.005225279834121466, -0.051151517778635025, -0.06287817656993866, -0.005634915549308062, -0.054740238934755325, -0.0015699618961662054, 0.02675279974937439, -0.062027156352996826, -0.003086333628743887, -0.07977886497974396, 0.05525749549269676, -0.008720400743186474, -0.08240532875061035, -0.09295525401830673, -0.08109455555677414, -0.0182468444108963, 0.09745140373706818, -0.0965343788266182, 0.02322726882994175, -0.08320103585720062, 0.052954208105802536, 0.004397084936499596, -0.10032708942890167], [-0.07981359958648682, 0.033824458718299866, 0.049045026302337646, 0.03457079827785492, -0.05482294410467148, -0.026324816048145294, -0.07370828092098236, 0.07058564573526382, -0.0543806254863739, 0.08489575237035751, 0.10410687327384949, 0.0038816146552562714, -0.042870376259088516, 0.009482445195317268, -0.10922122746706009, -0.07565534114837646, -0.0025257777888327837, 0.0895451009273529, -0.06232721731066704, 0.08428138494491577, -0.08432089537382126, 0.05101865530014038, 0.09149826318025589, -0.10642737150192261, -0.057368770241737366, 0.09541402757167816, 0.03336956351995468, -0.0003913945402018726, 0.09468422085046768, -0.10816287994384766, -0.05208630487322807, -0.08807248622179031, -0.09455297142267227, -0.029632974416017532, -0.07553642988204956, 0.06210719048976898, -0.06653443723917007, -0.08151843398809433, 0.035604480654001236, -0.034998759627342224, -0.06503027677536011, 0.028221027925610542, 0.10459672659635544, -0.08013030886650085, 0.042457982897758484, -0.015263262204825878, -0.10653667896986008, -0.07152615487575531, 0.020133275538682938, 0.09933272004127502, 0.04941287636756897, -0.03518499806523323, 0.1152128204703331, 0.012863618321716785, -0.039311014115810394, -0.08576139807701111, -0.012837749905884266, 0.06072605401277542, -0.10886415839195251, 0.08886469155550003, 0.06837334483861923, -0.10337209701538086, 0.05570269003510475, 0.08653700351715088, -0.08531111478805542, -0.035514265298843384, 0.12270583212375641, -0.022565286606550217, 0.07698089629411697, -0.033713199198246, -0.021031498908996582, 0.0889195054769516, 0.10517210513353348, 0.07652484625577927, 0.0606156587600708, 0.08200594782829285, -0.09849268198013306, -0.03541458398103714, -0.09029097855091095, 0.045786693692207336], [-0.07081416249275208, -0.06479918956756592, -0.1201554387807846, -0.1183377057313919, -0.08291781693696976, -0.08321338891983032, -0.09670940786600113, -0.05312681198120117, 0.08938246965408325, -0.10235320031642914, -0.024027381092309952, -0.045964714139699936, -0.12067911773920059, 0.016253110021352768, -0.046004295349121094, 0.09362462908029556, -0.07953517884016037, 0.06519662588834763, -0.07418319582939148, 0.0591994933784008, -0.0054542301222682, 0.007795160636305809, -0.08447609096765518, -0.043908990919589996, 0.08355554938316345, -0.01923295110464096, 0.07993820309638977, -0.09680494666099548, 0.07595886290073395, 0.005404248833656311, 0.022370385006070137, -0.007465549744665623, 0.06673334538936615, -0.11730395257472992, -0.038969751447439194, 0.08327890932559967, -0.030103888362646103, -0.02780774049460888, -0.0015705811092630029, -0.002721737138926983, -0.13391341269016266, -0.014092336408793926, 0.05701787769794464, -0.03981401026248932, -0.045476093888282776, 0.040924835950136185, -0.037710040807724, -0.023901281878352165, 0.056295618414878845, 0.014926105737686157, 0.1048794537782669, -0.03093302622437477, 0.022717202082276344, -0.09036391228437424, -0.008658724837005138, 0.116838738322258, -0.0648728683590889, 0.021847039461135864, 0.06907002627849579, 0.08926456421613693, 0.05286400765180588, -0.1043013259768486, 0.09026797115802765, 0.030508339405059814, 0.006072160787880421, -0.03188776224851608, -0.11307753622531891, 0.041022177785634995, 0.04398740455508232, 0.05601920187473297, 0.055392831563949585, 0.09515208005905151, -0.09889241307973862, 0.08337651193141937, 0.06712225079536438, 0.05639496073126793, 0.005624033510684967, 0.0031497597228735685, 0.06886409223079681, 0.0528889000415802], [-0.042048681527376175, -0.11075931042432785, 0.06861893832683563, -0.010843807831406593, -0.04609287530183792, -0.05164754390716553, -0.00933711975812912, -0.033434778451919556, 0.08182354271411896, 0.1203872337937355, -0.04744945093989372, -0.025615938007831573, -0.004435565322637558, -0.08616690337657928, -0.011460721492767334, -0.00804148893803358, 0.015871288254857063, 0.05520328879356384, -0.06616145372390747, 0.09883569180965424, 0.05387583002448082, -0.012383834458887577, -0.06309331953525543, 0.016555339097976685, 0.010842730291187763, -0.07131445407867432, 0.04748477786779404, 0.0032600692939013243, -0.047142911702394485, 0.06629110872745514, 0.05305977538228035, 0.048996005207300186, 0.10226784646511078, -0.018191946670413017, 0.10249434411525726, 0.06927263736724854, 0.11596420407295227, 0.07253549247980118, 0.05900048837065697, -0.004012423567473888, -0.01314442791044712, -0.05550983548164368, 0.05485359579324722, 0.10597814619541168, -0.10194846987724304, -0.06889500468969345, 0.11139236390590668, -0.0885358676314354, 0.09522904455661774, -0.07528197765350342, 0.09343007206916809, -0.0787624716758728, 0.04706075042486191, 0.047701552510261536, 0.09081139415502548, 0.02386881597340107, 0.027323290705680847, -0.06531214714050293, 0.00818844884634018, 0.07688334584236145, -0.011803755536675453, 0.09214704483747482, 0.06566692888736725, 0.032751888036727905, 0.1151169016957283, 0.11707963794469833, -0.08239251375198364, -0.0450698621571064, 0.07296886295080185, 0.0744745284318924, -0.0809679850935936, -0.04554694890975952, -0.08369464427232742, 0.09014587104320526, -0.07527948170900345, 0.01911844126880169, -0.004204757511615753, 0.11155133694410324, -0.016384024173021317, 0.032986655831336975], [0.06667380034923553, 0.03407923877239227, 0.04033683240413666, -0.04598163813352585, 0.06868903338909149, 0.044102415442466736, -0.08871471136808395, -0.05312303826212883, 0.057600200176239014, 0.017129242420196533, 0.06179353594779968, 0.011760540306568146, 0.08373688161373138, -0.003559619188308716, -0.05607101693749428, 0.03420868515968323, 0.02120956778526306, -0.07138647884130478, -0.057627756148576736, 0.09252485632896423, 0.09911857545375824, -0.03869451582431793, -0.034147679805755615, -0.10518278926610947, 0.08212421834468842, 0.03729391098022461, -0.069533571600914, -0.03769709914922714, -0.0726693794131279, 0.055020689964294434, 0.07363052666187286, 0.0033290311694145203, -0.03982630372047424, -0.10064416378736496, 3.7610530853271484e-05, -0.10676637291908264, -0.057232581079006195, -0.005449607968330383, -0.02825218439102173, 0.018841639161109924, -0.014584407210350037, 0.04843054711818695, -0.05187387019395828, 0.09116582572460175, 0.028660312294960022, 0.02818344533443451, 0.04646126925945282, -0.06082499772310257, 0.026706695556640625, -0.10381750017404556, -0.0096651092171669, -0.037024594843387604, 0.050938233733177185, -0.051762886345386505, 0.03660459816455841, -0.10650282353162766, -0.01055571436882019, -0.10066623985767365, -0.029335618019104004, -0.09018044173717499, 0.05749616026878357, -0.10130228102207184, -0.002014860510826111, 0.03826241195201874, 0.09186890721321106, -0.06977716088294983, 0.04668158292770386, -0.0546758696436882, -0.06643255054950714, -0.07499589025974274, 0.010396376252174377, 0.033257871866226196, -0.09345600008964539, 0.04947148263454437, 0.032966822385787964, 0.10796096920967102, 0.017453864216804504, -0.006016470491886139, 0.09982858598232269, -0.08347906172275543], [0.07903154194355011, -0.080084428191185, 0.1211826503276825, -0.063864566385746, 0.1001611053943634, 0.06497561186552048, -0.030543334782123566, -0.061514198780059814, -0.0811196118593216, 0.010425847955048084, 0.07087375223636627, 0.003822979284450412, 0.044377729296684265, 0.09764429926872253, -0.07286912202835083, 0.061192892491817474, -0.0828457623720169, 0.04190590977668762, -0.006866985931992531, 0.03519034758210182, 0.11838488280773163, 0.03765003755688667, 0.01464733388274908, 0.04231037199497223, 0.10429789125919342, -0.03312701731920242, 0.11112546175718307, -0.056066885590553284, -0.041962336748838425, -0.1114388108253479, -0.002273502526804805, 0.01948806457221508, 0.036471862345933914, -0.07398419082164764, 0.07829233258962631, -0.0765751525759697, -0.06461920589208603, 0.0974617749452591, -0.07075478881597519, 0.06057281419634819, 0.03905014321208, 0.011914396658539772, -0.07643288373947144, -0.0722113847732544, 0.04310202971100807, 0.007843227125704288, -0.04672299325466156, 0.011701315641403198, 0.10638195276260376, -0.007133737206459045, 0.045252516865730286, -0.07949516922235489, 0.09679842740297318, -0.09840986132621765, -0.0029843845404684544, 0.0639924481511116, 0.07827913761138916, 0.033873286098241806, 0.09150192141532898, -0.02982284687459469, -0.03332917392253876, -0.0643012598156929, -0.06576405465602875, -0.09687507152557373, 0.058390628546476364, 0.044731877744197845, -0.05459229275584221, -0.01582174189388752, -0.023990027606487274, 0.09306296706199646, 0.058245331048965454, 0.02762588858604431, 0.057324860244989395, -0.03697303310036659, 0.10757683962583542, 0.015184176154434681, 0.08793944120407104, -0.05487557873129845, -0.04820031672716141, -0.03558603674173355], [-0.05263463035225868, 0.1046890914440155, -0.01538520585745573, 0.074851393699646, -0.0981251448392868, 0.0783633291721344, -0.09398705512285233, -0.044587790966033936, 0.010570414364337921, 0.11356264352798462, 0.07942087948322296, -0.05618255212903023, 0.10866536945104599, -0.06095299497246742, 0.07215312123298645, -0.054870445281267166, -0.033813104033470154, -0.06862529367208481, 0.04972489923238754, 0.06232733651995659, 0.024715283885598183, 0.013745765201747417, -0.01952771283686161, 0.08204507827758789, -0.045696504414081573, -0.07834386825561523, -0.10535145550966263, 0.009788783267140388, 0.06522313505411148, -0.006314605474472046, 0.06000606715679169, 0.09576774388551712, -0.0009263179381377995, -0.08265773952007294, 0.024773752316832542, 0.09124292433261871, -0.07966408133506775, 0.05153971165418625, 0.06211020424962044, 0.10232660919427872, -0.025776023045182228, 0.10011088103055954, 0.07803232967853546, 0.08335624635219574, 0.055111128836870193, 0.09149304777383804, -0.0503954216837883, -0.02110428735613823, 0.0639030858874321, 0.1086808294057846, 0.10712186992168427, 0.02658027969300747, -0.02544308267533779, -0.009681344963610172, -0.04868351295590401, -0.053884897381067276, -0.028495606034994125, 0.027133883908391, -0.06054264307022095, 0.033629558980464935, 0.06252218782901764, 0.06765825301408768, 0.015282961539924145, -0.022352278232574463, 0.11658741533756256, -0.06577181816101074, -0.044684525579214096, 0.078595831990242, -0.059867680072784424, -0.06038876995444298, -0.07978501170873642, 0.11014355719089508, -0.002568695228546858, 0.028906237334012985, -0.0486806258559227, 0.005881806835532188, 0.017858877778053284, 0.08364667743444443, -0.07490237802267075, -0.033968910574913025], [-0.04821398854255676, 0.10473723709583282, -0.03886228799819946, -0.0071538761258125305, 0.04347681999206543, -0.1021089255809784, -0.077898770570755, 0.07378624379634857, -0.022735975682735443, -0.0854739099740982, -0.009414605796337128, 0.0863315761089325, -0.06396139413118362, 0.03504191339015961, -0.012501269578933716, 0.06161391735076904, -0.08678841590881348, 0.04618392884731293, -0.058672938495874405, -0.031637974083423615, 0.010213688015937805, -0.07475240528583527, -0.09941548109054565, -0.07375676929950714, 0.07632909715175629, -0.025727741420269012, 0.0995577871799469, -0.003458566963672638, -0.03973640501499176, -0.10636730492115021, -0.022217847406864166, -0.09369154274463654, 0.033277854323387146, -0.04842767119407654, 0.0398201048374176, 0.08662354946136475, -0.07532989978790283, 0.023698031902313232, -0.09033824503421783, 0.10681107640266418, 0.06241895258426666, 0.012741319835186005, 0.0330178439617157, 0.11155471205711365, 0.10373570024967194, -0.08219035714864731, -0.06159001216292381, -0.08570736646652222, -0.012978985905647278, 0.08362998068332672, 0.11076299846172333, 0.02230028808116913, 0.05787229537963867, -0.05990155413746834, 0.05459524691104889, -0.09905016422271729, 0.022949084639549255, -0.08854714035987854, 0.06566697359085083, -0.026037506759166718, -0.05420393869280815, -0.016464173793792725, -0.103603795170784, 0.09693138301372528, 0.02105891704559326, 0.03551371395587921, -0.07661237567663193, -0.014478743076324463, -0.062398768961429596, -0.04455169290304184, -0.010878995060920715, 0.06968821585178375, -0.0957421138882637, 0.0018530488014221191, 0.01719142496585846, -0.0896168202161789, -0.046043336391448975, 0.09839999675750732, -0.016356542706489563, -0.07002075761556625], [0.004368036985397339, -0.0755864679813385, -0.06817767024040222, 0.041671305894851685, 0.021322175860404968, 0.08684560656547546, -0.015418276190757751, -0.021474428474903107, 0.0354207307100296, 0.06931258738040924, 0.0077821314334869385, -0.014039970934391022, -0.06251071393489838, 0.08320014178752899, 0.060603782534599304, -0.016531705856323242, 0.04972577095031738, -0.08815675973892212, 0.04751618206501007, -0.08325045555830002, -0.05538862571120262, -0.011916957795619965, -0.021969467401504517, 0.056250885128974915, -0.05677441507577896, -0.06481053680181503, 0.035724565386772156, 0.07239037752151489, 0.010716207325458527, -0.02091898024082184, 0.07284121215343475, -0.10611162334680557, -0.009177766740322113, -0.02963472157716751, 0.030595585703849792, 0.05679221451282501, 0.05137766897678375, 0.09214766323566437, 0.050995856523513794, -0.03211168199777603, -0.10190675407648087, -0.07433705031871796, -0.09471205621957779, -0.020735256373882294, 0.07560785114765167, 0.09205122292041779, 0.009587489068508148, -0.04357445240020752, 0.08150337636470795, -0.08309094607830048, -0.04718201607465744, -0.061614029109478, -0.07765694707632065, -0.02910701185464859, -0.028088778257369995, -0.0027737170457839966, 0.09684711694717407, -0.0313548743724823, 0.0056976452469825745, 0.10898542404174805, -0.02110110968351364, -0.11115371435880661, 0.1116446703672409, 0.06094636023044586, -0.052363380789756775, 0.0329485684633255, -0.05897838994860649, -0.055402979254722595, 0.05665881931781769, -0.08620059490203857, 0.10723227262496948, -0.04850933700799942, 0.040619999170303345, 0.007073894143104553, 0.04221072793006897, -0.10784827172756195, -0.019316621124744415, -0.0011662915349006653, -0.06433291733264923, 0.08450672030448914], [-0.08624596148729324, 0.07904618978500366, 0.0334957093000412, -0.07283952087163925, -0.09218928217887878, -0.005363946780562401, -0.015688195824623108, 0.022241145372390747, -0.05104739964008331, -0.04588018357753754, 0.06372758001089096, -0.09455100446939468, -0.08681545406579971, 0.10198098421096802, 0.0900689959526062, 0.005059577524662018, 0.03631776198744774, 0.0661700963973999, 0.009593771770596504, 0.10838109999895096, -0.012642298825085163, -0.01648285984992981, 0.0488862469792366, 0.06026625633239746, 0.10584108531475067, -0.07429370284080505, 0.0037522930651903152, 0.0844801813364029, -0.025044448673725128, -0.07327926903963089, 0.02091343142092228, 0.014466505497694016, 0.024677781388163567, 0.12589675188064575, 0.038175150752067566, -0.043216146528720856, -0.0414968878030777, 0.06410761177539825, -0.015986477956175804, -0.06943584233522415, 0.11425500363111496, 0.11173712462186813, 0.09804406762123108, 0.08134634792804718, 0.12010582536458969, -0.09415104985237122, 0.00538221001625061, -0.015256844460964203, 0.0965922549366951, -0.09190866351127625, -0.09311141818761826, 0.06552088260650635, 0.048837460577487946, -0.05526800453662872, -0.05042139068245888, 0.07753241807222366, 0.0671675056219101, 0.04108220338821411, 0.09724096953868866, 0.0012920696754008532, 0.012643552385270596, -0.001059630187228322, 0.08365602046251297, -0.059847187250852585, 0.07774966210126877, 0.1122031882405281, -0.036417409777641296, 0.012642585672438145, 0.0021032332442700863, 0.035561636090278625, 0.010367442853748798, 0.019406244158744812, 0.07017719000577927, 0.04482201859354973, 0.09360546618700027, 0.005660044960677624, -0.03348308056592941, -0.03539028763771057, 0.08231765031814575, -0.037273332476615906], [0.07630878686904907, 0.10205455124378204, -0.08240760117769241, 0.10305093228816986, 0.044532835483551025, 0.058156125247478485, -0.09789925068616867, 0.011991283856332302, -0.016845107078552246, -0.0706968680024147, -0.007400204427540302, 0.056218963116407394, -0.08201431483030319, 0.0022670673206448555, -0.03107806295156479, 0.09290755540132523, 0.043172743171453476, 0.10045341402292252, 0.050901155918836594, 0.030797326937317848, 0.08219845592975616, -0.007021582685410976, 0.11848454922437668, 0.10675570368766785, 0.08486305922269821, -0.031019039452075958, -0.08819941431283951, -0.003210533643141389, -0.07518099993467331, 0.03403107821941376, 0.08604969829320908, 0.01687561720609665, 0.027938522398471832, 0.04701665788888931, -0.011663304641842842, -0.05637188255786896, -0.007363188546150923, -0.03355083987116814, 0.11339420825242996, 0.1010776236653328, 0.0818742960691452, -0.09074895828962326, 0.11841892451047897, 0.02105511724948883, -0.08995506912469864, -0.07277242094278336, -0.06738970428705215, 0.08856090158224106, -0.08774059265851974, -0.10711394250392914, -0.10949128121137619, 0.11549107730388641, 0.06934664398431778, 0.018141303211450577, -0.04748977720737457, -0.08025014400482178, -0.005225988570600748, 0.02367253415286541, 0.06072051823139191, -0.09698448330163956, -0.10924075543880463, 0.051557935774326324, -0.032346196472644806, 0.10617142915725708, 0.031881872564554214, 0.09123342484235764, -0.0633004754781723, 0.07375607639551163, 0.0763445720076561, -0.08840564638376236, -0.09321574866771698, -0.09901684522628784, -0.09542366862297058, -0.032857511192560196, 0.0505744032561779, 0.0028974656015634537, -0.034165456891059875, 0.091657355427742, -0.07590794563293457, -0.039181239902973175], [-0.05084021016955376, 0.0962890237569809, -0.07134047895669937, 0.05279775336384773, 0.04491433501243591, 0.10819239914417267, 0.009198218584060669, 0.06943529099225998, 0.008791498839855194, 0.06027833744883537, -0.061866696923971176, 0.06391650438308716, -0.07001366466283798, 0.09232566505670547, -0.025294408202171326, -0.0692407414317131, -0.1127660870552063, 0.04431871697306633, 0.04001324623823166, 0.08199053257703781, -0.04570186883211136, 0.04926987737417221, 0.08691073954105377, -0.04714224487543106, 0.006203770637512207, -0.006347917020320892, -0.07026873528957367, 0.12065663933753967, 0.09337348490953445, 0.04787546396255493, 0.0515471026301384, 0.07031600922346115, -0.025777574628591537, 0.10965366661548615, 0.04155818745493889, -0.10857073217630386, -0.056575708091259, 0.03000376746058464, 0.09500410407781601, -0.07465511560440063, 0.09540686011314392, 0.04678623378276825, -0.07271245867013931, 0.0411238819360733, 0.09759777784347534, 0.08370267599821091, 0.1019083559513092, -0.0914941057562828, 0.01658625528216362, -0.029677756130695343, 0.10613760352134705, 0.025412065908312798, 0.06894538551568985, -0.09642819315195084, 0.02339324913918972, -0.07974157482385635, 0.10574415326118469, 0.023629654198884964, 0.08641810715198517, -0.035880349576473236, 0.08804835379123688, 0.04895329847931862, -0.03496900945901871, 0.011478394269943237, 0.04435909166932106, 0.058088283985853195, 0.015441766008734703, 0.0010747192427515984, 0.031059646978974342, -0.000287763774394989, 0.08463679254055023, 0.045679450035095215, -0.0010248118778690696, 0.0281076617538929, -0.09261634945869446, 0.05908690020442009, -0.1051434874534607, -0.007644163444638252, 0.07167571783065796, 0.07691061496734619], [0.01600099913775921, -0.031230367720127106, 0.10874198377132416, -0.046252086758613586, 0.0185796320438385, 0.02000053972005844, 0.07222728431224823, -0.0815233513712883, 0.03338639438152313, 0.010488973930478096, 0.010736881755292416, 0.05738174170255661, 0.010395912453532219, 0.10574059933423996, -0.06545587629079819, -0.019512692466378212, 0.08053124696016312, -0.10053187608718872, 0.06323318928480148, 0.11411590874195099, 0.03277217969298363, -0.05065267160534859, 0.05737420544028282, -0.04436115175485611, -0.01564902253448963, -0.00594685971736908, -0.015455113723874092, 0.10562216490507126, -0.059625718742609024, -0.06346063315868378, -0.004130132496356964, 0.017810603603720665, -0.0947481319308281, -0.0028227921575307846, 0.10129035264253616, 0.0282118022441864, 0.002312037628144026, -0.044737547636032104, 0.08630882948637009, -0.08277534693479538, 0.11461146175861359, -0.05636373162269592, 0.07848397642374039, 0.10755161941051483, 0.04253018647432327, -0.09919297695159912, -0.03683432191610336, -0.036555733531713486, 0.13014978170394897, -0.05088292062282562, 0.09346646070480347, 0.025982828810811043, 0.06986054033041, 0.0969422236084938, -0.0216685738414526, 0.08930809795856476, 0.03458121791481972, -0.08739106357097626, -0.03178434073925018, -0.014765344560146332, 0.05747178941965103, 0.09494176506996155, 0.015627115964889526, 0.02030472457408905, -0.06840502470731735, 0.02749517373740673, 0.014489988796412945, 0.0712064653635025, -0.04068317264318466, 0.016440898180007935, -0.03411407396197319, 0.03340718150138855, -0.03932823985815048, -0.08818190544843674, 0.081728994846344, 0.058479100465774536, 0.03092104196548462, 0.10258731245994568, 0.1243947446346283, -0.054985783994197845], [0.042954012751579285, -0.03570397198200226, -0.05586516857147217, -0.05324001610279083, -0.06850721687078476, -0.09740445017814636, 0.03342190384864807, 0.10843612253665924, 0.02419249713420868, -0.09602239727973938, -0.025025777518749237, -0.10689269751310349, -0.07668504118919373, -0.09680155664682388, 0.015624716877937317, 0.0923866331577301, -0.03428254276514053, 0.0998094230890274, -0.09587347507476807, -0.047584787011146545, 0.04839557409286499, 0.0033143535256385803, 0.09120343625545502, 0.043118417263031006, -0.023328416049480438, 0.05173753201961517, -0.07875716686248779, -0.04558836668729782, -0.09935842454433441, 0.10625387728214264, 0.01988944411277771, -0.09160459041595459, -0.07424774765968323, -0.03989752382040024, -0.08623231947422028, 0.006190948188304901, 0.038271039724349976, 0.04310496151447296, -0.04897475987672806, 0.05823059380054474, 0.03564624488353729, 0.10755912959575653, 0.0746908187866211, 0.021654263138771057, 0.011547289788722992, -0.029210321605205536, 0.004291988909244537, 0.08783601224422455, -0.050858527421951294, -0.1103205531835556, 0.02222035825252533, 0.010472506284713745, 0.044863730669021606, 0.061829596757888794, 0.032613083720207214, 0.04290275275707245, -0.040583834052085876, 0.09357661008834839, -0.0840463638305664, -0.0355047881603241, 0.0651540756225586, 0.06724654138088226, -0.014853790402412415, -0.10655329376459122, 0.11139397323131561, -0.0342646986246109, 0.08588331937789917, 0.04543478786945343, 0.06966274976730347, 0.03371332585811615, -0.05144423991441727, 0.10712875425815582, -0.024542734026908875, 0.09630443155765533, -0.05234662815928459, -0.07185563445091248, -0.09299875795841217, 0.057821035385131836, 0.05838935077190399, 0.014450311660766602], [-0.09739334881305695, 0.062351107597351074, 0.10447487235069275, 0.11022394150495529, -0.0994277223944664, -0.0054999603889882565, 0.06551775336265564, -0.0012247338891029358, -0.07458631694316864, -0.02675657719373703, -0.034084271639585495, 0.06912397593259811, -0.0024907365441322327, 0.10532839596271515, -0.021749943494796753, -0.0036604851484298706, 0.010563150979578495, 0.04994385689496994, -0.022511553019285202, 0.12184957414865494, -0.06600116938352585, -0.04664292186498642, -0.048598386347293854, 0.08139762282371521, 0.07932527363300323, -0.022243037819862366, 0.11284301429986954, -0.0030709058046340942, -0.04245031252503395, -0.0847882628440857, 0.017726948484778404, 0.1058131754398346, 0.042015522718429565, -0.008322116918861866, -0.049807608127593994, 0.07454125583171844, 0.050770167261362076, 0.09567532688379288, 0.12272192537784576, -0.030423279851675034, -0.07617279887199402, -0.08120599389076233, -0.019691677764058113, -0.03291480988264084, 0.07630842924118042, -0.07555554807186127, 0.0969853401184082, 0.0015720352530479431, 0.07675950229167938, 0.025180205702781677, -0.07091754674911499, -0.013571713119745255, -0.0962601974606514, -0.06291067600250244, -0.07044573873281479, 0.040689047425985336, -0.04880155622959137, 0.0767686665058136, -0.05149727314710617, -0.04217657074332237, 0.058788228780031204, 0.1031937375664711, 0.0850205272436142, 0.08399584889411926, 0.10650847852230072, 0.045489273965358734, 0.10335985571146011, -0.038624394685029984, 0.05541934818029404, -0.029284372925758362, -0.02739233523607254, 0.019538626074790955, 0.00032444740645587444, 0.03231927379965782, -0.04658552259206772, 0.026128798723220825, 0.06464086472988129, 0.07407914102077484, -0.04873889684677124, -0.033423326909542084], [0.0622476264834404, 0.0509037971496582, -0.0010733315721154213, 0.060529787093400955, 0.07361720502376556, -0.10332386940717697, -0.006348036229610443, -0.036634497344493866, -0.08543522655963898, 0.001597388880327344, -0.09014393389225006, -0.07096229493618011, -0.0690239816904068, -0.08832387626171112, -0.03985319286584854, 0.06595195829868317, -0.04232438653707504, 0.10006364434957504, 0.10486707091331482, 0.048480335623025894, 0.04751100391149521, -0.023888662457466125, 0.07997161149978638, 0.02207159996032715, -0.0507192388176918, -0.10215780138969421, 0.05142199993133545, -0.07650837302207947, -0.04744310677051544, 0.10037201642990112, 0.018464095890522003, -0.009740494191646576, -0.0710841715335846, -0.05018385499715805, 0.04826993867754936, 0.06293539702892303, 0.10239982604980469, -0.017941195517778397, 0.060420598834753036, -0.08327378332614899, 0.0076974257826805115, -0.041051995009183884, 0.05896815285086632, 0.084372878074646, 0.11047997325658798, 0.04623255506157875, 0.10204744338989258, -0.0969705730676651, 0.040786758065223694, -0.10634875297546387, -0.02621915191411972, -0.0309763103723526, 0.029744785279035568, 0.08210897445678711, -0.11069715768098831, 0.010927058756351471, 0.040022458881139755, 0.016312124207615852, 0.008878007531166077, -0.09045276045799255, 0.05802736058831215, 0.05429885536432266, 0.01113012246787548, 0.047988638281822205, 0.04417917877435684, 0.02975391410291195, 0.002285087713971734, 0.001705968752503395, -0.053002964705228806, 0.05931535363197327, -0.05924872308969498, -0.09940309077501297, -0.021249862387776375, -0.09311453253030777, 0.02712434157729149, 0.04556301236152649, -0.006200559437274933, -0.06923320889472961, -0.10401643067598343, -0.06444329768419266], [-0.09159145504236221, 0.03302167356014252, -0.06479690968990326, -0.02278812788426876, -0.07600829750299454, -0.04918660968542099, -0.03951860964298248, -0.019262410700321198, -0.04054988920688629, -0.07539152354001999, 0.08184962719678879, -0.021821552887558937, 0.054431717842817307, -0.014847456477582455, -0.06639659404754639, -0.10131079703569412, -0.06431655585765839, -0.09901411086320877, -0.07367178797721863, -0.009388219565153122, 0.01559713389724493, 0.10008682310581207, -0.036586735397577286, -0.02079322189092636, -0.04210025817155838, 0.050066590309143066, -0.012331373058259487, 0.09954909980297089, -0.11331816017627716, -0.04409851133823395, -0.03736203536391258, 0.06248125433921814, -0.05885700508952141, 0.054739147424697876, -0.0839318037033081, 0.08208751678466797, -0.05095848813652992, 0.012202751822769642, -0.04984183982014656, 0.09292750805616379, -0.07942201942205429, 0.04818404093384743, -0.04547645151615143, -0.022740095853805542, -0.07854033261537552, 0.06952573359012604, 0.02745245397090912, -0.04475651681423187, -0.03718474507331848, -0.06029759347438812, -0.03304426372051239, -0.010235525667667389, 0.11029072850942612, 0.08271235972642899, -0.035594210028648376, 0.06121828779578209, -0.04575381428003311, -0.05493947118520737, 0.10746289789676666, 0.09057208895683289, 0.014276106841862202, 0.003102559596300125, -0.10712011903524399, -0.05729800835251808, 0.02833615429699421, -0.08961719274520874, 0.07503538578748703, 0.07906777411699295, 0.04761502519249916, 0.10153907537460327, 0.09098871797323227, -0.015239797532558441, -0.08798906207084656, 0.029955938458442688, -0.05742614343762398, -0.04540865868330002, 0.10152477025985718, -0.11167287081480026, 0.051170289516448975, -0.08268813788890839], [-0.017148394137620926, -0.016008570790290833, -0.11152981966733932, -0.042769480496644974, -0.07515372335910797, -0.12071055918931961, -0.07127200067043304, -0.03754338622093201, -0.07361435890197754, -0.02898075245320797, 0.09013168513774872, 0.025803642347455025, 0.02599623240530491, -0.10410412400960922, -0.04528867453336716, -0.07486182451248169, -0.09346833825111389, -0.0723935067653656, 0.011576471850275993, -0.06460139155387878, -0.010832461528480053, 0.07077521830797195, -0.03028203919529915, 0.0837535411119461, 0.007349388208240271, -0.1067296639084816, -0.023035213351249695, -0.00908002257347107, -0.08270915597677231, -0.04298354685306549, -0.046872831881046295, -0.06366420537233353, -0.05320649594068527, -0.011758966371417046, -0.03410709649324417, -0.09262209385633469, -0.06723226606845856, 0.04159659147262573, -0.058306802064180374, -0.0987372100353241, 0.016791386529803276, -0.0003432442026678473, -0.0550803616642952, 0.0920969694852829, 0.023165404796600342, -0.07160765677690506, -0.0543518103659153, -0.01020016148686409, 0.03787742927670479, 0.003449276089668274, 0.0978921502828598, 0.0230689886957407, -0.07519641518592834, -0.09661222994327545, 0.07928921282291412, -0.020932886749505997, 0.06726566702127457, -0.04711862653493881, 0.09422878921031952, -0.06678156554698944, -0.03001721203327179, 0.03705888241529465, 0.07044126093387604, 0.0436471551656723, 0.0004301927692722529, 0.05113232880830765, 0.052743420004844666, 0.03759883716702461, -0.044228196144104004, -0.10164578258991241, 0.0011157175758853555, 0.05391566455364227, 0.11035457998514175, -0.06898920238018036, -0.11424969136714935, 0.013615367002785206, -0.015183113515377045, 0.07976971566677094, -0.006957318168133497, -0.0694015622138977], [0.08179919421672821, 0.08029210567474365, 0.056592151522636414, -0.06850150227546692, 0.029058054089546204, 0.012455827556550503, 0.021976813673973083, -0.0020633710082620382, -0.02781074494123459, -0.08252739906311035, 0.05176399648189545, 0.06277879327535629, 0.011247015558183193, 0.0028269500471651554, 0.09394188225269318, -0.0954715684056282, 0.06359805166721344, 0.08444184064865112, -0.034221138805150986, -0.009416276589035988, 0.0751042366027832, 0.019560083746910095, -0.009119106456637383, -0.09662310779094696, 0.06987480819225311, 0.09350331127643585, -0.07074587047100067, -0.05306103453040123, -0.10809437930583954, -0.004883088171482086, 0.07025790214538574, -0.088555246591568, -0.012491118162870407, -0.10695693641901016, -0.0560765340924263, 0.07578665018081665, -0.05811803787946701, 0.09951303899288177, 0.08658868074417114, 0.011354736052453518, -0.06471602618694305, -0.05295845866203308, 0.04735592380166054, -0.06415798515081406, -0.05574793368577957, -0.08004757761955261, -0.06801004707813263, -0.0856838971376419, 0.0883759930729866, -0.08545276522636414, -0.017484180629253387, -0.0727696493268013, -0.056259673088788986, -0.07613536715507507, 0.0962645411491394, -0.10336429625749588, 0.05120783671736717, -0.003563426434993744, 0.07344825565814972, -0.041837938129901886, 0.052658095955848694, 0.07703106850385666, 0.023539230227470398, 0.01768745481967926, 0.020821843296289444, -0.08267645537853241, -0.005079944152384996, 0.014138787053525448, 0.07159461081027985, -0.003935866057872772, -0.1082768440246582, 0.057806819677352905, -0.10981398075819016, 0.009743358939886093, -0.12169816344976425, 0.07550926506519318, 0.0537293404340744, -0.01367674395442009, 0.08780810981988907, 0.06288203597068787], [-0.04191775992512703, -0.028072185814380646, -0.039604198187589645, 0.0021484941244125366, 0.08151528239250183, 0.07589898258447647, -0.032606907188892365, -0.06911108642816544, 0.04769434034824371, -0.05388694256544113, -0.08730768412351608, 0.03691411018371582, 0.0505850613117218, 0.02695438824594021, 0.060821712017059326, 0.0363505557179451, -0.0415993332862854, 0.04193979129195213, 0.056482985615730286, -0.003460363484919071, -0.050266530364751816, 0.0027697577606886625, -0.08282049745321274, 0.06805557012557983, 0.06622324138879776, 0.039450570940971375, 0.11156308650970459, 0.019213056191802025, -0.0010829127859324217, -0.039288610219955444, -0.0003365820157341659, 0.09929107129573822, -0.05259508639574051, 0.014280475676059723, 0.028138816356658936, -0.0261470228433609, -0.06384363770484924, -0.08113502711057663, 0.07323739677667618, -0.07954224199056625, 0.03722946345806122, -0.06644713133573532, 0.0497584193944931, 0.08592583239078522, 0.05974508449435234, 0.05818432569503784, -0.017033562064170837, -0.034055888652801514, -0.06573270261287689, -0.09466874599456787, 0.009654857218265533, 0.06541872769594193, 0.0728939026594162, 0.1209026500582695, -0.05921035632491112, 0.0850430577993393, -0.06049327924847603, -0.0812859982252121, -0.09075389802455902, 0.062445349991321564, -0.024979867041110992, 0.0011521137785166502, 0.029128476977348328, -0.0238991379737854, 0.031046610325574875, 0.11394935846328735, -0.03959604725241661, 0.09810816496610641, -0.0707554742693901, 0.07175426185131073, -0.010324186645448208, 0.11141328513622284, 0.029998861253261566, 0.06552043557167053, -0.08212075382471085, -0.088831327855587, 0.03060750663280487, 0.042176347225904465, -0.07422390580177307, 0.10608558356761932], [0.08802507817745209, -0.06846985965967178, 0.017781898379325867, 0.017966702580451965, -0.03980092704296112, -0.05581434816122055, 0.06505909562110901, 0.08817709982395172, -0.05184214934706688, -0.04266601800918579, -0.03269956260919571, -0.009207814931869507, 0.0020280852913856506, 0.05776040256023407, 0.06926272809505463, 0.10452091693878174, 0.07846932113170624, -0.062487371265888214, -0.005648605525493622, 0.06180955469608307, -0.033692389726638794, -0.048989079892635345, -0.09197843074798584, -0.10100480914115906, -0.1038186326622963, 0.026897326111793518, 0.045129552483558655, -0.09090027213096619, 0.040693849325180054, -0.049916185438632965, -0.0057985782623291016, -0.08472037315368652, 0.012224867939949036, -0.044448092579841614, 0.05137886106967926, 0.07996872067451477, -0.06905141472816467, 0.07989287376403809, -0.09663701057434082, 0.005848437547683716, -0.08049526810646057, 0.03554984927177429, -0.0775189995765686, -0.07036739587783813, 0.0036315321922302246, -0.06604354828596115, 0.04912285506725311, 0.0049447715282440186, -0.09671615064144135, 0.032369598746299744, -0.039635591208934784, -0.04705074429512024, 0.04962871968746185, 0.030307859182357788, 0.08916045725345612, -0.03740762919187546, -0.017020583152770996, 0.07378703355789185, 0.019170701503753662, -0.06014561653137207, -0.017186395823955536, 0.009942837059497833, -0.1043153628706932, 0.07881321012973785, 0.025422781705856323, 0.014249548316001892, 0.09194768965244293, -0.049257792532444, 0.08604174852371216, -0.1037781685590744, -0.09131795167922974, 0.10167048871517181, -0.08341307938098907, -0.08173727244138718, -0.02872505784034729, 0.08374819159507751, 0.021870151162147522, -0.0915796309709549, -0.04522595554590225, 0.07290509343147278], [0.0741456151008606, -0.07076312601566315, 0.003310964209958911, -0.06073253974318504, -0.08179719746112823, 0.06312591582536697, -0.09015125781297684, -0.012430889531970024, -0.012665092945098877, 0.07644295692443848, -0.004334856756031513, 0.046707723289728165, -0.04396437108516693, -0.03548148274421692, -0.021443545818328857, -0.06291064620018005, -0.04216143488883972, -0.037693366408348083, -0.11908655613660812, -0.07002320140600204, -0.03813396766781807, 0.005207671783864498, -0.11572468280792236, -0.07578171789646149, -0.03679829090833664, 0.041985586285591125, 0.08477534353733063, -0.049342986196279526, -0.03589127957820892, 0.008613184094429016, 0.03457716107368469, -0.02529873698949814, -0.0015319271478801966, -0.11519238352775574, 0.0159924179315567, -0.08337090164422989, -0.07395815849304199, -0.055649708956480026, -0.05257871747016907, 0.019235169515013695, 0.017556454986333847, 0.06905161589384079, 0.018567124381661415, 0.015100136399269104, 0.09854285418987274, -0.10979131609201431, -0.10250356793403625, -0.07531369477510452, -0.08232811093330383, -0.04042690247297287, -0.0039171501994132996, -0.08450480550527573, -0.08601788431406021, -0.021058371290564537, -0.08428239822387695, 0.04216732084751129, -0.04646158590912819, 0.05220526456832886, 0.007994920015335083, 0.030045285820961, -0.041552744805812836, 0.09337178617715836, 0.07628655433654785, -0.058643974363803864, -0.05515046790242195, -0.009736702777445316, -0.1112951934337616, 0.08022905141115189, 0.07945038378238678, -0.007119141519069672, 0.04324093833565712, 0.044835448265075684, 0.0032346409279853106, 0.015519457869231701, -0.09100303053855896, 0.047782883048057556, 0.01055716723203659, 0.08873415738344193, 0.040291473269462585, 0.10415220260620117], [-0.11715126037597656, -0.02365569770336151, -0.05426368862390518, -0.07284510135650635, 0.029968738555908203, 0.046358317136764526, 0.0031670257449150085, -0.019254103302955627, 0.011433467268943787, 0.07890969514846802, 0.06734217703342438, 0.03128340467810631, -0.01339359674602747, -0.012135562486946583, -0.017346195876598358, 0.08356816321611404, -0.03735904023051262, 0.10349110513925552, -0.02243691496551037, 0.0849834457039833, 0.0344276949763298, -0.044479645788669586, -0.07170674204826355, -0.035771891474723816, -0.00986942183226347, -0.10018499195575714, 0.008928634226322174, 0.0048980857245624065, 0.030380336567759514, 0.03910326957702637, 0.10724443942308426, 0.09998388588428497, -0.03713337332010269, 0.039332710206508636, 0.10447444766759872, 0.10428003966808319, 0.051773253828287125, 0.021820345893502235, -0.09814753383398056, 0.030967529863119125, 0.0365162156522274, -0.007183841895312071, -0.08216346055269241, 0.06800973415374756, -0.042049307376146317, -0.07204163819551468, 0.06972095370292664, -0.11742536723613739, -0.06154884770512581, -0.04930451139807701, 0.08517032861709595, 0.0742279589176178, 0.07492727786302567, -0.05683992803096771, 0.011394930072128773, -0.0740431472659111, -0.06542274355888367, -0.001979718916118145, 0.09563581645488739, 0.03419458866119385, -0.08049575239419937, -0.0660632848739624, 0.06139460951089859, 0.09162025153636932, -0.02468552254140377, 0.07011757045984268, -0.04881364479660988, 0.09650980681180954, -0.0842728316783905, 0.054742276668548584, 0.08016589283943176, -0.05810493603348732, -0.05859534069895744, 0.028053496032953262, 0.07810945063829422, 0.043847110122442245, -0.014124073088169098, 0.04540199786424637, 0.036022886633872986, 0.012975051999092102], [-0.10453153401613235, -0.09630002081394196, -0.05705060064792633, -0.08359387516975403, -0.04853680729866028, -0.1109100878238678, 0.09185929596424103, -0.04714598506689072, 0.04415968060493469, -0.030659809708595276, -0.05261969193816185, -0.09067206084728241, -0.0007774382829666138, -0.010910436511039734, 0.027729928493499756, -0.09132014960050583, 0.017409637570381165, 0.031170755624771118, -0.012844033539295197, 0.10610707104206085, 0.08017715811729431, -0.07935354858636856, -0.036469534039497375, 0.00023237615823745728, -0.04900900274515152, 0.06978711485862732, 0.06747166812419891, 0.00769428163766861, -0.09722919762134552, -0.09055448323488235, -0.0016395077109336853, -0.04226890951395035, 0.0592985600233078, 0.04314631223678589, -0.03656725585460663, -0.013819217681884766, -0.0794406458735466, 0.10823065042495728, 0.06286856532096863, -0.027893967926502228, 0.10715125501155853, 0.0838046669960022, -0.027396641671657562, -0.01826869696378708, -0.10540082305669785, -0.027710825204849243, 0.05494570732116699, 0.07095497846603394, -0.06672243773937225, -0.11082257330417633, 0.0858677327632904, -0.013813704252243042, -0.06937354803085327, -0.040686674416065216, -0.007989175617694855, -0.036940425634384155, -0.040731482207775116, -0.0518350712954998, -0.06736103445291519, -0.010933160781860352, -0.017243146896362305, -0.10087897628545761, -0.009587995707988739, -0.09971433877944946, 0.06643527746200562, 0.06860721111297607, 0.040942639112472534, 0.0805506557226181, -0.0844612792134285, 0.07495184242725372, -0.027610480785369873, 0.07595300674438477, -0.017390206456184387, -0.03946315497159958, 0.01144823431968689, -0.06877186894416809, 0.01113678514957428, 0.10520166158676147, -0.06338914483785629, -0.02142796665430069], [0.07105284184217453, 0.017164185643196106, -0.03631066903471947, 0.06312328577041626, 0.11000989377498627, -0.044968247413635254, -0.07185892760753632, 0.013192068785429, 0.047041863203048706, -0.07291088253259659, 0.03391757607460022, 0.008468668907880783, 0.09648292511701584, -0.012690096162259579, 0.09514132142066956, -0.1043470948934555, -0.056209269911050797, -0.05291911959648132, -0.08565446734428406, 0.009077897295355797, -0.05683912709355354, -0.07286345213651657, -0.10956794768571854, -0.0016948282718658447, -0.11931758373975754, -0.005385234951972961, -0.02121519297361374, -0.024451900273561478, -0.05640682578086853, 0.038031503558158875, -0.1054898276925087, -0.11563066393136978, 0.05662280321121216, -0.016565751284360886, 0.010514885187149048, 0.0879478007555008, 0.010073642246425152, 0.10154068470001221, -0.011721360497176647, 0.08472027629613876, 0.004199546296149492, 0.016099240630865097, -0.10649728029966354, -0.0013179108500480652, 0.061532020568847656, 0.07350582629442215, 0.0264216810464859, -0.05207023024559021, -0.0347471684217453, -0.036607563495635986, -0.042870067059993744, 0.04423954710364342, 0.0800742655992508, 0.011192494072020054, -0.03575921058654785, -0.09943050891160965, -0.03131455183029175, 0.02422173321247101, 0.08329294621944427, 0.037561193108558655, 0.002338588237762451, -0.01885608211159706, 0.05189359188079834, 0.06922127306461334, -0.009919494390487671, 0.0825946256518364, 0.023745404556393623, -0.04708981141448021, -0.01544971950352192, -0.032431766390800476, -0.015890128910541534, 0.011878997087478638, -0.11795853078365326, -0.023980824276804924, -0.08772595226764679, 0.08293383568525314, -0.024733468890190125, -0.014695821329951286, 0.07194247096776962, 0.03248092532157898], [0.0069485194981098175, 0.10844187438488007, -0.10245499014854431, -0.10798218846321106, 0.048442304134368896, -0.0036570890806615353, -0.03502207249403, -0.07679878175258636, 0.037099823355674744, -0.08824219554662704, 0.05857761949300766, 0.02750406600534916, 0.08078727126121521, 0.05404520034790039, -0.09920068085193634, 0.0760573297739029, 0.10774962604045868, 0.020150983706116676, 0.06677578389644623, 0.08884960412979126, -0.09677509218454361, -0.04533302038908005, -0.006245302967727184, 0.07532168924808502, 0.002682127058506012, 0.07600399851799011, -0.029398903250694275, -0.06185184046626091, 0.0070148189552128315, 0.016131967306137085, 0.055789586156606674, -0.10333054512739182, -0.07603038102388382, -0.05188082531094551, -0.08070363104343414, -0.048318080604076385, -0.06364160031080246, -0.008656551130115986, 0.09039399772882462, -0.0421762615442276, 0.015383046120405197, 0.10690003633499146, -0.0015204056398943067, -0.017993055284023285, -0.001645463751628995, -0.015895942226052284, -0.059611640870571136, 0.08890245854854584, -0.032093435525894165, 0.04354824125766754, -0.043479569256305695, -0.036452680826187134, -0.0348271019756794, -0.047043848782777786, -0.013036064803600311, -0.07440612465143204, -0.022195784375071526, 0.03484223410487175, -0.009662732481956482, 0.09195268899202347, 0.04305337741971016, -0.04311636835336685, 0.03977183997631073, 0.0698634684085846, 0.03200310468673706, 0.0637713223695755, 0.046032264828681946, 0.027570072561502457, -0.06787175685167313, -0.07441774755716324, 0.0585331916809082, 0.10699769854545593, 0.05844484269618988, 0.059344030916690826, -0.020596010610461235, 0.0900135487318039, 0.02584555745124817, 0.035685569047927856, 0.016954317688941956, -0.015229202806949615], [0.09709662199020386, -0.006882891058921814, 0.024090468883514404, -0.06176163628697395, -0.045345693826675415, 0.02722148597240448, -0.04844096302986145, 0.07326805591583252, -0.08118933439254761, -0.019296176731586456, 0.10584479570388794, 0.01951564848423004, -0.02729298174381256, 0.0596596896648407, 0.08221441507339478, -0.008223578333854675, -0.05876860395073891, -0.013125941157341003, -0.08729838579893112, -0.05182069167494774, -0.08232354372739792, 0.08704438805580139, 0.07984362542629242, 0.01411980390548706, -0.07055450975894928, -0.03328441083431244, 0.031759485602378845, -0.028425462543964386, 0.05931217968463898, -0.06104636192321777, -0.09453044831752777, 0.026748210191726685, 0.012277558445930481, 0.023400291800498962, 0.013689130544662476, 0.0623060017824173, -0.04544772952795029, -0.04796615242958069, 0.0834895670413971, 0.07016077637672424, 0.0027818605303764343, 0.0902085155248642, 0.10094642639160156, 0.08413949608802795, 0.07456158101558685, -0.057784732431173325, 0.09630806744098663, 0.010730385780334473, -0.048136815428733826, -0.027352385222911835, -0.11017800867557526, 0.06427708268165588, -0.06570114195346832, -0.03453376144170761, 0.043300971388816833, 0.009035617113113403, 0.0771525502204895, -0.08828820288181305, -0.020800337195396423, 0.07029236853122711, -0.045924171805381775, 0.06584025919437408, -0.10655632615089417, -0.08896716684103012, 0.022004663944244385, -0.08867428451776505, 0.007393352687358856, -0.10664033889770508, 0.001322135329246521, -0.0960116982460022, -0.10810170322656631, -0.029947251081466675, 0.11122609674930573, 0.0653691440820694, 0.006322219967842102, -0.0496659129858017, -0.04045373201370239, 0.07922957837581635, 0.039205119013786316, -0.055801019072532654], [-0.06588084995746613, 0.10444097220897675, -0.05448193475604057, 0.10379573702812195, -0.026778653264045715, 0.029117897152900696, -0.1111331433057785, 0.03448303043842316, 0.01640033721923828, 0.09270280599594116, -0.01657610386610031, 0.09345634281635284, 0.061667680740356445, -0.02649056911468506, -0.021297894418239594, 0.009096786379814148, 0.09326991438865662, 0.05764608085155487, -0.10350446403026581, -0.020472854375839233, 0.030012503266334534, -0.06559966504573822, -0.04503953456878662, -0.0655444860458374, -0.08995778858661652, -0.10645369440317154, -0.010949850082397461, 0.00533556193113327, -0.09364456683397293, 0.057675257325172424, -0.03513989597558975, 0.1068597137928009, -0.008424833416938782, -0.10889269411563873, -0.10588355362415314, 0.10798846185207367, 0.05605904757976532, -0.07586522400379181, -0.016237229108810425, 0.0925540179014206, 0.0987936407327652, 0.03155404329299927, 0.08893412351608276, 0.10611423850059509, -0.056150972843170166, 0.002229146659374237, -0.10932877659797668, 0.0164918452501297, 0.09512022137641907, 0.004283323884010315, 0.09597322344779968, -0.10728982836008072, 0.07609723508358002, 0.0712360143661499, 0.006330825388431549, -0.03526324778795242, 0.03712739050388336, 0.11085300147533417, -0.0889768898487091, 0.10813917219638824, -0.08225768804550171, -0.003458760678768158, 0.07041117548942566, -0.09295295178890228, -0.10549315065145493, 0.04570630192756653, 0.04540540277957916, 0.0481266975402832, -0.08524777740240097, -0.055811069905757904, -0.07466769218444824, -0.08898192644119263, 0.10766942799091339, -0.08060632646083832, -0.010269105434417725, 0.0351533442735672, -0.11044289171695709, 0.023410722613334656, 0.004177704453468323, 0.09755046665668488], [0.04271771013736725, -0.017461873590946198, 0.09259021282196045, -0.08213143795728683, 0.068067267537117, -0.06847202777862549, 0.07965239882469177, -0.04679163545370102, 0.003227241337299347, -0.10489152371883392, -0.02921181172132492, -0.05044648051261902, 0.08805391192436218, -0.07049605250358582, 0.022178754210472107, -0.10432282835245132, -0.03855986148118973, -0.07281117141246796, 0.014945849776268005, -0.10641263425350189, -0.06750769913196564, -0.047670431435108185, 0.01615700125694275, 0.0013096332550048828, -0.03194325417280197, 0.04725317656993866, -0.015005931258201599, 0.01493026316165924, -0.009278319776058197, -0.020832858979701996, -0.052903205156326294, -0.08914961665868759, -0.01781754195690155, 0.07623143494129181, 0.09407371282577515, 0.03472107648849487, 0.008491501212120056, 0.0068181902170181274, -0.08486536890268326, -0.030095934867858887, 0.028434842824935913, 0.061795130372047424, -0.06140688434243202, -0.07522611320018768, -0.016768679022789, -0.01338883489370346, 3.0934810638427734e-05, -0.04070708155632019, -0.07293201982975006, 0.09976895153522491, 0.05667327344417572, -0.05481085553765297, 0.03885793685913086, -0.0011376887559890747, 0.10114617645740509, -0.05826026201248169, -0.06566958129405975, 0.06321129202842712, -0.06206592544913292, -0.03484597057104111, 0.10713094472885132, -0.07673826813697815, 0.012796349823474884, 0.09806613624095917, 0.035952016711235046, -0.03070169687271118, -0.09698620438575745, -0.009224377572536469, -0.049846041947603226, -0.03437133878469467, -0.06878772377967834, -0.08773687481880188, 0.0604044646024704, 0.0624580979347229, 0.07287417352199554, -0.018439970910549164, 0.007188394665718079, 0.004769466817378998, -0.045481160283088684, 0.03827813267707825], [0.03435828536748886, 0.010790511965751648, 0.09321598708629608, -0.07349524646997452, 0.031259581446647644, -0.09242232888936996, 0.06440858542919159, 0.052434876561164856, 0.0900135338306427, 0.08711767196655273, -0.051459960639476776, 0.07014098018407822, 0.008040493354201317, 0.08068591356277466, 0.022404834628105164, -0.046149350702762604, 0.043995942920446396, 0.04763934388756752, 0.08959194272756577, -0.05953120067715645, -0.006185636390000582, 0.018863443285226822, -0.0851793885231018, 0.023204490542411804, 0.02954964153468609, 0.03555344045162201, 0.07258317619562149, 0.07920191437005997, 0.006309092976152897, 0.0834704041481018, 0.08479109406471252, 0.07306163758039474, 0.0939609706401825, -0.10415463894605637, 0.05700177699327469, 0.09668727219104767, 0.0416065976023674, 0.09353595227003098, -0.05722291022539139, -0.06841491162776947, -0.03894207254052162, 0.05477028712630272, -0.0864696279168129, -0.07424113899469376, 0.043123651295900345, 0.05042112246155739, -0.045284196734428406, -0.05706833675503731, 0.06340756267309189, -0.08124228566884995, -0.014437265694141388, -0.033633094280958176, 0.08135585486888885, -0.008447007276117802, 0.04369719326496124, -0.018128104507923126, 0.022157255560159683, 0.033641040325164795, 0.001438423991203308, 0.07874157279729843, 0.05039643496274948, -0.014372646808624268, 0.11789332330226898, -0.030079640448093414, 0.10510290414094925, 0.02689550817012787, -0.08724240213632584, -0.10664961487054825, -0.08457206189632416, -0.023285850882530212, -0.12505576014518738, 0.06053687632083893, 0.009774498641490936, 0.014014379121363163, 0.06097565218806267, 0.0217606108635664, -0.10061903297901154, 0.08679872006177902, 0.04887772724032402, 0.1004338413476944], [-0.07172230631113052, -0.09667107462882996, 0.01929151639342308, -0.00992655660957098, -0.0882592499256134, -0.09389213472604752, 0.031243428587913513, 0.044849030673503876, 0.057389408349990845, -0.037004660815000534, -0.04801046475768089, 0.040820494294166565, -0.028001468628644943, -0.10621178895235062, 0.03516456484794617, 0.05744994059205055, 0.10456442832946777, 0.1111125648021698, 0.09176721423864365, -0.012056762352585793, -0.08448931574821472, 0.027520596981048584, -0.06119139865040779, 0.05877622961997986, -0.10278826951980591, 0.08336836099624634, 0.006269491743296385, -0.0494217574596405, 0.04821225628256798, -0.09122317284345627, -0.04888763651251793, -0.009975887835025787, -0.03237888589501381, -0.04537389427423477, -0.0026955632492899895, -0.08787938952445984, -0.04617747291922569, -0.06451856344938278, -0.04950891435146332, -0.05648855119943619, 0.07534409314393997, 0.04658711701631546, 0.011118194088339806, -0.06350842863321304, 0.09656603634357452, 0.017247624695301056, 0.019092872738838196, -0.004034040495753288, 0.05896790698170662, 0.02079242467880249, 0.04513610899448395, -0.01005267258733511, 0.03932137042284012, -0.027750708162784576, -0.08440860360860825, 0.08743183314800262, 0.08338241279125214, 0.10738010704517365, 0.042714253067970276, -0.03352443128824234, -0.09271080046892166, 0.006314911413937807, -0.03920423984527588, -0.005050823092460632, 0.06588437408208847, -0.08525913953781128, -0.054977454245090485, 0.09753295034170151, 0.09588818997144699, -0.06334633380174637, -0.05230413004755974, 0.004485994577407837, 0.05121302232146263, 0.10806887596845627, -0.09624509513378143, -0.023699669167399406, -0.034709639847278595, -0.03668403998017311, -0.007256601937115192, -0.10550932586193085], [0.06240265443921089, 0.041439831256866455, -0.1071418821811676, 0.012725867331027985, 0.03499692678451538, -0.02871435508131981, -0.06804867088794708, -0.038114890456199646, 0.05102336406707764, -0.05322711169719696, -0.02898074872791767, -0.06554821133613586, 0.03075668215751648, 0.007249471265822649, 0.08391667902469635, -0.0041380375623703, 0.039592232555150986, 0.014936218969523907, 0.016567762941122055, 0.06096363440155983, 0.08328652381896973, 0.009354189038276672, 0.020111193880438805, 0.0623621940612793, -0.0865856260061264, 0.06424489617347717, 0.054041434079408646, 0.025018632411956787, -0.04245247691869736, -0.1104852706193924, -0.10489274561405182, -0.0015199079643934965, 0.0006521418690681458, -0.11105509847402573, -0.09308970719575882, -0.02880001813173294, 0.03750025853514671, -0.027636777609586716, 0.09783437103033066, 0.02575543522834778, 0.010326148942112923, 0.023450642824172974, 0.03968328237533569, -0.0859363004565239, 0.10684975236654282, 0.009384140372276306, -0.03190497308969498, -0.06296949833631516, 0.06295201182365417, 0.05995620787143707, 0.011301308870315552, -0.07212097942829132, 0.017861390486359596, -0.053056951612234116, -0.0759684219956398, 0.030025318264961243, -0.04049558937549591, 0.016254665330052376, -0.015022769570350647, -0.015878859907388687, 0.09387621283531189, -0.019440604373812675, -0.007974442094564438, 0.03718984127044678, 0.09582139551639557, -0.007119186222553253, -0.040147341787815094, -0.09871614724397659, -0.025340810418128967, -0.05771975964307785, -0.004837167449295521, 0.05182109773159027, 0.04095059633255005, -0.008880886249244213, 0.05454045534133911, -0.028846479952335358, 0.021240830421447754, 0.021886035799980164, -0.055265992879867554, 0.0550205260515213], [-0.10028630495071411, 0.04880991578102112, -0.11691445112228394, 0.06813307851552963, 0.02999553084373474, -0.04484851658344269, 0.026698037981987, -0.012185376137495041, -0.09884383529424667, -0.0013014310970902443, 0.02921629510819912, 0.08660732209682465, 0.05042508244514465, -0.10838552564382553, -0.016450032591819763, -0.01425161212682724, 0.03142279386520386, -0.04333186149597168, 0.06799045950174332, 0.003983193077147007, 0.04081347957253456, 0.022990591824054718, 0.08716706931591034, -0.07121528685092926, 0.06324832886457443, -0.0832298994064331, -0.11245828866958618, -0.050552234053611755, 0.03256263583898544, -0.00046690553426742554, 0.05860939621925354, -0.08862847834825516, -0.0958738774061203, -0.06495489180088043, 0.0710594654083252, 0.09065340459346771, -0.0075622498989105225, 0.008857314474880695, -0.06447405368089676, 0.07941737771034241, 0.06903759390115738, 0.03929100185632706, 0.07806959003210068, -0.006100453436374664, 0.07387398183345795, -0.1257723569869995, -0.06819074600934982, -0.10879196226596832, -0.11931457370519638, 0.08485038578510284, 0.10438410937786102, -0.02736462838947773, -0.01828305795788765, -0.06198592856526375, 0.024596650153398514, 0.07330493628978729, 0.08173331618309021, 0.05021242797374725, -0.10751355439424515, -0.06149468943476677, 0.028923064470291138, -0.044097717851400375, -0.0375853031873703, -0.00021139532327651978, -0.05849128216505051, 0.02968216873705387, 0.07181773334741592, -0.08360601216554642, -0.10448047518730164, -0.043963126838207245, -0.08844970911741257, 0.012535840272903442, -0.028692882508039474, 0.03741058334708214, 0.021400773897767067, -0.07138578593730927, -0.07416877150535583, -0.054694317281246185, 0.09107436239719391, 0.0863700807094574], [-0.10506507754325867, 0.03645572066307068, -0.10033269226551056, 0.01434008777141571, 0.0484435111284256, 0.1041635125875473, -0.03083667904138565, 0.0836375504732132, -0.07163269817829132, -0.10798507183790207, -0.11125781387090683, -0.023945719003677368, -0.10322805494070053, 0.0025792866945266724, 0.05179426074028015, -0.035608336329460144, 0.055527880787849426, 0.040716275572776794, 0.1002953052520752, 0.05013398826122284, 0.10624746978282928, -0.02215590327978134, -0.1008431538939476, 0.07953977584838867, 0.018028557300567627, 0.10091856122016907, 0.054667383432388306, -0.04143328219652176, 0.07465566694736481, 0.04092663526535034, -0.07074835896492004, -0.040606118738651276, 0.08491723239421844, -0.021870523691177368, 0.03695102035999298, -0.04096628725528717, -0.10067249834537506, 0.08585372567176819, -0.09715122729539871, -0.006399199366569519, 0.03143131732940674, 0.020266950130462646, -0.03747592121362686, -0.08191002905368805, 0.04860284924507141, -0.0010488629341125488, 0.025501489639282227, 0.023623615503311157, 0.04740695655345917, 0.004785448312759399, -0.012736283242702484, -0.0261651873588562, 0.08556641638278961, 0.029855728149414062, 0.1095292866230011, -0.1055658757686615, -0.0551924891769886, -0.10427339375019073, 0.06315751373767853, 0.0040426105260849, 0.008281461894512177, -0.07624366879463196, 0.015106648206710815, 0.016307130455970764, -0.08824004232883453, 0.011014953255653381, -0.03413034975528717, 0.049040138721466064, -0.10746496170759201, -0.1085948571562767, 0.03448857367038727, -0.0812322199344635, 0.0014028102159500122, -0.04076018184423447, -0.026270784437656403, 0.008949846029281616, -0.04021603614091873, -0.05599936470389366, 0.011166214942932129, 0.10872380435466766], [0.03367888927459717, 0.07088123261928558, 0.058793872594833374, 0.0376947820186615, 0.06883701682090759, -0.019209062680602074, -0.09041371196508408, 0.01070011779665947, -0.07870523631572723, 0.052247993648052216, 0.0941617488861084, 0.11147337406873703, 0.018524495884776115, 0.06197347864508629, -0.04342987388372421, 0.08944014459848404, -0.07271907478570938, -0.021610179916024208, -0.0011948761530220509, 0.09439904987812042, 0.07033129781484604, 0.07073137164115906, -0.0427083894610405, -0.09353608638048172, -0.06153617426753044, -0.10153037309646606, -0.09903814643621445, 0.03633919358253479, -0.013026976957917213, -0.09947130084037781, -0.07486666738986969, -0.00220363843254745, 0.09692110866308212, 9.327533189207315e-05, 0.02098734863102436, 0.09594561159610748, 0.010668148286640644, -0.09380219131708145, 0.1058482825756073, 0.08118569105863571, -0.05477174371480942, 0.024554792791604996, -0.03821238875389099, -0.0032733306288719177, 0.0620265007019043, -0.03768359124660492, -0.003967396914958954, 0.03889185190200806, 0.06943510472774506, -0.09588335454463959, 0.012410275638103485, 0.06952250748872757, 0.04742689058184624, 0.020645074546337128, -0.07910744845867157, -0.034793585538864136, 0.08041815459728241, -0.06166010722517967, 0.08014786243438721, 0.039736609905958176, -0.001448251772671938, 0.06082140654325485, -0.09893780946731567, 0.03210112452507019, 0.09289280325174332, 0.11932787299156189, -0.03513702005147934, 0.09321392327547073, -0.03527985140681267, 0.05365115404129028, -0.06746683269739151, -0.02546238899230957, -0.05075393617153168, 0.014125227928161621, -0.02107188291847706, 0.04541917145252228, 0.04555317759513855, 0.07070156186819077, 0.00018042910960502923, 0.06530502438545227], [-0.047616973519325256, -0.08829408138990402, -0.0061247870326042175, -0.06092561036348343, 0.03046432137489319, 0.010095618665218353, -0.04702242463827133, 0.048501938581466675, -0.10695438832044601, -0.024766936898231506, -0.0922355055809021, -0.05357668176293373, 0.005838453769683838, 0.07622259855270386, -0.08595079183578491, 0.04036793112754822, 0.02268567681312561, 0.004348725080490112, -0.06063665822148323, 0.009769037365913391, -0.06278787553310394, -0.07648716121912003, -0.0893920361995697, 0.04642003774642944, -0.019824273884296417, -0.02219337970018387, -0.05625760927796364, 0.04626697301864624, -0.004346981644630432, -0.06451220065355301, 0.06979820132255554, 0.0818275511264801, 0.009186886250972748, 0.09267324209213257, -0.07725700736045837, -0.07988893240690231, 0.06331396102905273, -0.01888512820005417, 0.04146350920200348, 0.06202198565006256, -0.011714085936546326, 0.10746240615844727, -0.05045291781425476, -0.09959517419338226, 0.08192677795886993, -0.06935809552669525, -0.09899819642305374, -0.039101630449295044, -0.071737140417099, -0.0553889162838459, 0.10428382456302643, -0.10591303557157516, 0.0320063978433609, 0.008281461894512177, 0.05502215027809143, -0.06393776834011078, 0.07947830855846405, 0.01607958972454071, 0.059785082936286926, -0.11166458576917648, -0.04657765477895737, -0.01681496948003769, 0.01547849178314209, 0.07459455728530884, 0.04717421531677246, -0.07282926142215729, 0.03793163597583771, -0.05240850895643234, 0.0450717955827713, -0.006318137049674988, 0.08647571504116058, -0.026380181312561035, -0.08428499102592468, -0.02793872356414795, -0.051699019968509674, -0.0010634511709213257, -0.10475220531225204, -0.09304411709308624, -0.005716554820537567, -0.024386383593082428], [0.011977754533290863, -0.058490049093961716, -0.02717909775674343, 0.05648714303970337, 0.06112317740917206, -0.005899606738239527, 0.04997941851615906, 0.08179692178964615, 0.04352165758609772, 0.06382755935192108, 0.09880594909191132, -0.08389165252447128, -0.01913314126431942, -0.0887698382139206, 0.048262819647789, 0.10027685761451721, -0.01848720759153366, -0.04217933118343353, 0.10027880221605301, -0.018933823332190514, -0.09258956462144852, 0.0828380361199379, -0.033997535705566406, -0.07914033532142639, -0.003371170489117503, -0.0723429024219513, -0.106142058968544, 0.04608023166656494, 0.015254129655659199, -0.06882251799106598, -0.09730851650238037, -0.11391525715589523, 0.01837138831615448, -0.09493124485015869, 0.0761488676071167, 0.10919511318206787, 0.04243193194270134, -0.07267912477254868, -0.05826111510396004, -0.034380171447992325, -0.05228204280138016, -0.05687480792403221, 0.013133635744452477, -0.07966111600399017, -0.01849072426557541, -0.10890348255634308, -0.016377903521060944, -0.04185429960489273, -0.06100371852517128, 0.08860297501087189, 0.10670094192028046, 0.011725915595889091, -0.07427673786878586, -0.07089486718177795, 0.02304437756538391, -0.06424305588006973, -0.08240686357021332, -0.03555143624544144, -0.047444120049476624, -0.06623239815235138, 0.05312223732471466, -0.07196258753538132, -0.07006378471851349, -0.07025380432605743, -0.08736585825681686, 0.062149643898010254, -0.003889549057930708, -0.0852312445640564, -0.0005954384105280042, -0.09706173092126846, -0.08872189372777939, 0.11111758649349213, -0.010519914329051971, 0.07067883014678955, -0.028633616864681244, 0.004741108510643244, 0.10622799396514893, 0.019291289150714874, 0.07000361382961273, -0.0065268948674201965], [-0.020891524851322174, 0.01641443371772766, 0.06305652856826782, 0.08759641647338867, 0.03651723265647888, 0.061720967292785645, -0.04422536492347717, -0.03377513587474823, -0.07138557732105255, 0.031392619013786316, -0.07504332065582275, -0.11173462867736816, -0.08960217237472534, -0.07974299043416977, -0.07022234797477722, -0.07711780071258545, -0.10291694849729538, -0.08268092572689056, -0.03424040228128433, -0.0331590473651886, -0.06588274240493774, -0.07887662947177887, 0.07386554777622223, 0.035242483019828796, -0.05865205079317093, -0.052626676857471466, 0.05522418022155762, -0.034317754209041595, -0.06821116805076599, -0.027416393160820007, -0.0794968381524086, 0.0606154203414917, 0.1022687703371048, 0.008702509105205536, -0.020253963768482208, -0.00036735832691192627, 0.0007391050457954407, 0.007422953844070435, -0.09835224598646164, 0.10946977138519287, -0.022977665066719055, -0.042821116745471954, -0.024886637926101685, -0.07157585769891739, -0.06682814657688141, 0.02686333656311035, -0.048476144671440125, -0.02677208185195923, -0.06816905736923218, -0.03605329990386963, -0.07190492749214172, -0.02098715305328369, -0.1095648780465126, 0.01654227077960968, -0.10717809945344925, -0.07700853049755096, -0.09299065172672272, -0.04455411434173584, -0.09059090912342072, -0.06749527156352997, -0.05482994019985199, -0.062460437417030334, -0.05911727994680405, -0.04751702398061752, 0.05264827609062195, -0.09090542048215866, 0.0808151513338089, -0.07495880126953125, -0.032060109078884125, -0.01826821267604828, 0.039105579257011414, -0.09702077507972717, -0.00474703311920166, 0.08009299635887146, -0.07415074855089188, -0.03304284065961838, -0.0020734891295433044, 0.011515796184539795, 0.10566693544387817, 0.046161800622940063], [0.038383856415748596, -0.06626132130622864, 0.002700813114643097, -0.047266364097595215, 0.0531611442565918, -0.0157928466796875, -0.036341480910778046, -0.08127714693546295, 0.053207993507385254, -0.04627436399459839, -0.010280139744281769, -0.00768163800239563, 0.009205013513565063, -0.035201139748096466, 0.06979534029960632, -0.048713721334934235, -0.01937999576330185, 0.09997308254241943, -0.037846677005290985, -0.0012941062450408936, -0.07381516695022583, 0.09745800495147705, 0.0381048321723938, 0.014780104160308838, 0.10765138268470764, -0.013034217059612274, 0.044988393783569336, 0.1047462671995163, 0.01297181099653244, 0.07151247560977936, -0.04366963356733322, 0.0836377739906311, -0.0037662535905838013, 0.0036348551511764526, -0.108299121260643, -0.09832412004470825, -0.02472195029258728, -0.002189353108406067, -0.050810616463422775, -0.044626303017139435, 0.02169516682624817, -0.06624355167150497, -0.06410074234008789, 0.025212600827217102, -0.07583285868167877, -0.07194409519433975, -0.026935599744319916, -0.03604838252067566, -0.05239937826991081, 0.011766426265239716, 0.05823531746864319, 0.028895944356918335, -0.09652409702539444, 0.021903321146965027, 0.029100283980369568, 0.014532491564750671, 0.04245421290397644, -0.07645753026008606, 0.0877676010131836, -0.009599708020687103, 0.036641985177993774, -0.0012321174144744873, 0.09277290105819702, -0.10121355205774307, -0.0035448744893074036, -0.008526459336280823, 0.02100662887096405, 0.10245402157306671, 0.009173132479190826, -0.02088143676519394, 0.06938184797763824, -0.0842708870768547, -0.034649647772312164, 0.007129572331905365, 0.06221206486225128, 0.031601786613464355, -0.011286206543445587, -0.0874328762292862, -0.06247864291071892, -0.09573349356651306], [-0.06658497452735901, 0.06606326997280121, -0.10214391350746155, -0.052568305283784866, -0.04013584554195404, 0.01092320866882801, 0.06697912514209747, 0.07687923312187195, -0.07507708668708801, 0.08290283381938934, -0.07973236590623856, -0.08204513788223267, -0.053146541118621826, -0.037814509123563766, -0.013960480690002441, 0.025950558483600616, 0.0627536028623581, 0.051164209842681885, -0.006207702215760946, -0.05672647804021835, -0.025506284087896347, -0.10225757211446762, -0.006837364751845598, -0.09815790504217148, 0.05127289891242981, 0.05027236044406891, 0.00759116979315877, 0.03982774540781975, -0.10072340816259384, 0.03426891565322876, -0.04619024321436882, -0.004602407570928335, 0.0016476355958729982, 0.06989975273609161, -0.007397465407848358, 0.08927282691001892, -0.07778040319681168, 0.1014116033911705, 0.0008201090386137366, -0.023355280980467796, -0.09597443789243698, -0.08689146488904953, -0.03432401269674301, -0.02566409856081009, -0.07183809578418732, -0.033931199461221695, -0.0007968246936798096, 0.0756194218993187, -0.1215369701385498, -0.07536250352859497, 0.05700823664665222, -0.04271767660975456, 0.07937417179346085, 0.05548400804400444, -0.07662110030651093, -0.009919708594679832, 0.041426777839660645, 0.05410081893205643, -0.07037869095802307, 0.01692187786102295, 0.029606470838189125, -0.02821331098675728, 0.08008354902267456, -0.10461481660604477, -0.049058735370635986, -0.0649636834859848, -0.06394358724355698, -0.0007373265689238906, -0.04714413732290268, 0.027737990021705627, 0.04888657107949257, 0.09266579151153564, 0.04285886138677597, 0.015947125852108, -0.03168778866529465, 0.02253870852291584, 0.0141696035861969, 0.005632417276501656, 0.054192330688238144, -0.041968218982219696], [0.043800994753837585, -0.10386090725660324, 0.032654955983161926, 0.06549336016178131, 0.026954561471939087, 0.0991639494895935, 0.07335951924324036, 0.07714371383190155, 0.03240363299846649, -0.048241257667541504, 0.049815163016319275, -0.025152020156383514, 0.01981024444103241, 0.03484851121902466, 0.05107364058494568, 0.06281529366970062, 0.0800151526927948, -0.06782390177249908, 0.0019963905215263367, -0.0017837658524513245, -0.04630781710147858, 0.0933128297328949, -0.017649248242378235, -0.03501374274492264, 0.031569600105285645, -0.03374379873275757, -0.015092819929122925, -0.0873241052031517, 0.011761680245399475, -9.004771709442139e-05, 0.02182956039905548, -0.01870094984769821, -0.035719260573387146, -0.022525295615196228, 0.08363090455532074, 0.0941590666770935, -0.013459868729114532, 0.10532844066619873, -0.10587523877620697, 0.04119616746902466, -0.017255164682865143, -0.041193485260009766, -0.1057918518781662, 0.06175430119037628, 0.0429643839597702, 0.11008340120315552, 0.041561439633369446, 0.017970606684684753, 0.09067435562610626, 0.042149126529693604, 0.06646332144737244, 0.08203992247581482, 0.02658754587173462, 0.037014544010162354, 0.0487552136182785, -0.04369748383760452, 0.06078064441680908, -0.024246878921985626, -0.006406888365745544, 0.10105802118778229, -0.09573829919099808, -0.10028790682554245, -0.05308838561177254, 0.0872608870267868, 0.0034089311957359314, 0.06740859150886536, 0.06995029747486115, 0.09427958726882935, -0.10371091216802597, 0.09706145524978638, 0.05762404203414917, 0.04276770353317261, -0.03129716217517853, 0.0026096776127815247, -0.06065214425325394, -0.04505603760480881, -0.10731588304042816, -0.10010082274675369, 0.03999246656894684, 0.0368487685918808], [0.0445852093398571, -0.09308326989412308, -0.03081921860575676, -0.08846484869718552, 0.034471869468688965, 0.11196629703044891, -0.02899722009897232, 0.045600492507219315, -0.007355682551860809, -0.0750272274017334, -0.05828028544783592, 0.10689909756183624, 0.08141295611858368, 0.016785595566034317, 0.0555875301361084, 0.0243866927921772, -0.11075159907341003, -0.0656902864575386, -0.01461043395102024, -0.04352783039212227, -0.03123321384191513, -0.07951105386018753, 0.012698814272880554, -0.07608908414840698, -0.050925061106681824, -0.056593913584947586, 0.040042489767074585, -0.07926158607006073, 0.11703132838010788, 0.009618207812309265, 0.011196902953088284, 0.12264344841241837, -0.04558965191245079, -0.010322402231395245, -0.08414654433727264, 0.06668068468570709, 0.059412091970443726, 0.08272447437047958, -0.0703783854842186, 0.06137429550290108, -0.011245246045291424, -0.05325581133365631, 0.08825436234474182, -0.03554200381040573, -0.08044541627168655, 0.018610216677188873, -0.07122954726219177, -0.07637306302785873, 0.1315869837999344, 0.05011245608329773, -0.08837176859378815, -0.025690633803606033, 0.08417879045009613, 0.10656067728996277, -0.07877343893051147, -0.029196569696068764, 0.07874288409948349, 0.02818821743130684, -0.05178246647119522, -0.10481302440166473, 0.10475823283195496, 0.0011872764443978667, -0.03015778213739395, 0.05512312054634094, 0.057208046317100525, 0.06727062910795212, 0.013874673284590244, 0.0020285474602133036, 0.0435766838490963, -0.05427636206150055, 0.10343725979328156, 0.045936405658721924, 0.08141238242387772, -0.03238300979137421, 0.009040284901857376, 0.09120621532201767, -0.03490397334098816, -0.029216540977358818, -0.013887567445635796, 0.035632818937301636], [0.05352841317653656, 0.004191793501377106, -0.1255328506231308, -0.10655180364847183, -0.0451241135597229, -0.04341407120227814, -0.004668436944484711, 0.021346598863601685, 0.07712407410144806, 0.02845768630504608, -0.05580565333366394, -0.03808187320828438, -0.05351557582616806, -0.020135216414928436, 0.09936389327049255, -0.003595617599785328, 0.04966535419225693, 0.04244258254766464, 0.07473630458116531, -0.008302900940179825, -0.1040225401520729, 0.07939212769269943, -0.12243764102458954, 0.015957877039909363, 0.05237005650997162, -0.03242979198694229, -0.04200911521911621, 0.006883417721837759, -0.008172862231731415, -0.02424585074186325, 0.059853482991456985, 0.03196335956454277, -0.021923089399933815, 0.024449627846479416, -0.086907759308815, -0.06125665083527565, 0.036421772092580795, 0.04275515303015709, -0.001042589545249939, 0.051201049238443375, -0.034176088869571686, 0.044423963874578476, -0.11400672793388367, 0.0005868971347808838, 0.004973213188350201, 0.04109225049614906, 0.003022804856300354, 0.08921559154987335, -0.05883501470088959, -0.10706714540719986, 0.06122152507305145, -0.013888133689761162, 0.012646780349314213, -0.046796832233667374, 0.03695394843816757, -0.008652487769722939, -0.026461033150553703, 0.014233835972845554, -0.07269362360239029, -0.10119020938873291, -0.04871585592627525, -0.042779095470905304, 0.013647487387061119, 0.009466387331485748, 0.03214935585856438, -0.12744097411632538, 0.008473818190395832, -0.1323619931936264, 0.060868024826049805, 0.09128066897392273, -0.024436673149466515, 0.04671536386013031, -0.016061188653111458, 0.025777800008654594, -0.11925901472568512, -0.005791771691292524, -0.08310958743095398, -0.04389588534832001, -0.1004849374294281, -0.02148100733757019], [0.09467250853776932, 0.09258309006690979, 0.011746512725949287, 0.09000363200902939, -0.0420297235250473, -0.05411963909864426, 0.10002633929252625, 0.03486795723438263, -0.09669604152441025, -0.0640125498175621, -0.053602926433086395, -0.06807184219360352, 0.019574016332626343, 0.02025618590414524, -0.07692417502403259, -0.0886506512761116, -0.02709878981113434, -0.018936224281787872, -0.1102331280708313, -0.10302245616912842, -0.06906145066022873, -0.09440764784812927, -0.09756962954998016, 0.0817272812128067, -0.05185019224882126, -0.019836880266666412, 0.0375257283449173, 0.07628980278968811, -0.07699178904294968, -0.06751251220703125, 0.1112663745880127, 0.03469390049576759, -0.08423392474651337, 0.04405387490987778, -0.022747129201889038, -0.08869048207998276, -0.05643744021654129, 0.018771111965179443, -0.07611896097660065, 0.05314374715089798, 0.025268930941820145, 0.013686438091099262, -0.07365073263645172, -0.04042671620845795, -0.07638886570930481, 0.06227170675992966, -0.09211107343435287, -0.04153810068964958, -0.013727452605962753, 0.0025340691208839417, -0.05836119502782822, 0.07702558487653732, 0.05822603404521942, 0.01568298041820526, -0.08586958050727844, 0.015902847051620483, 0.04631132632493973, 0.00449148565530777, -0.009977318346500397, 0.1014411449432373, 0.05237184464931488, 0.030777420848608017, 0.017643138766288757, -0.009587928652763367, 0.0557674765586853, -0.1005263552069664, -0.05205785855650902, 0.07005929201841354, 0.10272697359323502, -0.07861006259918213, 0.0021791295148432255, -0.08004548400640488, 0.04977722465991974, -0.07785993814468384, -0.1024111807346344, -0.01210048422217369, -0.012438096106052399, -0.06923048198223114, -0.10777266323566437, -0.08236951380968094], [-0.054175637662410736, -0.07596801966428757, -0.10244908928871155, 0.09807190299034119, -0.07044284045696259, -0.032179128378629684, -0.032183267176151276, 0.010597648099064827, 0.11025428771972656, 0.040564414113759995, -0.0875735655426979, 0.06893060356378555, -0.026962270960211754, 0.09530813246965408, -0.07881497591733932, -0.06671090424060822, 0.06079379469156265, 0.07745502889156342, 0.10437656193971634, -0.05978770554065704, -0.026527388021349907, -0.04029272124171257, -0.10283669084310532, -0.0766640305519104, -0.021498270332813263, -0.08595196157693863, 0.08547189086675644, -0.07583338022232056, 0.04708147421479225, 0.09277914464473724, -0.10078106820583344, -0.06591339409351349, 0.08376619219779968, -0.025236498564481735, 0.039499685168266296, -0.06205719709396362, 0.020491231232881546, -0.06015152856707573, 0.003609358100220561, -0.07739903777837753, 0.0739036425948143, 0.08566536009311676, 0.0011077455710619688, 0.09938377141952515, 0.053564779460430145, 0.08148975670337677, -0.06864526867866516, -0.05573393031954765, 0.07586424052715302, -0.03121510148048401, 0.059468820691108704, 0.08186563849449158, 0.10612249374389648, -0.0030085593461990356, 0.10680769383907318, -0.029323093593120575, 0.04947497323155403, 0.04117879271507263, 0.018050506711006165, -0.004989615175873041, 0.0035056511405855417, 0.011575218290090561, 0.07593957334756851, 0.013196706771850586, -0.02588411048054695, -0.08717081695795059, 0.03086787648499012, -0.04646848887205124, -0.023188117891550064, 0.021051868796348572, -0.00399040337651968, -0.10301240533590317, -0.12046116590499878, 0.0576142854988575, 0.011587751097977161, -0.014530500397086143, 0.01148824393749237, 0.06314762681722641, 